{"learner":{"attributes":{"scikit_learn":"{\"_estimator_type\": \"regressor\"}"},"feature_names":[],"feature_types":[],"gradient_booster":{"model":{"cats":{"enc":[],"feature_segments":[],"sorted_idx":[]},"gbtree_model_param":{"num_parallel_tree":"1","num_trees":"300"},"iteration_indptr":[0,1,2,3,4,5,6,7,8,9,10,11,12,13,14,15,16,17,18,19,20,21,22,23,24,25,26,27,28,29,30,31,32,33,34,35,36,37,38,39,40,41,42,43,44,45,46,47,48,49,50,51,52,53,54,55,56,57,58,59,60,61,62,63,64,65,66,67,68,69,70,71,72,73,74,75,76,77,78,79,80,81,82,83,84,85,86,87,88,89,90,91,92,93,94,95,96,97,98,99,100,101,102,103,104,105,106,107,108,109,110,111,112,113,114,115,116,117,118,119,120,121,122,123,124,125,126,127,128,129,130,131,132,133,134,135,136,137,138,139,140,141,142,143,144,145,146,147,148,149,150,151,152,153,154,155,156,157,158,159,160,161,162,163,164,165,166,167,168,169,170,171,172,173,174,175,176,177,178,179,180,181,182,183,184,185,186,187,188,189,190,191,192,193,194,195,196,197,198,199,200,201,202,203,204,205,206,207,208,209,210,211,212,213,214,215,216,217,218,219,220,221,222,223,224,225,226,227,228,229,230,231,232,233,234,235,236,237,238,239,240,241,242,243,244,245,246,247,248,249,250,251,252,253,254,255,256,257,258,259,260,261,262,263,264,265,266,267,268,269,270,271,272,273,274,275,276,277,278,279,280,281,282,283,284,285,286,287,288,289,290,291,292,293,294,295,296,297,298,299,300],"tree_info":[0,0,0,0,0,0,0,0,0,0,0,0,0,0,0,0,0,0,0,0,0,0,0,0,0,0,0,0,0,0,0,0,0,0,0,0,0,0,0,0,0,0,0,0,0,0,0,0,0,0,0,0,0,0,0,0,0,0,0,0,0,0,0,0,0,0,0,0,0,0,0,0,0,0,0,0,0,0,0,0,0,0,0,0,0,0,0,0,0,0,0,0,0,0,0,0,0,0,0,0,0,0,0,0,0,0,0,0,0,0,0,0,0,0,0,0,0,0,0,0,0,0,0,0,0,0,0,0,0,0,0,0,0,0,0,0,0,0,0,0,0,0,0,0,0,0,0,0,0,0,0,0,0,0,0,0,0,0,0,0,0,0,0,0,0,0,0,0,0,0,0,0,0,0,0,0,0,0,0,0,0,0,0,0,0,0,0,0,0,0,0,0,0,0,0,0,0,0,0,0,0,0,0,0,0,0,0,0,0,0,0,0,0,0,0,0,0,0,0,0,0,0,0,0,0,0,0,0,0,0,0,0,0,0,0,0,0,0,0,0,0,0,0,0,0,0,0,0,0,0,0,0,0,0,0,0,0,0,0,0,0,0,0,0,0,0,0,0,0,0,0,0,0,0,0,0,0,0,0,0,0,0,0,0,0,0,0,0,0,0,0,0,0,0,0,0,0,0,0,0],"trees":[{"base_weights":[-7.566103E-2,-7.3171897E0,7.394636E0,-1.1662477E1,-4.6088886E0,3.2789574E0,1.0013874E1,-1.3296105E1,-9.848164E0,-6.277059E0,-4.462942E-1,4.5691905E0,9.094675E-1,8.558897E0,1.2532119E1,-8.111537E-1,-6.2638354E-1,-4.4668436E-1,-6.425738E-1,-2.2867E-1,-3.3763525E-1,-9.1473505E-2,1.11293234E-1,1.1554897E-1,3.0819285E-1,-9.5629334E-2,1.05404615E-1,3.731859E-1,4.7272095E-1,7.013694E-1,5.74603E-1],"categories":[],"categories_nodes":[],"categories_segments":[],"categories_sizes":[],"default_left":[0,0,0,0,0,0,0,0,0,0,0,0,0,0,0,0,0,0,0,0,0,0,0,0,0,0,0,0,0,0,0],"id":0,"left_children":[1,3,5,7,9,11,13,15,17,19,21,23,25,27,29,-1,-1,-1,-1,-1,-1,-1,-1,-1,-1,-1,-1,-1,-1,-1,-1],"loss_changes":[9.396541E4,1.032593E4,9.184016E3,8.7085547E2,3.7816348E3,1.016947E3,1.8053398E3,1.903711E2,3.3560742E2,2.843379E2,5.843545E2,7.635918E2,4.065594E2,2.570078E2,1.3272461E2,0E0,0E0,0E0,0E0,0E0,0E0,0E0,0E0,0E0,0E0,0E0,0E0,0E0,0E0,0E0,0E0],"parents":[2147483647,0,0,1,1,2,2,3,3,4,4,5,5,6,6,7,7,8,8,9,9,10,10,11,11,12,12,13,13,14,14],"right_children":[2,4,6,8,10,12,14,16,18,20,22,24,26,28,30,-1,-1,-1,-1,-1,-1,-1,-1,-1,-1,-1,-1,-1,-1,-1,-1],"split_conditions":[2E0,9.81E1,9.89E1,9.37E1,1.104E2,1.605E2,1.136E2,2.2E1,1.783E2,2.7E1,1.209E2,9.09E1,5.38E1,1.04E2,1.611E2,-8.111537E-1,-6.2638354E-1,-4.4668436E-1,-6.425738E-1,-2.2867E-1,-3.3763525E-1,-9.1473505E-2,1.11293234E-1,1.1554897E-1,3.0819285E-1,-9.5629334E-2,1.05404615E-1,3.731859E-1,4.7272095E-1,7.013694E-1,5.74603E-1],"split_indices":[0,5,5,5,5,3,5,1,3,1,5,5,2,5,3,0,0,0,0,0,0,0,0,0,0,0,0,0,0,0,0],"split_type":[0,0,0,0,0,0,0,0,0,0,0,0,0,0,0,0,0,0,0,0,0,0,0,0,0,0,0,0,0,0,0],"sum_hessian":[1.735E3,8.81E2,8.54E2,3.37E2,5.44E2,3.33E2,5.21E2,1.74E2,1.63E2,3.88E2,1.56E2,2.15E2,1.18E2,3.33E2,1.88E2,3.2E1,1.42E2,1.28E2,3.5E1,8.7E1,3.01E2,1.03E2,5.3E1,9E1,1.25E2,3.5E1,8.3E1,1.54E2,1.79E2,7.2E1,1.16E2],"tree_param":{"num_deleted":"0","num_feature":"8","num_nodes":"31","size_leaf_vector":"1"}},{"base_weights":[-9.690307E-2,4.582241E0,-4.738069E0,1.6429553E0,9.852284E0,-1.0064487E1,-1.7597815E0,3.89583E0,-1.5516922E0,7.1218023E0,1.1844167E1,-1.1307932E1,-7.37946E0,-3.4742181E0,3.0785286E0,8.515671E-2,3.4764943E-1,-2.3640814E-1,3.2760948E-2,4.4068024E-1,-5.726576E-3,6.497519E-1,5.1832E-1,-3.9630288E-1,-6.2580216E-1,-2.5928471E-2,-4.2387754E-1,2.3785925E-1,-2.2244835E-1,3.7662116E-1,3.754848E-2],"categories":[],"categories_nodes":[],"categories_segments":[],"categories_sizes":[],"default_left":[0,0,0,0,0,0,0,0,0,0,0,0,0,0,0,0,0,0,0,0,0,0,0,0,0,0,0,0,0,0,0],"id":1,"left_children":[1,3,5,7,9,11,13,15,17,19,21,23,25,27,29,-1,-1,-1,-1,-1,-1,-1,-1,-1,-1,-1,-1,-1,-1,-1,-1],"loss_changes":[3.7417836E4,1.3274371E4,1.3704311E4,3.9788665E3,1.5853633E3,9.515449E2,4.622702E3,2.1600654E3,1.6084309E3,1.6170117E3,1.6461523E2,7.58791E2,7.565254E2,3.3188438E3,1.5078818E3,0E0,0E0,0E0,0E0,0E0,0E0,0E0,0E0,0E0,0E0,0E0,0E0,0E0,0E0,0E0,0E0],"parents":[2147483647,0,0,1,1,2,2,3,3,4,4,5,5,6,6,7,7,8,8,9,9,10,10,11,11,12,12,13,13,14,14],"right_children":[2,4,6,8,10,12,14,16,18,20,22,24,26,28,30,-1,-1,-1,-1,-1,-1,-1,-1,-1,-1,-1,-1,-1,-1,-1,-1],"split_conditions":[1.671E2,1.047E2,9.95E1,1.611E2,1.116E2,9.61E1,1.142E2,9.62E1,9.54E1,8.53E1,1.616E2,2.77E1,6.96E1,7.66E1,1.716E2,8.515671E-2,3.4764943E-1,-2.3640814E-1,3.2760948E-2,4.4068024E-1,-5.726576E-3,6.497519E-1,5.1832E-1,-3.9630288E-1,-6.2580216E-1,-2.5928471E-2,-4.2387754E-1,2.3785925E-1,-2.2244835E-1,3.7662116E-1,3.754848E-2],"split_indices":[3,5,5,3,5,5,5,5,5,2,3,6,2,2,3,0,0,0,0,0,0,0,0,0,0,0,0,0,0,0,0],"split_type":[0,0,0,0,0,0,0,0,0,0,0,0,0,0,0,0,0,0,0,0,0,0,0,0,0,0,0,0,0,0,0],"sum_hessian":[1.721E3,8.57E2,8.64E2,5.51E2,3.06E2,3.09E2,5.55E2,3.23E2,2.28E2,1.31E2,1.75E2,2.09E2,1E2,4.1E2,1.45E2,1.89E2,1.34E2,9.3E1,1.35E2,1.06E2,2.5E1,9.4E1,8.1E1,5.7E1,1.52E2,1.4E1,8.6E1,4.3E1,3.67E2,4.9E1,9.6E1],"tree_param":{"num_deleted":"0","num_feature":"8","num_nodes":"31","size_leaf_vector":"1"}},{"base_weights":[-2.4292847E-2,4.3358135E0,-4.441129E0,3.5104969E0,9.901049E0,-6.300623E0,4.411413E-1,5.287973E0,8.73858E-1,1.1165985E1,5.7978053E0,-1.0753221E1,-4.857223E0,-7.624464E-1,3.0029132E0,9.384364E-2,3.146974E-1,-2.4553989E-1,6.5076575E-2,-2.2898102E-2,5.7293254E-1,1.189812E-3,4.7662646E-1,-3.6265382E-1,-6.391422E-1,-1.0330564E-1,-3.078957E-1,4.5110136E-2,-1.033599E-1,2.9512936E-1,6.244381E-2],"categories":[],"categories_nodes":[],"categories_segments":[],"categories_sizes":[],"default_left":[0,0,0,0,0,0,0,0,0,0,0,0,0,0,0,0,0,0,0,0,0,0,0,0,0,0,0,0,0,0,0],"id":2,"left_children":[1,3,5,7,9,11,13,15,17,19,21,23,25,27,29,-1,-1,-1,-1,-1,-1,-1,-1,-1,-1,-1,-1,-1,-1,-1,-1],"loss_changes":[3.2757646E4,3.89692E3,7.6741562E3,3.4962422E3,5.0619922E2,3.8810195E3,7.2378577E2,1.518627E3,7.5352246E2,2.8760742E2,6.035744E2,9.6577734E2,1.6717695E3,3.493776E2,3.7408856E2,0E0,0E0,0E0,0E0,0E0,0E0,0E0,0E0,0E0,0E0,0E0,0E0,0E0,0E0,0E0,0E0],"parents":[2147483647,0,0,1,1,2,2,3,3,4,4,5,5,6,6,7,7,8,8,9,9,10,10,11,11,12,12,13,13,14,14],"right_children":[2,4,6,8,10,12,14,16,18,20,22,24,26,28,30,-1,-1,-1,-1,-1,-1,-1,-1,-1,-1,-1,-1,-1,-1,-1,-1],"split_conditions":[1.671E2,3.72E1,1.057E2,1.611E2,1.642E2,8.16E1,1.206E2,7.82E1,7.16E1,6.82E1,9.88E1,2.73E1,1.715E2,3.7E1,1.723E2,9.384364E-2,3.146974E-1,-2.4553989E-1,6.5076575E-2,-2.2898102E-2,5.7293254E-1,1.189812E-3,4.7662646E-1,-3.6265382E-1,-6.391422E-1,-1.0330564E-1,-3.078957E-1,4.5110136E-2,-1.033599E-1,2.9512936E-1,6.244381E-2],"split_indices":[3,6,4,3,3,4,4,4,4,2,2,6,3,1,3,0,0,0,0,0,0,0,0,0,0,0,0,0,0,0,0],"split_type":[0,0,0,0,0,0,0,0,0,0,0,0,0,0,0,0,0,0,0,0,0,0,0,0,0,0,0,0,0,0,0],"sum_hessian":[1.699E3,8.55E2,8.44E2,7.46E2,1.09E2,6.11E2,2.33E2,4.45E2,3.01E2,8.2E1,2.7E1,1.48E2,4.63E2,1.59E2,7.4E1,1.02E2,3.43E2,2E1,2.81E2,2E0,8E1,1.1E1,1.6E1,5.6E1,9.2E1,1.48E2,3.15E2,7E1,8.9E1,2.7E1,4.7E1],"tree_param":{"num_deleted":"0","num_feature":"8","num_nodes":"31","size_leaf_vector":"1"}},{"base_weights":[5.437573E-2,-6.397393E0,6.777417E0,-1.0608511E1,-4.0687094E0,2.9697773E0,9.090774E0,-1.2774411E1,-8.561371E0,-5.6943927E0,-8.131078E-1,5.8431997E0,2.11421E0,7.423759E0,1.050947E1,-7.2667086E-1,-5.717795E-1,-3.9025766E-1,-5.013208E-1,-5.0921416E-1,-2.7735558E-1,-9.939991E-2,1.2934193E-1,4.9734652E-2,3.1674573E-1,2.6457254E-2,1.6401146E-1,3.8398612E-1,1.8632345E-1,4.6961007E-1,5.5740255E-1],"categories":[],"categories_nodes":[],"categories_segments":[],"categories_sizes":[],"default_left":[0,0,0,0,0,0,0,0,0,0,0,0,0,0,0,0,0,0,0,0,0,0,0,0,0,0,0,0,0,0,0],"id":3,"left_children":[1,3,5,7,9,11,13,15,17,19,21,23,25,27,29,-1,-1,-1,-1,-1,-1,-1,-1,-1,-1,-1,-1,-1,-1,-1,-1],"loss_changes":[7.582037E4,8.704113E3,7.5130156E3,1.2961836E3,3.0438936E3,7.8662866E2,1.1801523E3,1.9175977E2,1.0565234E2,1.9743848E2,7.760935E2,1.701206E2,4.6401465E2,2.0608203E2,9.863281E1,0E0,0E0,0E0,0E0,0E0,0E0,0E0,0E0,0E0,0E0,0E0,0E0,0E0,0E0,0E0,0E0],"parents":[2147483647,0,0,1,1,2,2,3,3,4,4,5,5,6,6,7,7,8,8,9,9,10,10,11,11,12,12,13,13,14,14],"right_children":[2,4,6,8,10,12,14,16,18,20,22,24,26,28,30,-1,-1,-1,-1,-1,-1,-1,-1,-1,-1,-1,-1,-1,-1,-1,-1],"split_conditions":[2E0,9.78E1,9.89E1,8.3E1,1.09E2,1.54E2,1.081E2,7.58E1,7.5E1,8.27E1,1.203E2,8.42E1,9.16E1,1.716E2,3.75E1,-7.2667086E-1,-5.717795E-1,-3.9025766E-1,-5.013208E-1,-5.0921416E-1,-2.7735558E-1,-9.939991E-2,1.2934193E-1,4.9734652E-2,3.1674573E-1,2.6457254E-2,1.6401146E-1,3.8398612E-1,1.8632345E-1,4.6961007E-1,5.5740255E-1],"split_indices":[0,5,5,4,5,3,5,4,2,4,5,5,5,3,7,0,0,0,0,0,0,0,0,0,0,0,0,0,0,0,0],"split_type":[0,0,0,0,0,0,0,0,0,0,0,0,0,0,0,0,0,0,0,0,0,0,0,0,0,0,0,0,0,0,0],"sum_hessian":[1.746E3,8.91E2,8.55E2,3.16E2,5.75E2,3.24E2,5.31E2,1.51E2,1.65E2,3.83E2,1.92E2,7.3E1,2.51E2,2.47E2,2.84E2,6.1E1,9E1,1.13E2,5.2E1,1E1,3.73E2,1.43E2,4.9E1,7E0,6.6E1,1.07E2,1.44E2,2.3E2,1.7E1,1.09E2,1.75E2],"tree_param":{"num_deleted":"0","num_feature":"8","num_nodes":"31","size_leaf_vector":"1"}},{"base_weights":[4.4299763E-2,3.8842137E0,-4.0188646E0,6.5960187E-1,7.903164E0,-7.0651493E0,4.205579E-1,2.7891178E0,-2.1828496E0,6.273195E0,9.85322E0,-9.297335E0,-4.722579E0,-1.2040114E0,4.341096E0,6.0709693E-2,2.188885E-1,-1.3434152E-2,-2.2345932E-1,3.8545677E-1,-2.759474E-2,6.0780364E-1,4.420354E-1,-6.1726326E-1,-4.1887942E-1,5.363902E-2,-2.8768423E-1,3.040627E-1,-1.24707974E-1,4.899136E-1,1.5600108E-1],"categories":[],"categories_nodes":[],"categories_segments":[],"categories_sizes":[],"default_left":[0,0,0,0,0,0,0,0,0,0,0,0,0,0,0,0,0,0,0,0,0,0,0,0,0,0,0,0,0,0,0],"id":4,"left_children":[1,3,5,7,9,11,13,15,17,19,21,23,25,27,29,-1,-1,-1,-1,-1,-1,-1,-1,-1,-1,-1,-1,-1,-1,-1,-1],"loss_changes":[2.7069826E4,1.1554709E4,1.140349E4,3.0083994E3,1.2000645E3,2.5706172E3,2.1962268E3,7.0525415E2,9.309785E2,2.1505479E3,3.099004E2,6.114219E2,1.4761772E3,2.3085408E3,6.4245483E2,0E0,0E0,0E0,0E0,0E0,0E0,0E0,0E0,0E0,0E0,0E0,0E0,0E0,0E0,0E0,0E0],"parents":[2147483647,0,0,1,1,2,2,3,3,4,4,5,5,6,6,7,7,8,8,9,9,10,10,11,11,12,12,13,13,14,14],"right_children":[2,4,6,8,10,12,14,16,18,20,22,24,26,28,30,-1,-1,-1,-1,-1,-1,-1,-1,-1,-1,-1,-1,-1,-1,-1,-1],"split_conditions":[1.672E2,1.017E2,1.05E2,1.609E2,1.116E2,9.76E1,1.17E2,9.4E1,6.53E1,8.33E1,1.039E2,8.92E1,7.38E1,8.43E1,1.029E2,6.0709693E-2,2.188885E-1,-1.3434152E-2,-2.2345932E-1,3.8545677E-1,-2.759474E-2,6.0780364E-1,4.420354E-1,-6.1726326E-1,-4.1887942E-1,5.363902E-2,-2.8768423E-1,3.040627E-1,-1.24707974E-1,4.899136E-1,1.5600108E-1],"split_indices":[3,5,5,3,5,5,5,5,2,2,4,5,2,2,2,0,0,0,0,0,0,0,0,0,0,0,0,0,0,0,0],"split_type":[0,0,0,0,0,0,0,0,0,0,0,0,0,0,0,0,0,0,0,0,0,0,0,0,0,0,0,0,0,0,0],"sum_hessian":[1.733E3,8.91E2,8.42E2,4.95E2,3.96E2,4.99E2,3.43E2,2.83E2,2.12E2,2.18E2,1.78E2,2.54E2,2.45E2,2.43E2,1E2,1.43E2,1.4E2,1.16E2,9.6E1,1.8E2,3.8E1,5.1E1,1.27E2,5.6E1,1.98E2,3.7E1,2.08E2,3.6E1,2.07E2,1.7E1,8.3E1],"tree_param":{"num_deleted":"0","num_feature":"8","num_nodes":"31","size_leaf_vector":"1"}},{"base_weights":[2.7032936E-2,-5.9696054E0,6.092488E0,-7.6100087E0,-1.3747926E0,3.0598156E0,7.892046E0,-1.1558694E1,-6.2727485E0,1.7752451E0,-2.0368483E0,5.769852E-1,3.7613385E0,6.786433E0,9.895173E0,-6.743251E-1,-5.167678E-1,-1.9985978E-1,-3.545092E-1,-4.052486E-2,1.6490963E-1,-1.6451651E-1,-3.1248942E-2,2.5389796E-1,1.1335171E-3,1.4471236E-1,2.3839639E-1,2.190582E-1,3.9457253E-1,4.501288E-1,5.6289E-1],"categories":[],"categories_nodes":[],"categories_segments":[],"categories_sizes":[],"default_left":[0,0,0,0,0,0,0,0,0,0,0,0,0,0,0,0,0,0,0,0,0,0,0,0,0,0,0,0,0,0,0],"id":5,"left_children":[1,3,5,7,9,11,13,15,17,19,21,23,25,27,29,-1,-1,-1,-1,-1,-1,-1,-1,-1,-1,-1,-1,-1,-1,-1,-1],"loss_changes":[6.3724332E4,6.6299414E3,4.7293047E3,3.3544844E3,4.8953754E2,5.656443E2,1.1420664E3,2.4502539E2,8.7753906E2,1.641291E2,3.3950574E2,1.8201672E2,2.0789282E2,9.0896875E2,1.3217383E2,0E0,0E0,0E0,0E0,0E0,0E0,0E0,0E0,0E0,0E0,0E0,0E0,0E0,0E0,0E0,0E0],"parents":[2147483647,0,0,1,1,2,2,3,3,4,4,5,5,6,6,7,7,8,8,9,9,10,10,11,11,12,12,13,13,14,14],"right_children":[2,4,6,8,10,12,14,16,18,20,22,24,26,28,30,-1,-1,-1,-1,-1,-1,-1,-1,-1,-1,-1,-1,-1,-1,-1,-1],"split_conditions":[2E0,1.057E2,8.52E1,8.31E1,2.7E1,7.2E1,3.49E1,7.58E1,3E1,9.88E1,1.158E2,4.23E1,2.76E1,3.61E1,3.91E1,-6.743251E-1,-5.167678E-1,-1.9985978E-1,-3.545092E-1,-4.052486E-2,1.6490963E-1,-1.6451651E-1,-3.1248942E-2,2.5389796E-1,1.1335171E-3,1.4471236E-1,2.3839639E-1,2.190582E-1,3.9457253E-1,4.501288E-1,5.6289E-1],"split_indices":[0,4,4,4,1,4,6,4,1,2,4,2,6,7,6,0,0,0,0,0,0,0,0,0,0,0,0,0,0,0,0],"split_type":[0,0,0,0,0,0,0,0,0,0,0,0,0,0,0,0,0,0,0,0,0,0,0,0,0,0,0,0,0,0,0],"sum_hessian":[1.75E3,8.8E2,8.7E2,6.48E2,2.32E2,3.25E2,5.45E2,1.62E2,4.86E2,4E1,1.92E2,7.2E1,2.53E2,3.54E2,1.91E2,5.9E1,1.03E2,1.3E2,3.56E2,1.5E1,2.5E1,1.01E2,9.1E1,7E0,6.5E1,1.38E2,1.15E2,1.13E2,2.41E2,1.2E2,7.1E1],"tree_param":{"num_deleted":"0","num_feature":"8","num_nodes":"31","size_leaf_vector":"1"}},{"base_weights":[-1.9141345E-1,3.2283907E0,-3.6667955E0,2.419145E0,8.4297695E0,-9.282955E0,-2.4830284E0,3.9316916E0,3.3477372E-1,9.663452E0,4.850815E0,-6.6671095E0,-1.1227752E1,-3.8559878E0,1.2229281E-1,5.7759076E-2,2.3590516E-1,-1.915688E-1,3.433512E-2,5.96526E-1,4.3232098E-1,4.9016137E-2,4.1041446E-1,-6.529894E-2,-4.178276E-1,-6.15144E-1,-3.8193116E-1,-7.501629E-2,-2.6168567E-1,9.4501495E-2,-6.260403E-2],"categories":[],"categories_nodes":[],"categories_segments":[],"categories_sizes":[],"default_left":[0,0,0,0,0,0,0,0,0,0,0,0,0,0,0,0,0,0,0,0,0,0,0,0,0,0,0,0,0,0,0],"id":6,"left_children":[1,3,5,7,9,11,13,15,17,19,21,23,25,27,29,-1,-1,-1,-1,-1,-1,-1,-1,-1,-1,-1,-1,-1,-1,-1,-1],"loss_changes":[2.056122E4,3.6500234E3,5.681127E3,2.3821318E3,4.6971387E2,6.8314844E2,2.540142E3,9.509131E2,4.7034494E2,9.513281E1,4.0779565E2,5.868699E2,2.3016016E2,1.5012837E3,6.00031E2,0E0,0E0,0E0,0E0,0E0,0E0,0E0,0E0,0E0,0E0,0E0,0E0,0E0,0E0,0E0,0E0],"parents":[2147483647,0,0,1,1,2,2,3,3,4,4,5,5,6,6,7,7,8,8,9,9,10,10,11,11,12,12,13,13,14,14],"right_children":[2,4,6,8,10,12,14,16,18,20,22,24,26,28,30,-1,-1,-1,-1,-1,-1,-1,-1,-1,-1,-1,-1,-1,-1,-1,-1],"split_conditions":[1.671E2,3.68E1,8.18E1,1.611E2,1.643E2,2.82E1,1.057E2,7.67E1,7.16E1,1.557E2,9.88E1,1.699E2,8.02E1,1.72E2,1.738E2,5.7759076E-2,2.3590516E-1,-1.915688E-1,3.433512E-2,5.96526E-1,4.3232098E-1,4.9016137E-2,4.1041446E-1,-6.529894E-2,-4.178276E-1,-6.15144E-1,-3.8193116E-1,-7.501629E-2,-2.6168567E-1,9.4501495E-2,-6.260403E-2],"split_indices":[3,6,4,3,3,6,4,4,4,3,2,3,4,3,3,0,0,0,0,0,0,0,0,0,0,0,0,0,0,0,0],"split_type":[0,0,0,0,0,0,0,0,0,0,0,0,0,0,0,0,0,0,0,0,0,0,0,0,0,0,0,0,0,0,0],"sum_hessian":[1.728E3,8.71E2,8.57E2,7.55E2,1.16E2,1.48E2,7.09E2,4.37E2,3.18E2,8.5E1,3.1E1,6.5E1,8.3E1,4.64E2,2.45E2,9.7E1,3.4E2,2.4E1,2.94E2,2.3E1,6.2E1,1.5E1,1.6E1,1.6E1,4.9E1,6.2E1,2.1E1,1.72E2,2.92E2,1.07E2,1.38E2],"tree_param":{"num_deleted":"0","num_feature":"8","num_nodes":"31","size_leaf_vector":"1"}},{"base_weights":[-6.612379E-3,-5.6003914E0,5.6451073E0,-9.095436E0,-3.5298944E0,2.9212837E0,8.140007E0,-1.1110204E1,-7.7537985E0,-4.765254E0,-4.6575913E-1,9.665198E-1,3.9708374E0,6.651946E0,9.15172E0,-6.217988E-1,-4.9353486E-1,8.673144E-3,-3.8973558E-1,-2.1508196E-1,-3.060833E-1,-7.1219854E-2,1.1756853E-1,2.077698E-1,-1.1174737E-2,2.571795E-1,1.6437502E-1,3.7373894E-1,2.6472238E-1,4.071087E-1,4.8309898E-1],"categories":[],"categories_nodes":[],"categories_segments":[],"categories_sizes":[],"default_left":[0,0,0,0,0,0,0,0,0,0,0,0,0,0,0,0,0,0,0,0,0,0,0,0,0,0,0,0,0,0,0],"id":7,"left_children":[1,3,5,7,9,11,13,15,17,19,21,23,25,27,29,-1,-1,-1,-1,-1,-1,-1,-1,-1,-1,-1,-1,-1,-1,-1,-1],"loss_changes":[5.5230477E4,6.3215215E3,5.8816523E3,7.950625E2,2.0910566E3,8.516914E2,6.211113E2,8.75918E1,6.5893555E1,2.2143457E2,4.3544647E2,5.587656E2,2.0026611E2,1.6930176E2,5.8871094E1,0E0,0E0,0E0,0E0,0E0,0E0,0E0,0E0,0E0,0E0,0E0,0E0,0E0,0E0,0E0,0E0],"parents":[2147483647,0,0,1,1,2,2,3,3,4,4,5,5,6,6,7,7,8,8,9,9,10,10,11,11,12,12,13,13,14,14],"right_children":[2,4,6,8,10,12,14,16,18,20,22,24,26,28,30,-1,-1,-1,-1,-1,-1,-1,-1,-1,-1,-1,-1,-1,-1,-1,-1],"split_conditions":[2E0,9.78E1,1.022E2,8.15E1,1.104E2,9.18E1,1.095E2,7.58E1,3.25E1,1.778E2,1.23E2,1.544E2,1.58E2,3.24E1,3.75E1,-6.217988E-1,-4.9353486E-1,8.673144E-3,-3.8973558E-1,-2.1508196E-1,-3.060833E-1,-7.1219854E-2,1.1756853E-1,2.077698E-1,-1.1174737E-2,2.571795E-1,1.6437502E-1,3.7373894E-1,2.6472238E-1,4.071087E-1,4.8309898E-1],"split_indices":[0,5,5,4,5,5,5,4,7,3,5,3,3,6,7,0,0,0,0,0,0,0,0,0,0,0,0,0,0,0,0],"split_type":[0,0,0,0,0,0,0,0,0,0,0,0,0,0,0,0,0,0,0,0,0,0,0,0,0,0,0,0,0,0,0],"sum_hessian":[1.745E3,8.77E2,8.68E2,3.25E2,5.52E2,4.16E2,4.52E2,1.27E2,1.98E2,3.93E2,1.59E2,1.46E2,2.7E2,1.86E2,2.66E2,5.7E1,7E1,1E0,1.97E2,2.96E2,9.7E1,1.19E2,4E1,3.9E1,1.07E2,9.7E1,1.73E2,1.13E2,7.3E1,9.5E1,1.71E2],"tree_param":{"num_deleted":"0","num_feature":"8","num_nodes":"31","size_leaf_vector":"1"}},{"base_weights":[5.099958E-2,-5.200573E0,5.3633657E0,-7.644501E0,-2.6994808E0,2.7249095E0,6.7860928E0,-1.0010396E1,-6.3528614E0,-3.8510027E0,-1.2907681E-1,8.669857E-1,3.6450243E0,5.791722E0,8.519723E0,-5.758712E-1,-4.4766077E-1,-1.8852852E-1,-3.8121843E-1,1.7622814E-2,-2.1518953E-1,1.8673621E-1,-3.7771426E-2,2.5375244E-1,-4.757964E-3,-1.7870554E-1,1.8673192E-1,2.0932566E-1,3.4299E-1,4.0741014E-1,5.2687234E-1],"categories":[],"categories_nodes":[],"categories_segments":[],"categories_sizes":[],"default_left":[0,0,0,0,0,0,0,0,0,0,0,0,0,0,0,0,0,0,0,0,0,0,0,0,0,0,0,0,0,0,0],"id":8,"left_children":[1,3,5,7,9,11,13,15,17,19,21,23,25,27,29,-1,-1,-1,-1,-1,-1,-1,-1,-1,-1,-1,-1,-1,-1,-1,-1],"loss_changes":[4.8431402E4,5.3155684E3,3.221043E3,1.2840488E3,1.2811294E3,5.165288E2,9.1602344E2,1.4223438E2,9.168721E2,5.705962E2,3.295346E2,4.1345712E2,1.4467554E2,5.867822E2,6.556348E1,0E0,0E0,0E0,0E0,0E0,0E0,0E0,0E0,0E0,0E0,0E0,0E0,0E0,0E0,0E0,0E0],"parents":[2147483647,0,0,1,1,2,2,3,3,4,4,5,5,6,6,7,7,8,8,9,9,10,10,11,11,12,12,13,13,14,14],"right_children":[2,4,6,8,10,12,14,16,18,20,22,24,26,28,30,-1,-1,-1,-1,-1,-1,-1,-1,-1,-1,-1,-1,-1,-1,-1,-1],"split_conditions":[2E0,9.68E1,8.48E1,8.27E1,1.115E2,7.43E1,3.49E1,7.58E1,3E1,2.3E1,2.7E1,1.542E2,2.15E1,3.7E1,5.3E1,-5.758712E-1,-4.4766077E-1,-1.8852852E-1,-3.8121843E-1,1.7622814E-2,-2.1518953E-1,1.8673621E-1,-3.7771426E-2,2.5375244E-1,-4.757964E-3,-1.7870554E-1,1.8673192E-1,2.0932566E-1,3.4299E-1,4.0741014E-1,5.2687234E-1],"split_indices":[0,4,4,4,4,4,6,4,1,1,1,3,6,7,1,0,0,0,0,0,0,0,0,0,0,0,0,0,0,0,0],"split_type":[0,0,0,0,0,0,0,0,0,0,0,0,0,0,0,0,0,0,0,0,0,0,0,0,0,0,0,0,0,0,0],"sum_hessian":[1.734E3,8.72E2,8.62E2,4.4E2,4.32E2,3.03E2,5.59E2,1.53E2,2.87E2,2.98E2,1.34E2,1.01E2,2.02E2,3.58E2,2.01E2,5.9E1,9.4E1,9.6E1,1.91E2,2.9E1,2.69E2,1.8E1,1.16E2,1.8E1,8.3E1,2E0,2E2,1.45E2,2.13E2,1.74E2,2.7E1],"tree_param":{"num_deleted":"0","num_feature":"8","num_nodes":"31","size_leaf_vector":"1"}},{"base_weights":[1.4343368E-1,-4.754229E0,5.162214E0,-8.009031E0,-2.997667E0,2.5973642E0,7.209668E0,-1.00743265E1,-7.5020523E0,-4.306614E0,-4.45627E-1,1.2970355E0,3.8370728E0,5.826057E0,8.291151E0,-6.1181563E-1,-4.4247872E-1,-3.3672887E-1,-4.422457E-1,-1.3806671E-1,-2.3792318E-1,-7.410296E-2,9.382494E-2,-1.3544668E-1,7.821594E-2,2.4612284E-1,1.0690105E-1,3.2643506E-1,1.8376468E-1,3.9091858E-1,4.693307E-1],"categories":[],"categories_nodes":[],"categories_segments":[],"categories_sizes":[],"default_left":[0,0,0,0,0,0,0,0,0,0,0,0,0,0,0,0,0,0,0,0,0,0,0,0,0,0,0,0,0,0,0],"id":9,"left_children":[1,3,5,7,9,11,13,15,17,19,21,23,25,27,29,-1,-1,-1,-1,-1,-1,-1,-1,-1,-1,-1,-1,-1,-1,-1,-1],"loss_changes":[4.2204324E4,4.944291E3,4.4344727E3,2.4273047E2,1.8887949E3,6.043699E2,6.5647656E2,4.2643555E1,1.9602441E2,2.48E2,4.6727924E2,2.0339325E2,3.453916E2,2.9336182E2,6.2304688E1,0E0,0E0,0E0,0E0,0E0,0E0,0E0,0E0,0E0,0E0,0E0,0E0,0E0,0E0,0E0,0E0],"parents":[2147483647,0,0,1,1,2,2,3,3,4,4,5,5,6,6,7,7,8,8,9,9,10,10,11,11,12,12,13,13,14,14],"right_children":[2,4,6,8,10,12,14,16,18,20,22,24,26,28,30,-1,-1,-1,-1,-1,-1,-1,-1,-1,-1,-1,-1,-1,-1,-1,-1],"split_conditions":[2E0,9.78E1,1.01E2,8.94E1,1.093E2,9.42E1,1.095E2,2.3E1,4.19E1,2.8E1,1.203E2,8.42E1,6.34E1,7.6E1,1.27E2,-6.1181563E-1,-4.4247872E-1,-3.3672887E-1,-4.422457E-1,-1.3806671E-1,-2.3792318E-1,-7.410296E-2,9.382494E-2,-1.3544668E-1,7.821594E-2,2.4612284E-1,1.0690105E-1,3.2643506E-1,1.8376468E-1,3.9091858E-1,4.693307E-1],"split_indices":[0,5,5,5,5,5,5,1,7,1,5,5,2,2,5,0,0,0,0,0,0,0,0,0,0,0,0,0,0,0,0],"split_type":[0,0,0,0,0,0,0,0,0,0,0,0,0,0,0,0,0,0,0,0,0,0,0,0,0,0,0,0,0,0,0],"sum_hessian":[1.715E3,8.68E2,8.47E2,3.03E2,5.65E2,3.77E2,4.7E2,5.6E1,2.47E2,3.73E2,1.92E2,1.85E2,1.92E2,2.09E2,2.61E2,1.7E1,3.9E1,1.61E2,8.6E1,8.6E1,2.87E2,1.33E2,5.9E1,1.1E1,1.74E2,1.16E2,7.6E1,1.56E2,5.3E1,1.88E2,7.3E1],"tree_param":{"num_deleted":"0","num_feature":"8","num_nodes":"31","size_leaf_vector":"1"}},{"base_weights":[9.632112E-2,-4.6997957E0,4.798718E0,-7.7646337E0,-2.8486483E0,2.5500185E0,7.0159254E0,-9.491302E0,-6.629618E0,-3.665553E0,7.333735E-1,-1.998485E-1,3.2301576E0,6.176187E0,7.9664307E0,-4.4139624E-1,-5.388886E-1,-3.4581912E-1,-1.9484554E-1,-2.1291664E-1,-1.2554413E-1,-1.5654257E-2,1.1554443E-1,1.259648E-1,-9.541008E-2,1.145617E-1,2.0519136E-1,3.202066E-1,1.4247966E-1,4.9526277E-1,3.7358162E-1],"categories":[],"categories_nodes":[],"categories_segments":[],"categories_sizes":[],"default_left":[0,0,0,0,0,0,0,0,0,0,0,0,0,0,0,0,0,0,0,0,0,0,0,0,0,0,0,0,0,0,0],"id":10,"left_children":[1,3,5,7,9,11,13,15,17,19,21,23,25,27,29,-1,-1,-1,-1,-1,-1,-1,-1,-1,-1,-1,-1,-1,-1,-1,-1],"loss_changes":[3.8904348E4,4.8230215E3,4.3247695E3,5.661699E2,1.5652637E3,8.123518E2,3.0039844E2,1.153125E1,1.2742578E2,2.870498E2,1.6580392E2,4.0894482E2,2.7606494E2,1.6146289E2,1.1977637E2,0E0,0E0,0E0,0E0,0E0,0E0,0E0,0E0,0E0,0E0,0E0,0E0,0E0,0E0,0E0,0E0],"parents":[2147483647,0,0,1,1,2,2,3,3,4,4,5,5,6,6,7,7,8,8,9,9,10,10,11,11,12,12,13,13,14,14],"right_children":[2,4,6,8,10,12,14,16,18,20,22,24,26,28,30,-1,-1,-1,-1,-1,-1,-1,-1,-1,-1,-1,-1,-1,-1,-1,-1],"split_conditions":[2E0,9.78E1,1.025E2,8.09E1,1.15E2,8.86E1,1.136E2,3.02E1,9.66E1,1.062E2,1.23E2,3.55E1,9.62E1,1.078E2,1.035E2,-4.4139624E-1,-5.388886E-1,-3.4581912E-1,-1.9484554E-1,-2.1291664E-1,-1.2554413E-1,-1.5654257E-2,1.1554443E-1,1.259648E-1,-9.541008E-2,1.145617E-1,2.0519136E-1,3.202066E-1,1.4247966E-1,4.9526277E-1,3.7358162E-1],"split_indices":[0,5,5,4,5,5,5,6,4,5,5,7,5,4,4,0,0,0,0,0,0,0,0,0,0,0,0,0,0,0,0],"split_type":[0,0,0,0,0,0,0,0,0,0,0,0,0,0,0,0,0,0,0,0,0,0,0,0,0,0,0,0,0,0,0],"sum_hessian":[1.723E3,8.53E2,8.7E2,3.2E2,5.33E2,4.33E2,4.37E2,1.24E2,1.96E2,4.34E2,9.9E1,8.6E1,3.47E2,2.36E2,2.01E2,8.7E1,3.7E1,1.76E2,2E1,2.85E2,1.49E2,6E1,3.9E1,3.3E1,5.3E1,1.69E2,1.78E2,2.2E2,1.6E1,3.7E1,1.64E2],"tree_param":{"num_deleted":"0","num_feature":"8","num_nodes":"31","size_leaf_vector":"1"}},{"base_weights":[3.4124397E-2,2.748814E0,-2.9441688E0,-8.768588E-2,5.051159E0,-5.0740952E0,5.136304E-1,4.626196E0,-1.2949837E0,3.6821089E0,6.996616E0,-7.2513504E0,-3.7144787E0,5.3271394E0,-3.2930106E-1,2.4274917E-1,-1.5465641E-1,1.6258195E-2,-2.007885E-1,2.7223784E-1,-1.3319674E-2,3.9857885E-1,2.8802636E-1,-5.453478E-2,-3.824684E-1,7.209921E-3,-2.300442E-1,2.6936198E-2,3.075822E-1,-1.2450494E-1,1.1671187E-1],"categories":[],"categories_nodes":[],"categories_segments":[],"categories_sizes":[],"default_left":[0,0,0,0,0,0,0,0,0,0,0,0,0,0,0,0,0,0,0,0,0,0,0,0,0,0,0,0,0,0,0],"id":11,"left_children":[1,3,5,7,9,11,13,15,17,19,21,23,25,27,29,-1,-1,-1,-1,-1,-1,-1,-1,-1,-1,-1,-1,-1,-1,-1,-1],"loss_changes":[1.3971133E4,5.9041064E3,6.07125E3,2.3165613E3,1.3032881E3,1.4827842E3,1.2798535E3,1.6160193E2,1.4295222E3,2.054597E3,2.0113379E2,4.698047E2,1.0814941E3,1.8224524E2,1.5540063E3,0E0,0E0,0E0,0E0,0E0,0E0,0E0,0E0,0E0,0E0,0E0,0E0,0E0,0E0,0E0,0E0],"parents":[2147483647,0,0,1,1,2,2,3,3,4,4,5,5,6,6,7,7,8,8,9,9,10,10,11,11,12,12,13,13,14,14],"right_children":[2,4,6,8,10,12,14,16,18,20,22,24,26,28,30,-1,-1,-1,-1,-1,-1,-1,-1,-1,-1,-1,-1,-1,-1,-1,-1],"split_conditions":[1.671E2,9.9E1,1.056E2,1.54E2,1.104E2,9.6E1,8.62E1,3.81E1,6.06E1,7.6E1,1.616E2,2.47E1,7.38E1,1.062E2,1.155E2,2.4274917E-1,-1.5465641E-1,1.6258195E-2,-2.007885E-1,2.7223784E-1,-1.3319674E-2,3.9857885E-1,2.8802636E-1,-5.453478E-2,-3.824684E-1,7.209921E-3,-2.300442E-1,2.6936198E-2,3.075822E-1,-1.2450494E-1,1.1671187E-1],"split_indices":[3,5,5,3,5,5,2,7,2,2,3,6,2,5,5,0,0,0,0,0,0,0,0,0,0,0,0,0,0,0,0],"split_type":[0,0,0,0,0,0,0,0,0,0,0,0,0,0,0,0,0,0,0,0,0,0,0,0,0,0,0,0,0,0,0],"sum_hessian":[1.726E3,9.03E2,8.23E2,4.05E2,4.98E2,5.09E2,3.14E2,8.2E1,3.23E2,2.94E2,2.04E2,1.94E2,3.15E2,4.6E1,2.68E2,8E1,2E0,2.03E2,1.2E2,2.03E2,9.1E1,1.11E2,9.3E1,1.2E1,1.82E2,5.9E1,2.56E2,7E0,3.9E1,1.48E2,1.2E2],"tree_param":{"num_deleted":"0","num_feature":"8","num_nodes":"31","size_leaf_vector":"1"}},{"base_weights":[-2.7020613E-2,-4.2349935E0,4.4521427E0,-6.288561E0,-2.1206E0,1.9059583E0,5.9742723E0,-8.429001E0,-5.0404315E0,-2.7894766E0,1.2343621E0,4.0477047E0,1.3329134E0,4.909927E0,7.366847E0,-4.8036948E-1,-3.7834877E-1,-1.5188283E-1,-2.9532322E-1,-6.4674325E-2,-1.7862265E-1,3.63235E-2,2.2061124E-1,1.5350316E-1,3.7298277E-1,-5.2258026E-2,9.9671476E-2,2.5289845E-1,7.6217405E-2,3.2718083E-1,4.0990454E-1],"categories":[],"categories_nodes":[],"categories_segments":[],"categories_sizes":[],"default_left":[0,0,0,0,0,0,0,0,0,0,0,0,0,0,0,0,0,0,0,0,0,0,0,0,0,0,0,0,0,0,0],"id":12,"left_children":[1,3,5,7,9,11,13,15,17,19,21,23,25,27,29,-1,-1,-1,-1,-1,-1,-1,-1,-1,-1,-1,-1,-1,-1,-1,-1],"loss_changes":[3.2607387E4,3.8597734E3,3.2363848E3,1.1650527E3,9.9307153E2,3.8120947E2,7.404922E2,9.49082E1,4.8158496E2,4.2642676E2,1.1623151E2,1.9725232E2,3.9477252E2,1.4265283E2,1.0032324E2,0E0,0E0,0E0,0E0,0E0,0E0,0E0,0E0,0E0,0E0,0E0,0E0,0E0,0E0,0E0,0E0],"parents":[2147483647,0,0,1,1,2,2,3,3,4,4,5,5,6,6,7,7,8,8,9,9,10,10,11,11,12,12,13,13,14,14],"right_children":[2,4,6,8,10,12,14,16,18,20,22,24,26,28,30,-1,-1,-1,-1,-1,-1,-1,-1,-1,-1,-1,-1,-1,-1,-1,-1],"split_conditions":[2E0,9.68E1,9.89E1,8.31E1,1.174E2,1.54E2,1.118E2,7.58E1,3E1,3.7E1,1.316E2,1.53E2,8.86E1,1.06E2,1.213E2,-4.8036948E-1,-3.7834877E-1,-1.5188283E-1,-2.9532322E-1,-6.4674325E-2,-1.7862265E-1,3.63235E-2,2.2061124E-1,1.5350316E-1,3.7298277E-1,-5.2258026E-2,9.9671476E-2,2.5289845E-1,7.6217405E-2,3.2718083E-1,4.0990454E-1],"split_indices":[0,4,5,4,5,3,5,4,1,1,5,3,5,4,5,0,0,0,0,0,0,0,0,0,0,0,0,0,0,0,0],"split_type":[0,0,0,0,0,0,0,0,0,0,0,0,0,0,0,0,0,0,0,0,0,0,0,0,0,0,0,0,0,0,0],"sum_hessian":[1.728E3,8.91E2,8.37E2,4.51E2,4.4E2,3.14E2,5.23E2,1.64E2,2.87E2,3.67E2,7.3E1,6.5E1,2.49E2,2.99E2,2.24E2,6.5E1,9.9E1,8.8E1,1.99E2,1.27E2,2.4E2,6.4E1,9E0,5.2E1,1.3E1,5.4E1,1.95E2,2.86E2,1.3E1,1.17E2,1.07E2],"tree_param":{"num_deleted":"0","num_feature":"8","num_nodes":"31","size_leaf_vector":"1"}},{"base_weights":[-9.684591E-2,2.3488975E0,-2.5792766E0,1.9273046E-1,5.15537E0,-4.85321E0,1.0782693E-1,1.8240408E0,-2.063927E0,3.7396736E0,6.800478E0,-6.149617E0,-3.1156168E0,5.108926E0,-5.621431E-1,1.8520297E-1,4.5654647E-2,-6.0353722E-2,-2.6718527E-1,2.7934435E-1,4.5633473E-2,4.0289402E-1,2.732899E-1,-2.63231E-1,-4.1132686E-1,8.547402E-3,-1.9515108E-1,3.2909527E-1,9.2182934E-2,-9.604283E-2,1.7601927E-1],"categories":[],"categories_nodes":[],"categories_segments":[],"categories_sizes":[],"default_left":[0,0,0,0,0,0,0,0,0,0,0,0,0,0,0,0,0,0,0,0,0,0,0,0,0,0,0,0,0,0,0],"id":13,"left_children":[1,3,5,7,9,11,13,15,17,19,21,23,25,27,29,-1,-1,-1,-1,-1,-1,-1,-1,-1,-1,-1,-1,-1,-1,-1,-1],"loss_changes":[1.0570275E4,5.3059307E3,5.2798184E3,1.8333751E3,8.6190625E2,1.0350713E3,1.3330547E3,4.9155908E2,5.8089966E2,1.0758718E3,2.4964746E2,4.474541E2,5.234142E2,2.139198E2,1.9537542E3,0E0,0E0,0E0,0E0,0E0,0E0,0E0,0E0,0E0,0E0,0E0,0E0,0E0,0E0,0E0,0E0],"parents":[2147483647,0,0,1,1,2,2,3,3,4,4,5,5,6,6,7,7,8,8,9,9,10,10,11,11,12,12,13,13,14,14],"right_children":[2,4,6,8,10,12,14,16,18,20,22,24,26,28,30,-1,-1,-1,-1,-1,-1,-1,-1,-1,-1,-1,-1,-1,-1,-1,-1],"split_conditions":[1.671E2,1.021E2,1.04E2,1.611E2,1.118E2,9.81E1,8.36E1,1.544E2,3.29E1,7.6E1,1.611E2,3.16E1,7.65E1,1.719E2,1.177E2,1.8520297E-1,4.5654647E-2,-6.0353722E-2,-2.6718527E-1,2.7934435E-1,4.5633473E-2,4.0289402E-1,2.732899E-1,-2.63231E-1,-4.1132686E-1,8.547402E-3,-1.9515108E-1,3.2909527E-1,9.2182934E-2,-9.604283E-2,1.7601927E-1],"split_indices":[3,5,5,3,5,5,2,3,6,2,3,6,2,3,5,0,0,0,0,0,0,0,0,0,0,0,0,0,0,0,0],"split_type":[0,0,0,0,0,0,0,0,0,0,0,0,0,0,0,0,0,0,0,0,0,0,0,0,0,0,0,0,0,0,0],"sum_hessian":[1.739E3,8.76E2,8.63E2,4.96E2,3.8E2,4.67E2,3.96E2,2.88E2,2.08E2,2.06E2,1.74E2,2.66E2,2.01E2,4.6E1,3.5E2,9.3E1,1.95E2,1.66E2,4.2E1,1.24E2,8.2E1,8.7E1,8.7E1,1.89E2,7.7E1,3.9E1,1.62E2,3.1E1,1.5E1,2.63E2,8.7E1],"tree_param":{"num_deleted":"0","num_feature":"8","num_nodes":"31","size_leaf_vector":"1"}},{"base_weights":[-5.858205E-2,-3.991649E0,4.013042E0,-6.5916767E0,-2.484862E0,1.7150776E0,5.4987345E0,-8.136321E0,-5.38058E0,-3.346012E0,-5.391332E-1,4.2681217E-1,2.4570017E0,4.542182E0,6.3842697E0,-3.6950073E-1,-4.8239946E-1,-1.6970752E-1,-2.9721066E-1,-6.292005E-2,-1.9378328E-1,-6.4045504E-2,1.0211899E-1,1.2773289E-1,-1.2481589E-2,1.4988582E-1,9.207294E-3,4.05845E-1,2.1327174E-1,3.9970505E-1,3.010152E-1],"categories":[],"categories_nodes":[],"categories_segments":[],"categories_sizes":[],"default_left":[0,0,0,0,0,0,0,0,0,0,0,0,0,0,0,0,0,0,0,0,0,0,0,0,0,0,0,0,0,0,0],"id":14,"left_children":[1,3,5,7,9,11,13,15,17,19,21,23,25,27,29,-1,-1,-1,-1,-1,-1,-1,-1,-1,-1,-1,-1,-1,-1,-1,-1],"loss_changes":[2.7768229E4,3.4390215E3,2.8993555E3,5.604619E2,9.365122E2,3.200984E2,4.0893164E2,8.664551E1,1.8583447E2,4.2413916E2,3.3389496E2,1.7911938E2,2.612179E2,2.1467969E2,1.07728516E2,0E0,0E0,0E0,0E0,0E0,0E0,0E0,0E0,0E0,0E0,0E0,0E0,0E0,0E0,0E0,0E0],"parents":[2147483647,0,0,1,1,2,2,3,3,4,4,5,5,6,6,7,7,8,8,9,9,10,10,11,11,12,12,13,13,14,14],"right_children":[2,4,6,8,10,12,14,16,18,20,22,24,26,28,30,-1,-1,-1,-1,-1,-1,-1,-1,-1,-1,-1,-1,-1,-1,-1,-1],"split_conditions":[2E0,9.78E1,9.89E1,8.16E1,1.098E2,9.07E1,1.081E2,3.02E1,3E1,2.7E1,1.23E2,2.1E1,6.34E1,6.09E1,9.75E1,-3.6950073E-1,-4.8239946E-1,-1.6970752E-1,-2.9721066E-1,-6.292005E-2,-1.9378328E-1,-6.4045504E-2,1.0211899E-1,1.2773289E-1,-1.2481589E-2,1.4988582E-1,9.207294E-3,4.05845E-1,2.1327174E-1,3.9970505E-1,3.010152E-1],"split_indices":[0,5,5,4,5,5,5,6,1,1,5,1,2,2,4,0,0,0,0,0,0,0,0,0,0,0,0,0,0,0,0],"split_type":[0,0,0,0,0,0,0,0,0,0,0,0,0,0,0,0,0,0,0,0,0,0,0,0,0,0,0,0,0,0,0],"sum_hessian":[1.732E3,8.81E2,8.51E2,3.22E2,5.59E2,3.35E2,5.16E2,1.39E2,1.83E2,3.87E2,1.72E2,1.23E2,2.12E2,2.51E2,2.65E2,9.7E1,4.2E1,4.2E1,1.41E2,7.9E1,3.08E2,1.34E2,3.8E1,2.9E1,9.4E1,1.71E2,4.1E1,1.6E1,2.35E2,4.5E1,2.2E2],"tree_param":{"num_deleted":"0","num_feature":"8","num_nodes":"31","size_leaf_vector":"1"}},{"base_weights":[3.3237167E-2,-3.7704647E0,3.8807726E0,-5.7882576E0,-2.150158E0,1.6999406E0,5.2508454E0,-7.4641204E0,-4.5774364E0,-3.0073304E0,-3.4082705E-1,1.276004E-1,2.3944619E0,4.414208E0,6.305526E0,-3.176446E-1,-4.28969E-1,7.402953E-2,-2.3458575E-1,5.2805482E-3,-1.6255157E-1,9.760809E-2,-4.8089672E-2,-4.066058E-2,1.0882073E-1,1.2332646E-1,-1.9764428E-1,2.4458729E-1,1.801729E-1,2.6629493E-1,3.5918126E-1],"categories":[],"categories_nodes":[],"categories_segments":[],"categories_sizes":[],"default_left":[0,0,0,0,0,0,0,0,0,0,0,0,0,0,0,0,0,0,0,0,0,0,0,0,0,0,0,0,0,0,0],"id":15,"left_children":[1,3,5,7,9,11,13,15,17,19,21,23,25,27,29,-1,-1,-1,-1,-1,-1,-1,-1,-1,-1,-1,-1,-1,-1,-1,-1],"loss_changes":[2.5523223E4,2.8548574E3,2.581582E3,7.57209E2,7.558186E2,3.6661444E2,4.4159473E2,1.4626465E2,1.6548438E2,2.5144873E2,2.2684888E2,2.0223494E2,1.1633276E2,9.8521484E1,1.6216992E2,0E0,0E0,0E0,0E0,0E0,0E0,0E0,0E0,0E0,0E0,0E0,0E0,0E0,0E0,0E0,0E0],"parents":[2147483647,0,0,1,1,2,2,3,3,4,4,5,5,6,6,7,7,8,8,9,9,10,10,11,11,12,12,13,13,14,14],"right_children":[2,4,6,8,10,12,14,16,18,20,22,24,26,28,30,-1,-1,-1,-1,-1,-1,-1,-1,-1,-1,-1,-1,-1,-1,-1,-1],"split_conditions":[2E0,9.95E1,9.89E1,8.31E1,1.104E2,7.43E1,1.114E2,2.93E1,2.76E1,2E1,2.7E1,9.06E1,9.88E1,3.23E1,3.81E1,-3.176446E-1,-4.28969E-1,7.402953E-2,-2.3458575E-1,5.2805482E-3,-1.6255157E-1,9.760809E-2,-4.8089672E-2,-4.066058E-2,1.0882073E-1,1.2332646E-1,-1.9764428E-1,2.4458729E-1,1.801729E-1,2.6629493E-1,3.5918126E-1],"split_indices":[0,5,5,4,5,4,5,6,6,1,1,5,5,6,7,0,0,0,0,0,0,0,0,0,0,0,0,0,0,0,0],"split_type":[0,0,0,0,0,0,0,0,0,0,0,0,0,0,0,0,0,0,0,0,0,0,0,0,0,0,0,0,0,0,0],"sum_hessian":[1.742E3,8.76E2,8.66E2,3.89E2,4.87E2,3.35E2,5.31E2,1.61E2,2.28E2,3.3E2,1.57E2,1.03E2,2.32E2,2.99E2,2.32E2,8.4E1,7.7E1,4E0,2.24E2,2.4E1,3.06E2,3.3E1,1.24E2,7.1E1,3.2E1,2.3E2,2E0,1.85E2,1.14E2,1.13E2,1.19E2],"tree_param":{"num_deleted":"0","num_feature":"8","num_nodes":"31","size_leaf_vector":"1"}},{"base_weights":[9.737601E-2,-3.5174239E0,3.6951904E0,-4.553991E0,-9.4120383E-1,1.7980676E0,5.231548E0,-6.4083E0,-3.7151213E0,-1.3495097E0,2.722201E0,7.073039E-1,3.0108023E0,4.1409054E0,6.1715918E0,-3.788534E-1,-2.8334692E-1,6.4878665E-2,-1.9015056E-1,7.202836E-2,-8.634859E-2,2.9990163E-1,1.0014295E-1,5.662619E-2,-8.068223E-2,2.0496415E-1,5.4066606E-2,2.4061616E-1,1.3803814E-1,2.953531E-1,3.8469782E-1],"categories":[],"categories_nodes":[],"categories_segments":[],"categories_sizes":[],"default_left":[0,0,0,0,0,0,0,0,0,0,0,0,0,0,0,0,0,0,0,0,0,0,0,0,0,0,0,0,0,0,0],"id":16,"left_children":[1,3,5,7,9,11,13,15,17,19,21,23,25,27,29,-1,-1,-1,-1,-1,-1,-1,-1,-1,-1,-1,-1,-1,-1,-1,-1],"loss_changes":[2.2239191E4,2.273586E3,2.488456E3,9.219502E2,3.7163797E2,5.0715125E2,4.593877E2,1.1995947E2,1.904126E2,2.3628674E2,4.6897873E1,2.0315785E2,3.7780176E2,1.9243091E2,5.6035156E1,0E0,0E0,0E0,0E0,0E0,0E0,0E0,0E0,0E0,0E0,0E0,0E0,0E0,0E0,0E0,0E0],"parents":[2147483647,0,0,1,1,2,2,3,3,4,4,5,5,6,6,7,7,8,8,9,9,10,10,11,11,12,12,13,13,14,14],"right_children":[2,4,6,8,10,12,14,16,18,20,22,24,26,28,30,-1,-1,-1,-1,-1,-1,-1,-1,-1,-1,-1,-1,-1,-1,-1,-1],"split_conditions":[2E0,1.062E2,1.004E2,9.44E1,1.259E2,9.42E1,1.099E2,8.94E1,2.81E1,2.2E1,2.1E1,3.95E1,6.34E1,7.47E1,4.22E1,-3.788534E-1,-2.8334692E-1,6.4878665E-2,-1.9015056E-1,7.202836E-2,-8.634859E-2,2.9990163E-1,1.0014295E-1,5.662619E-2,-8.068223E-2,2.0496415E-1,5.4066606E-2,2.4061616E-1,1.3803814E-1,2.953531E-1,3.8469782E-1],"split_indices":[0,5,5,5,5,5,5,5,6,1,1,7,2,2,7,0,0,0,0,0,0,0,0,0,0,0,0,0,0,0,0],"split_type":[0,0,0,0,0,0,0,0,0,0,0,0,0,0,0,0,0,0,0,0,0,0,0,0,0,0,0,0,0,0,0],"sum_hessian":[1.708E3,8.52E2,8.56E2,6.07E2,2.45E2,3.84E2,4.72E2,1.87E2,4.2E2,2.21E2,2.4E1,2.03E2,1.81E2,2.21E2,2.51E2,6.9E1,1.18E2,7E0,4.13E2,2.6E1,1.95E2,3E0,2.1E1,1.72E2,3.1E1,1.15E2,6.6E1,1.47E2,7.4E1,2.18E2,3.3E1],"tree_param":{"num_deleted":"0","num_feature":"8","num_nodes":"31","size_leaf_vector":"1"}},{"base_weights":[-7.134421E-3,-3.4052117E0,3.4753008E0,-5.3023834E0,-1.9754674E0,1.369571E0,4.799393E0,-6.2576337E0,-4.1673985E0,-2.522729E0,7.0038223E-1,1.47715695E-2,2.1823785E0,4.12386E0,6.2758965E0,-3.6463258E-1,-2.8284013E-1,-1.7406704E-1,-3.4348854E-1,-8.024828E-3,-1.3881505E-1,1.597067E-2,1.940981E-1,1.0287452E-1,-6.294017E-2,2.9273883E-1,9.095789E-2,1.4385097E-1,2.3139797E-1,4.9499264E-1,2.998095E-1],"categories":[],"categories_nodes":[],"categories_segments":[],"categories_sizes":[],"default_left":[0,0,0,0,0,0,0,0,0,0,0,0,0,0,0,0,0,0,0,0,0,0,0,0,0,0,0,0,0,0,0],"id":17,"left_children":[1,3,5,7,9,11,13,15,17,19,21,23,25,27,29,-1,-1,-1,-1,-1,-1,-1,-1,-1,-1,-1,-1,-1,-1,-1,-1],"loss_changes":[2.0270928E4,2.3412373E3,2.3522275E3,3.772422E2,7.281044E2,3.6115845E2,4.917832E2,8.3120605E1,2.96823E2,2.4634082E2,1.0178708E2,3.2518286E2,2.6279712E2,2.1232812E2,1.0383545E2,0E0,0E0,0E0,0E0,0E0,0E0,0E0,0E0,0E0,0E0,0E0,0E0,0E0,0E0,0E0,0E0],"parents":[2147483647,0,0,1,1,2,2,3,3,4,4,5,5,6,6,7,7,8,8,9,9,10,10,11,11,12,12,13,13,14,14],"right_children":[2,4,6,8,10,12,14,16,18,20,22,24,26,28,30,-1,-1,-1,-1,-1,-1,-1,-1,-1,-1,-1,-1,-1,-1,-1,-1],"split_conditions":[2E0,9.91E1,9.89E1,9.44E1,1.162E2,9.09E1,1.153E2,8.94E1,1.775E2,2.2E1,1.327E2,3.58E1,5.28E1,3.69E1,8.16E1,-3.6463258E-1,-2.8284013E-1,-1.7406704E-1,-3.4348854E-1,-8.024828E-3,-1.3881505E-1,1.597067E-2,1.940981E-1,1.0287452E-1,-6.294017E-2,2.9273883E-1,9.095789E-2,1.4385097E-1,2.3139797E-1,4.9499264E-1,2.998095E-1],"split_indices":[0,5,5,5,5,5,5,5,3,1,5,7,2,7,2,0,0,0,0,0,0,0,0,0,0,0,0,0,0,0,0],"split_type":[0,0,0,0,0,0,0,0,0,0,0,0,0,0,0,0,0,0,0,0,0,0,0,0,0,0,0,0,0,0,0],"sum_hessian":[1.711E3,8.66E2,8.45E2,3.71E2,4.95E2,3.27E2,5.18E2,1.99E2,1.72E2,4.11E2,8.4E1,1.23E2,2.04E2,3.58E2,1.6E2,6.9E1,1.3E2,1.39E2,3.3E1,4E1,3.71E2,7.6E1,8E0,4.7E1,7.6E1,1.7E1,1.87E2,1.05E2,2.53E2,9E0,1.51E2],"tree_param":{"num_deleted":"0","num_feature":"8","num_nodes":"31","size_leaf_vector":"1"}},{"base_weights":[-1.2887015E-2,-3.313963E0,3.3224316E0,-4.8013673E0,-1.65412E0,1.090356E0,4.1786356E0,-6.701733E0,-3.954308E0,-2.1439471E0,8.8417155E-1,4.967424E-2,1.9011103E0,3.6466382E0,5.7086105E0,-3.08908E-1,-4.4983655E-1,-1.041401E-1,-2.313736E-1,-5.4543693E-2,-1.5633029E-1,2.438164E-1,2.4496583E-2,9.276553E-2,-4.0836114E-2,1.5438685E-1,3.856363E-2,1.3957319E-1,2.1456002E-1,3.885176E-1,2.679287E-1],"categories":[],"categories_nodes":[],"categories_segments":[],"categories_sizes":[],"default_left":[0,0,0,0,0,0,0,0,0,0,0,0,0,0,0,0,0,0,0,0,0,0,0,0,0,0,0,0,0,0,0],"id":18,"left_children":[1,3,5,7,9,11,13,15,17,19,21,23,25,27,29,-1,-1,-1,-1,-1,-1,-1,-1,-1,-1,-1,-1,-1,-1,-1,-1],"loss_changes":[1.9212695E4,2.157245E3,1.6542881E3,7.171904E2,5.191188E2,2.0408997E2,4.895254E2,1.13842285E2,3.9602734E2,3.577384E2,1.0463391E2,1.6890576E2,1.7995312E2,2.4598926E2,7.383154E1,0E0,0E0,0E0,0E0,0E0,0E0,0E0,0E0,0E0,0E0,0E0,0E0,0E0,0E0,0E0,0E0],"parents":[2147483647,0,0,1,1,2,2,3,3,4,4,5,5,6,6,7,7,8,8,9,9,10,10,11,11,12,12,13,13,14,14],"right_children":[2,4,6,8,10,12,14,16,18,20,22,24,26,28,30,-1,-1,-1,-1,-1,-1,-1,-1,-1,-1,-1,-1,-1,-1,-1,-1],"split_conditions":[2E0,9.68E1,5.86E1,8.15E1,1.193E2,7.43E1,3.56E1,3.14E1,2.7E1,4.1E1,2E1,2.2E1,5.47E1,3.7E1,1.54E2,-3.08908E-1,-4.4983655E-1,-1.041401E-1,-2.313736E-1,-5.4543693E-2,-1.5633029E-1,2.438164E-1,2.4496583E-2,9.276553E-2,-4.0836114E-2,1.5438685E-1,3.856363E-2,1.3957319E-1,2.1456002E-1,3.885176E-1,2.679287E-1],"split_indices":[0,4,2,4,4,4,6,6,1,1,1,1,2,1,3,0,0,0,0,0,0,0,0,0,0,0,0,0,0,0,0],"split_type":[0,0,0,0,0,0,0,0,0,0,0,0,0,0,0,0,0,0,0,0,0,0,0,0,0,0,0,0,0,0,0],"sum_hessian":[1.743E3,8.76E2,8.67E2,4.61E2,4.15E2,2.41E2,6.26E2,1.4E2,3.21E2,3.48E2,6.7E1,1.06E2,1.35E2,4.67E2,1.59E2,1.17E2,2.3E1,8.6E1,2.35E2,1.69E2,1.79E2,5E0,6.2E1,3.4E1,7.2E1,6.5E1,7E1,2.03E2,2.64E2,2E1,1.39E2],"tree_param":{"num_deleted":"0","num_feature":"8","num_nodes":"31","size_leaf_vector":"1"}},{"base_weights":[6.152795E-2,-3.0587382E0,3.2473354E0,-5.0332193E0,-1.8807064E0,1.3885825E0,4.354448E0,-5.7667584E0,-3.7917538E0,-2.5703497E0,-6.354033E-1,3.3032944E0,8.315911E-1,3.289015E0,4.954068E0,-3.3737355E-1,-2.5301614E-1,-7.049654E-2,-2.2358827E-1,-2.5960052E-1,-1.1986505E-1,1.6263673E-2,-9.024116E-2,1.2728706E-1,3.872776E-1,-2.2512837E-1,5.0188955E-2,2.9808074E-1,1.3456495E-1,1.6225126E-1,2.6047814E-1],"categories":[],"categories_nodes":[],"categories_segments":[],"categories_sizes":[],"default_left":[0,0,0,0,0,0,0,0,0,0,0,0,0,0,0,0,0,0,0,0,0,0,0,0,0,0,0,0,0,0,0],"id":19,"left_children":[1,3,5,7,9,11,13,15,17,19,21,23,25,27,29,-1,-1,-1,-1,-1,-1,-1,-1,-1,-1,-1,-1,-1,-1,-1,-1],"loss_changes":[1.7197176E4,2.0234585E3,1.7554717E3,2.7500977E2,4.6985596E2,3.3959247E2,3.2613086E2,1.06495605E2,1.9453406E2,1.4770068E2,2.219036E2,2.2257971E2,2.3413907E2,2.9705713E2,1.3199316E2,0E0,0E0,0E0,0E0,0E0,0E0,0E0,0E0,0E0,0E0,0E0,0E0,0E0,0E0,0E0,0E0],"parents":[2147483647,0,0,1,1,2,2,3,3,4,4,5,5,6,6,7,7,8,8,9,9,10,10,11,11,12,12,13,13,14,14],"right_children":[2,4,6,8,10,12,14,16,18,20,22,24,26,28,30,-1,-1,-1,-1,-1,-1,-1,-1,-1,-1,-1,-1,-1,-1,-1,-1],"split_conditions":[2E0,9.76E1,9.89E1,9.44E1,1.073E2,1.54E2,1.062E2,7.8E1,7.01E1,8.56E1,1.764E2,1.53E2,8.42E1,6.33E1,3.5E1,-3.3737355E-1,-2.5301614E-1,-7.049654E-2,-2.2358827E-1,-2.5960052E-1,-1.1986505E-1,1.6263673E-2,-9.024116E-2,1.2728706E-1,3.872776E-1,-2.2512837E-1,5.0188955E-2,2.9808074E-1,1.3456495E-1,1.6225126E-1,2.6047814E-1],"split_indices":[0,5,5,5,4,3,5,4,2,4,3,3,5,2,7,0,0,0,0,0,0,0,0,0,0,0,0,0,0,0,0],"split_type":[0,0,0,0,0,0,0,0,0,0,0,0,0,0,0,0,0,0,0,0,0,0,0,0,0,0,0,0,0,0,0],"sum_hessian":[1.728E3,8.73E2,8.55E2,3.25E2,5.48E2,3.2E2,5.35E2,2.02E2,1.23E2,3.52E2,1.96E2,7.1E1,2.49E2,1.95E2,3.4E2,8.1E1,1.21E2,2.8E1,9.5E1,2E1,3.32E2,1.08E2,8.8E1,6.2E1,9E0,7E0,2.42E2,3.4E1,1.61E2,4.6E1,2.94E2],"tree_param":{"num_deleted":"0","num_feature":"8","num_nodes":"31","size_leaf_vector":"1"}},{"base_weights":[-1.0471544E-2,-2.9205854E0,3.0490654E0,-4.502315E0,-1.3808291E0,1.8190527E0,4.449807E0,-5.8679447E0,-3.7273588E0,-1.6982716E0,9.760368E-1,5.0976235E-1,2.3879604E0,4.046525E0,5.4893355E0,-3.4596515E-1,-2.5892252E-1,-2.7306363E-1,-1.5646814E-1,-1.4476942E-1,-6.754235E-2,2.4189351E-2,1.9037655E-1,1.1106294E-1,-2.18111E-2,4.1219392E-1,1.1150775E-1,2.1064341E-1,-3.172068E-1,2.3257421E-1,3.529552E-1],"categories":[],"categories_nodes":[],"categories_segments":[],"categories_sizes":[],"default_left":[0,0,0,0,0,0,0,0,0,0,0,0,0,0,0,0,0,0,0,0,0,0,0,0,0,0,0,0,0,0,0],"id":20,"left_children":[1,3,5,7,9,11,13,15,17,19,21,23,25,27,29,-1,-1,-1,-1,-1,-1,-1,-1,-1,-1,-1,-1,-1,-1,-1,-1],"loss_changes":[1.5652532E4,2.1881494E3,1.468457E3,4.4801465E2,3.4431927E2,3.3993127E2,1.4547656E2,7.94292E1,2.794558E2,1.641156E2,7.481709E1,2.2763577E2,2.7640125E2,5.3142334E2,1.1052515E2,0E0,0E0,0E0,0E0,0E0,0E0,0E0,0E0,0E0,0E0,0E0,0E0,0E0,0E0,0E0,0E0],"parents":[2147483647,0,0,1,1,2,2,3,3,4,4,5,5,6,6,7,7,8,8,9,9,10,10,11,11,12,12,13,13,14,14],"right_children":[2,4,6,8,10,12,14,16,18,20,22,24,26,28,30,-1,-1,-1,-1,-1,-1,-1,-1,-1,-1,-1,-1,-1,-1,-1,-1],"split_conditions":[2E0,9.66E1,1.035E2,8.27E1,1.203E2,9.16E1,1.213E2,7.6E1,1.677E2,3.95E1,1.316E2,1.557E2,5.18E1,1.2E2,4E1,-3.4596515E-1,-2.5892252E-1,-2.7306363E-1,-1.5646814E-1,-1.4476942E-1,-6.754235E-2,2.4189351E-2,1.9037655E-1,1.1106294E-1,-2.18111E-2,4.1219392E-1,1.1150775E-1,2.1064341E-1,-3.172068E-1,2.3257421E-1,3.529552E-1],"split_indices":[0,4,5,4,5,5,5,4,3,7,5,3,2,4,7,0,0,0,0,0,0,0,0,0,0,0,0,0,0,0,0],"split_type":[0,0,0,0,0,0,0,0,0,0,0,0,0,0,0,0,0,0,0,0,0,0,0,0,0,0,0,0,0,0,0],"sum_hessian":[1.756E3,9E2,8.56E2,4.43E2,4.57E2,4.57E2,3.99E2,1.58E2,2.85E2,4.03E2,5.4E1,1.39E2,3.18E2,2.91E2,1.08E2,5.9E1,9.9E1,7.1E1,2.14E2,8.9E1,3.14E2,4.7E1,7E0,4.9E1,9E1,7E0,3.11E2,2.87E2,4E0,7.3E1,3.5E1],"tree_param":{"num_deleted":"0","num_feature":"8","num_nodes":"31","size_leaf_vector":"1"}},{"base_weights":[1.6150288E-2,-2.8194551E0,2.8714516E0,-5.4082794E0,-2.0821784E0,1.7122031E0,4.5175943E0,8.903594E-2,-5.455241E0,-2.7093832E0,-3.4499517E-1,7.1704763E-1,2.4054153E0,3.8324413E0,5.1372347E0,-2.3999646E-1,-3.0470863E-1,-1.1843915E-1,-1.8755078E-1,8.558125E-3,-8.320237E-2,1.2383743E-1,5.3616534E-3,5.353568E-1,1.1282771E-1,2.296816E-1,1.17977E-1,1.8624426E-1,2.804161E-1],"categories":[],"categories_nodes":[],"categories_segments":[],"categories_sizes":[],"default_left":[0,0,0,0,0,0,0,0,0,0,0,0,0,0,0,0,0,0,0,0,0,0,0,0,0,0,0,0,0],"id":21,"left_children":[1,3,5,7,9,11,13,-1,15,17,19,21,23,25,27,-1,-1,-1,-1,-1,-1,-1,-1,-1,-1,-1,-1,-1,-1],"loss_changes":[1.4023151E4,1.6473823E3,1.6391177E3,7.453516E1,7.3779346E2,3.4872107E2,1.3145068E2,0E0,5.0720215E1,1.6779517E2,1.2351668E2,2.2508354E2,3.45344E2,1.8312183E2,1.0153223E2,0E0,0E0,0E0,0E0,0E0,0E0,0E0,0E0,0E0,0E0,0E0,0E0,0E0,0E0],"parents":[2147483647,0,0,1,1,2,2,3,3,4,4,5,5,6,6,8,8,9,9,10,10,11,11,12,12,13,13,14,14],"right_children":[2,4,6,8,10,12,14,-1,16,18,20,22,24,26,28,-1,-1,-1,-1,-1,-1,-1,-1,-1,-1,-1,-1,-1,-1],"split_conditions":[2E0,9.44E1,1.047E2,3.25E1,1.093E2,9.42E1,3.81E1,8.903594E-2,1.715E2,1.779E2,1.793E2,1.542E2,5.22E1,1.609E2,1.089E2,-2.3999646E-1,-3.0470863E-1,-1.1843915E-1,-1.8755078E-1,8.558125E-3,-8.320237E-2,1.2383743E-1,5.3616534E-3,5.353568E-1,1.1282771E-1,2.296816E-1,1.17977E-1,1.8624426E-1,2.804161E-1],"split_indices":[0,5,5,7,5,5,7,0,3,3,3,3,2,3,5,0,0,0,0,0,0,0,0,0,0,0,0,0,0],"split_type":[0,0,0,0,0,0,0,0,0,0,0,0,0,0,0,0,0,0,0,0,0,0,0,0,0,0,0,0,0],"sum_hessian":[1.73E3,8.68E2,8.62E2,1.91E2,6.77E2,5.07E2,3.55E2,1E0,1.9E2,4.97E2,1.8E2,2.09E2,2.98E2,1.72E2,1.83E2,9.8E1,9.2E1,3.77E2,1.2E2,1.3E2,5E1,5.3E1,1.56E2,4E0,2.94E2,1.12E2,6E1,4.8E1,1.35E2],"tree_param":{"num_deleted":"0","num_feature":"8","num_nodes":"29","size_leaf_vector":"1"}},{"base_weights":[-1.7675322E-2,-2.6959565E0,2.6980848E0,-3.4920402E0,-4.655842E-1,1.0142745E0,3.7027197E0,-5.032654E0,-2.8021684E0,2.3460271E0,-8.99056E-1,-4.3978686E0,1.1661694E0,3.0771227E0,4.524377E0,-3.2457802E-1,-2.1885996E-1,1.2482636E-2,-1.5397693E-1,5.9369065E-2,1.8340705E-1,-7.288955E-2,2.6412899E-2,-5.643263E-2,-2.585347E-1,4.4353236E-2,1.5279299E-1,1.660272E-1,3.9745983E-2,2.9899946E-1,2.0381208E-1],"categories":[],"categories_nodes":[],"categories_segments":[],"categories_sizes":[],"default_left":[0,0,0,0,0,0,0,0,0,0,0,0,0,0,0,0,0,0,0,0,0,0,0,0,0,0,0,0,0,0,0],"id":22,"left_children":[1,3,5,7,9,11,13,15,17,19,21,23,25,27,29,-1,-1,-1,-1,-1,-1,-1,-1,-1,-1,-1,-1,-1,-1,-1,-1],"loss_changes":[1.2568729E4,1.5431143E3,1.4476499E3,6.6716846E2,2.824227E2,2.698375E2,2.6210986E2,1.5996582E2,3.7745435E2,4.3132233E1,1.6026816E2,1.6902878E1,1.6289957E2,1.6846582E2,1.2565527E2,0E0,0E0,0E0,0E0,0E0,0E0,0E0,0E0,0E0,0E0,0E0,0E0,0E0,0E0,0E0,0E0],"parents":[2147483647,0,0,1,1,2,2,3,3,4,4,5,5,6,6,7,7,8,8,9,9,10,10,11,11,12,12,13,13,14,14],"right_children":[2,4,6,8,10,12,14,16,18,20,22,24,26,28,30,-1,-1,-1,-1,-1,-1,-1,-1,-1,-1,-1,-1,-1,-1,-1,-1],"split_conditions":[2E0,1.057E2,9.89E1,8.56E1,2.4E1,6.6E1,1.114E2,7.6E1,2.1E1,1.13E2,1.17E2,1.9E1,5.5E1,1.029E2,1.006E2,-3.2457802E-1,-2.1885996E-1,1.2482636E-2,-1.5397693E-1,5.9369065E-2,1.8340705E-1,-7.288955E-2,2.6412899E-2,-5.643263E-2,-2.585347E-1,4.4353236E-2,1.5279299E-1,1.660272E-1,3.9745983E-2,2.9899946E-1,2.0381208E-1],"split_indices":[0,4,5,4,1,4,5,4,1,4,5,1,1,4,4,0,0,0,0,0,0,0,0,0,0,0,0,0,0,0,0],"split_type":[0,0,0,0,0,0,0,0,0,0,0,0,0,0,0,0,0,0,0,0,0,0,0,0,0,0,0,0,0,0,0],"sum_hessian":[1.726E3,8.69E2,8.57E2,6.4E2,2.29E2,3.21E2,5.36E2,1.96E2,4.44E2,3E1,1.99E2,8E0,3.13E2,3.07E2,2.29E2,5.8E1,1.38E2,3.7E1,4.07E2,1.7E1,1.3E1,1.43E2,5.6E1,2E0,6E0,2.74E2,3.9E1,2.77E2,3E1,5.1E1,1.78E2],"tree_param":{"num_deleted":"0","num_feature":"8","num_nodes":"31","size_leaf_vector":"1"}},{"base_weights":[5.8879774E-2,-2.4364092E0,2.6265535E0,-4.2506866E0,-1.4031593E0,1.0167032E0,3.6056087E0,-5.7544084E0,-3.6026504E0,-1.786706E0,1.3400682E0,1.4949176E-2,1.7665995E0,3.2815485E0,5.1506763E0,-2.4483941E-1,-3.2992512E-1,-6.934249E-2,-1.9050188E-1,-7.667192E-2,-1.34775E-1,-4.6889257E-2,1.0441972E-1,9.037778E-3,-2.8545544E-1,3.3511057E-1,7.249429E-2,1.6925007E-1,-3.2496566E-1,2.3124409E-1,3.9748418E-1],"categories":[],"categories_nodes":[],"categories_segments":[],"categories_sizes":[],"default_left":[0,0,0,0,0,0,0,0,0,0,0,0,0,0,0,0,0,0,0,0,0,0,0,0,0,0,0,0,0,0,0],"id":23,"left_children":[1,3,5,7,9,11,13,15,17,19,21,23,25,27,29,-1,-1,-1,-1,-1,-1,-1,-1,-1,-1,-1,-1,-1,-1,-1,-1],"loss_changes":[1.1193176E4,1.6549331E3,1.3533843E3,2.9207275E2,5.979148E2,2.4561981E2,2.5096973E2,3.645996E1,9.902881E1,1.1026001E2,1.2127889E2,1.3485298E2,2.825965E2,4.7227734E2,9.715869E1,0E0,0E0,0E0,0E0,0E0,0E0,0E0,0E0,0E0,0E0,0E0,0E0,0E0,0E0,0E0,0E0],"parents":[2147483647,0,0,1,1,2,2,3,3,4,4,5,5,6,6,7,7,8,8,9,9,10,10,11,11,12,12,13,13,14,14],"right_children":[2,4,6,8,10,12,14,16,18,20,22,24,26,28,30,-1,-1,-1,-1,-1,-1,-1,-1,-1,-1,-1,-1,-1,-1,-1,-1],"split_conditions":[2E0,9.76E1,9.89E1,7.92E1,1.174E2,9.18E1,1.252E2,6.13E1,6.21E1,1.793E2,1.172E2,8.97E1,5.25E1,1.235E2,1.692E2,-2.4483941E-1,-3.2992512E-1,-6.934249E-2,-1.9050188E-1,-7.667192E-2,-1.34775E-1,-4.6889257E-2,1.0441972E-1,9.037778E-3,-2.8545544E-1,3.3511057E-1,7.249429E-2,1.6925007E-1,-3.2496566E-1,2.3124409E-1,3.9748418E-1],"split_indices":[0,5,5,4,5,5,5,2,2,3,4,4,2,4,3,0,0,0,0,0,0,0,0,0,0,0,0,0,0,0,0],"split_type":[0,0,0,0,0,0,0,0,0,0,0,0,0,0,0,0,0,0,0,0,0,0,0,0,0,0,0,0,0,0,0],"sum_hessian":[1.745E3,8.85E2,8.6E2,3.2E2,5.65E2,3.26E2,5.34E2,9.4E1,2.26E2,4.96E2,6.9E1,1.4E2,1.86E2,4.44E2,9E1,5E1,4.4E1,2E1,2.06E2,3.9E2,1.06E2,1.7E1,5.2E1,1.37E2,3E0,1E1,1.76E2,4.4E2,4E0,7.8E1,1.2E1],"tree_param":{"num_deleted":"0","num_feature":"8","num_nodes":"31","size_leaf_vector":"1"}},{"base_weights":[5.327541E-2,-2.3741667E0,2.458539E0,-4.6260257E0,-1.659646E0,1.50835E0,3.9151635E0,-6.674669E0,-4.2317414E0,8.0001587E-1,-1.9518359E0,-1.0408431E0,1.8218112E0,6.2282815E0,3.7156115E0,-3.8182372E-1,-2.340766E-1,-1.2884505E-1,-2.5919536E-1,-1.1884308E-1,6.798902E-2,-1.3687366E-1,-5.421734E-2,4.6832882E-2,-1.3693151E-1,1.4177744E-1,7.804575E-2,1.7762756E-2,3.2244962E-1,1.4211035E-1,2.1400689E-1],"categories":[],"categories_nodes":[],"categories_segments":[],"categories_sizes":[],"default_left":[0,0,0,0,0,0,0,0,0,0,0,0,0,0,0,0,0,0,0,0,0,0,0,0,0,0,0,0,0,0,0],"id":24,"left_children":[1,3,5,7,9,11,13,15,17,19,21,23,25,27,29,-1,-1,-1,-1,-1,-1,-1,-1,-1,-1,-1,-1,-1,-1,-1,-1],"loss_changes":[1.0205938E4,1.3921523E3,1.2093062E3,1.4057373E2,4.7733313E2,4.2780225E2,1.365669E2,2.5593994E1,2.671128E2,1.2949155E2,4.0049854E2,2.0065027E2,1.2120215E2,3.1411255E1,1.4610742E2,0E0,0E0,0E0,0E0,0E0,0E0,0E0,0E0,0E0,0E0,0E0,0E0,0E0,0E0,0E0,0E0],"parents":[2147483647,0,0,1,1,2,2,3,3,4,4,5,5,6,6,7,7,8,8,9,9,10,10,11,11,12,12,13,13,14,14],"right_children":[2,4,6,8,10,12,14,16,18,20,22,24,26,28,30,-1,-1,-1,-1,-1,-1,-1,-1,-1,-1,-1,-1,-1,-1,-1,-1],"split_conditions":[2E0,8.56E1,1.062E2,7.14E1,2.3E1,8.8E1,3.1E1,2.3E1,2.93E1,8.88E1,1.015E2,1.559E2,1.542E2,2E1,3.49E1,-3.8182372E-1,-2.340766E-1,-1.2884505E-1,-2.5919536E-1,-1.1884308E-1,6.798902E-2,-1.3687366E-1,-5.421734E-2,4.6832882E-2,-1.3693151E-1,1.4177744E-1,7.804575E-2,1.7762756E-2,3.2244962E-1,1.4211035E-1,2.1400689E-1],"split_indices":[0,4,5,4,1,5,6,1,6,4,4,3,3,1,6,0,0,0,0,0,0,0,0,0,0,0,0,0,0,0,0],"split_type":[0,0,0,0,0,0,0,0,0,0,0,0,0,0,0,0,0,0,0,0,0,0,0,0,0,0,0,0,0,0,0],"sum_hessian":[1.746E3,8.69E2,8.77E2,2.08E2,6.61E2,5.32E2,3.45E2,3.1E1,1.77E2,7E1,5.91E2,5.8E1,4.74E2,2.5E1,3.2E2,1.9E1,1.2E1,6.6E1,1.11E2,1E1,6E1,3.09E2,2.82E2,2.7E1,3.1E1,9.5E1,3.79E2,1E0,2.4E1,1.28E2,1.92E2],"tree_param":{"num_deleted":"0","num_feature":"8","num_nodes":"31","size_leaf_vector":"1"}},{"base_weights":[-3.431122E-2,-2.3141878E0,2.346344E0,-3.8559432E0,-1.4030237E0,1.3317375E0,3.5542624E0,-6.5204387E0,-3.618499E0,-2.0367484E0,-1.0773816E-1,-2.5851405E-1,1.8670886E0,3.1891441E0,4.484859E0,-3.586313E-1,-5.7012584E-2,-7.569407E-2,-1.9864243E-1,-7.892896E-2,-1.6519183E-1,9.567764E-2,-2.5308017E-2,5.2664626E-2,-5.4978024E-2,1.6253681E-1,7.364389E-2,1.12774126E-1,1.8647192E-1,1.5894849E-2,2.4075185E-1],"categories":[],"categories_nodes":[],"categories_segments":[],"categories_sizes":[],"default_left":[0,0,0,0,0,0,0,0,0,0,0,0,0,0,0,0,0,0,0,0,0,0,0,0,0,0,0,0,0,0,0],"id":25,"left_children":[1,3,5,7,9,11,13,15,17,19,21,23,25,27,29,-1,-1,-1,-1,-1,-1,-1,-1,-1,-1,-1,-1,-1,-1,-1,-1],"loss_changes":[9.541723E3,1.2560938E3,1.04925E3,1.8708447E2,4.6438428E2,3.9976245E2,1.1889014E2,8.305249E1,2.2368286E2,2.1539014E2,1.5156471E2,1.3244969E2,1.8666467E2,1.3535693E2,1.4705981E2,0E0,0E0,0E0,0E0,0E0,0E0,0E0,0E0,0E0,0E0,0E0,0E0,0E0,0E0,0E0,0E0],"parents":[2147483647,0,0,1,1,2,2,3,3,4,4,5,5,6,6,7,7,8,8,9,9,10,10,11,11,12,12,13,13,14,14],"right_children":[2,4,6,8,10,12,14,16,18,20,22,24,26,28,30,-1,-1,-1,-1,-1,-1,-1,-1,-1,-1,-1,-1,-1,-1,-1,-1],"split_conditions":[2E0,9.78E1,1.035E2,2.64E1,1.093E2,9.07E1,1.213E2,1.771E2,2.84E1,3.63E1,2.4E1,3.58E1,1.544E2,3.5E1,3.4E1,-3.586313E-1,-5.7012584E-2,-7.569407E-2,-1.9864243E-1,-7.892896E-2,-1.6519183E-1,9.567764E-2,-2.5308017E-2,5.2664626E-2,-5.4978024E-2,1.6253681E-1,7.364389E-2,1.12774126E-1,1.8647192E-1,1.5894849E-2,2.4075185E-1],"split_indices":[0,5,5,6,5,5,5,3,6,6,1,7,3,1,7,0,0,0,0,0,0,0,0,0,0,0,0,0,0,0,0],"split_type":[0,0,0,0,0,0,0,0,0,0,0,0,0,0,0,0,0,0,0,0,0,0,0,0,0,0,0,0,0,0,0],"sum_hessian":[1.756E3,8.97E2,8.59E2,3.32E2,5.65E2,4.68E2,3.91E2,2.5E1,3.07E2,3.79E2,1.86E2,1.18E2,3.5E2,2.84E2,1.07E2,2.2E1,3E0,4.5E1,2.62E2,2.8E2,9.9E1,3E1,1.56E2,4.6E1,7.2E1,7.6E1,2.74E2,1.06E2,1.78E2,8E0,9.9E1],"tree_param":{"num_deleted":"0","num_feature":"8","num_nodes":"31","size_leaf_vector":"1"}},{"base_weights":[9.621454E-2,-2.1170635E0,2.3773992E0,-4.2329893E0,-1.4181944E0,1.455118E0,3.5888026E0,-3.8592407E-1,-4.0083117E0,-2.0214417E0,6.6444476E-4,2.7626677E0,1.0746633E0,3.0387251E0,4.3396435E0,-1.768843E-1,-2.5433484E-1,-1.9900161E-1,-8.840524E-2,-1.3087476E-2,1.1062037E-1,1.8478873E-1,8.623088E-2,-5.419583E-2,7.245282E-2,3.8600194E-1,1.4332859E-1,3.2771158E-1,1.9572249E-1],"categories":[],"categories_nodes":[],"categories_segments":[],"categories_sizes":[],"default_left":[0,0,0,0,0,0,0,0,0,0,0,0,0,0,0,0,0,0,0,0,0,0,0,0,0,0,0,0,0],"id":26,"left_children":[1,3,5,7,9,11,13,-1,15,17,19,21,23,25,27,-1,-1,-1,-1,-1,-1,-1,-1,-1,-1,-1,-1,-1,-1],"loss_changes":[8.673988E3,1.2834717E3,9.399751E2,1.3821411E2,5.623425E2,2.3680835E2,1.3756543E2,0E0,8.604541E1,2.2170349E2,1.1491636E2,9.823633E1,3.0462973E2,1.5033362E2,1.17471436E2,0E0,0E0,0E0,0E0,0E0,0E0,0E0,0E0,0E0,0E0,0E0,0E0,0E0,0E0],"parents":[2147483647,0,0,1,1,2,2,3,3,4,4,5,5,6,6,8,8,9,9,10,10,11,11,12,12,13,13,14,14],"right_children":[2,4,6,8,10,12,14,-1,16,18,20,22,24,26,28,-1,-1,-1,-1,-1,-1,-1,-1,-1,-1,-1,-1,-1,-1],"split_conditions":[2E0,8.6E1,1.036E2,8.42E1,1.078E2,1.542E2,1.153E2,-3.8592407E-1,3.15E1,1.64E2,1.275E2,2.86E1,7.2E1,2.77E1,1.565E2,-1.768843E-1,-2.5433484E-1,-1.9900161E-1,-8.840524E-2,-1.3087476E-2,1.1062037E-1,1.8478873E-1,8.623088E-2,-5.419583E-2,7.245282E-2,3.8600194E-1,1.4332859E-1,3.2771158E-1,1.9572249E-1],"split_indices":[0,4,5,5,4,3,5,0,6,3,5,6,4,6,3,0,0,0,0,0,0,0,0,0,0,0,0,0,0],"split_type":[0,0,0,0,0,0,0,0,0,0,0,0,0,0,0,0,0,0,0,0,0,0,0,0,0,0,0,0,0],"sum_hessian":[1.716E3,8.71E2,8.45E2,2.15E2,6.56E2,4.81E2,3.64E2,1.1E1,2.04E2,4.6E2,1.96E2,1.07E2,3.74E2,2.13E2,1.51E2,1.45E2,5.9E1,5.1E1,4.09E2,1.76E2,2E1,5.5E1,5.2E1,5.5E1,3.19E2,6E0,2.07E2,2.2E1,1.29E2],"tree_param":{"num_deleted":"0","num_feature":"8","num_nodes":"29","size_leaf_vector":"1"}},{"base_weights":[-1.7049178E-2,-2.1409988E0,2.1069198E0,-3.3744988E0,-1.4156045E0,6.775119E-1,2.5506208E0,-3.7824032E-1,-3.2859387E0,1.9458445E0,-1.6438422E0,1.501833E-1,2.465103E0,1.5556933E0,2.951569E0,-1.5439972E-1,-2.5548318E-1,-1.3313149E-1,1.4781468E-1,-6.2335428E-2,-1.3838373E-1,3.081432E-1,-1.9325804E-3,4.532174E-2,2.6270303E-1,4.847263E-2,1.983854E-1,1.0385102E-1,1.6600971E-1],"categories":[],"categories_nodes":[],"categories_segments":[],"categories_sizes":[],"default_left":[0,0,0,0,0,0,0,0,0,0,0,0,0,0,0,0,0,0,0,0,0,0,0,0,0,0,0,0,0],"id":27,"left_children":[1,3,5,7,9,11,13,-1,15,17,19,21,23,25,27,-1,-1,-1,-1,-1,-1,-1,-1,-1,-1,-1,-1,-1,-1],"loss_changes":[7.9848296E3,7.8709814E2,5.5956494E2,9.648999E1,4.3206873E2,1.985285E2,2.6467578E2,0E0,1.0046216E2,1.7551013E2,2.3041687E2,1.8644446E2,2.038964E2,2.733016E2,1.4784619E2,0E0,0E0,0E0,0E0,0E0,0E0,0E0,0E0,0E0,0E0,0E0,0E0,0E0,0E0],"parents":[2147483647,0,0,1,1,2,2,3,3,4,4,5,5,6,6,8,8,9,9,10,10,11,11,12,12,13,13,14,14],"right_children":[2,4,6,8,10,12,14,-1,16,18,20,22,24,26,28,-1,-1,-1,-1,-1,-1,-1,-1,-1,-1,-1,-1,-1,-1],"split_conditions":[2E0,7.71E1,2.72E1,2.41E1,2E1,5.1E1,3.61E1,-3.7824032E-1,3.38E1,3.26E1,1.79E2,4.23E1,3.74E1,5.5E1,2.9E1,-1.5439972E-1,-2.5548318E-1,-1.3313149E-1,1.4781468E-1,-6.2335428E-2,-1.3838373E-1,3.081432E-1,-1.9325804E-3,4.532174E-2,2.6270303E-1,4.847263E-2,1.983854E-1,1.0385102E-1,1.6600971E-1],"split_indices":[0,2,6,6,1,1,7,0,6,6,3,2,7,1,1,0,0,0,0,0,0,0,0,0,0,0,0,0,0],"split_type":[0,0,0,0,0,0,0,0,0,0,0,0,0,0,0,0,0,0,0,0,0,0,0,0,0,0,0,0,0],"sum_hessian":[1.768E3,8.84E2,8.84E2,3.26E2,5.58E2,2.1E2,6.74E2,5E0,3.21E2,3.5E1,5.23E2,1.63E2,4.7E1,1.95E2,4.79E2,2.92E2,2.9E1,6E0,2.9E1,3.88E2,1.35E2,4E0,1.59E2,3.1E1,1.6E1,1.58E2,3.7E1,1.44E2,3.35E2],"tree_param":{"num_deleted":"0","num_feature":"8","num_nodes":"29","size_leaf_vector":"1"}},{"base_weights":[7.35772E-3,-1.956466E0,1.99635E0,-4.0523E0,-1.4850256E0,9.937012E-1,2.6088872E0,-3.573048E0,-5.9939804E0,-2.0414114E0,-3.0502877E-1,1.6683286E0,2.3431902E-1,1.253781E0,3.1476305E0,-2.4844913E-1,-1.1897657E-1,5.9280396E-2,-3.1412178E-1,-8.405274E-2,-1.8544753E-1,-3.436316E-2,3.7947454E-2,7.396852E-2,2.9689988E-1,2.2814432E-2,-1.5149347E-1,8.781537E-2,-6.342086E-2,3.0507493E-1,1.5005139E-1],"categories":[],"categories_nodes":[],"categories_segments":[],"categories_sizes":[],"default_left":[0,0,0,0,0,0,0,0,0,0,0,0,0,0,0,0,0,0,0,0,0,0,0,0,0,0,0,0,0,0,0],"id":28,"left_children":[1,3,5,7,9,11,13,15,17,19,21,23,25,27,29,-1,-1,-1,-1,-1,-1,-1,-1,-1,-1,-1,-1,-1,-1,-1,-1],"loss_changes":[6.7457144E3,8.526072E2,5.2435645E2,1.2654126E2,4.6617236E2,1.6713123E2,3.8444263E2,2.0476538E2,6.9578E1,2.8400403E2,9.3653366E1,1.3078992E2,1.1368784E2,1.9615079E2,1.4624634E2,0E0,0E0,0E0,0E0,0E0,0E0,0E0,0E0,0E0,0E0,0E0,0E0,0E0,0E0,0E0,0E0],"parents":[2147483647,0,0,1,1,2,2,3,3,4,4,5,5,6,6,7,7,8,8,9,9,10,10,11,11,12,12,13,13,14,14],"right_children":[2,4,6,8,10,12,14,16,18,20,22,24,26,28,30,-1,-1,-1,-1,-1,-1,-1,-1,-1,-1,-1,-1,-1,-1,-1,-1],"split_conditions":[2E0,8.27E1,8.52E1,7.11E1,1.057E2,1.603E2,3.61E1,7.58E1,1.676E2,3.64E1,1.212E2,6.46E1,7.03E1,1.611E2,2.78E1,-2.4844913E-1,-1.1897657E-1,5.9280396E-2,-3.1412178E-1,-8.405274E-2,-1.8544753E-1,-3.436316E-2,3.7947454E-2,7.396852E-2,2.9689988E-1,2.2814432E-2,-1.5149347E-1,8.781537E-2,-6.342086E-2,3.0507493E-1,1.5005139E-1],"split_indices":[0,4,4,2,4,3,7,4,3,6,4,2,2,3,6,0,0,0,0,0,0,0,0,0,0,0,0,0,0,0,0],"split_type":[0,0,0,0,0,0,0,0,0,0,0,0,0,0,0,0,0,0,0,0,0,0,0,0,0,0,0,0,0,0,0],"sum_hessian":[1.725E3,8.68E2,8.57E2,1.58E2,7.1E2,3.26E2,5.31E2,1.29E2,2.9E1,4.82E2,2.28E2,1.72E2,1.54E2,1.52E2,3.79E2,5.8E1,7.1E1,1E0,2.8E1,3.98E2,8.4E1,1.68E2,6E1,1.66E2,6E0,1.45E2,9E0,1.27E2,2.5E1,1.6E1,3.63E2],"tree_param":{"num_deleted":"0","num_feature":"8","num_nodes":"31","size_leaf_vector":"1"}},{"base_weights":[5.493964E-2,-6.4604497E-1,2.0276783E0,1.004934E0,-1.3792953E0,2.8650858E0,-4.374595E-1,-1.2438575E-1,2.152083E0,-2.6713493E0,-7.406724E-1,4.0010595E0,2.2795506E0,-9.751837E-1,2.0671456E0,1.5948167E-2,-1.3824515E-1,1.8528937E-1,3.91641E-2,-8.591163E-2,-1.9018446E-1,3.6053807E-2,-8.141381E-2,-3.079543E-2,2.0651136E-1,-1.2111958E-2,1.4678591E-1,8.226775E-2,-7.5656705E-2,2.3906973E-1,4.600529E-2],"categories":[],"categories_nodes":[],"categories_segments":[],"categories_sizes":[],"default_left":[0,0,0,0,0,0,0,0,0,0,0,0,0,0,0,0,0,0,0,0,0,0,0,0,0,0,0,0,0,0,0],"id":29,"left_children":[1,3,5,7,9,11,13,15,17,19,21,23,25,27,29,-1,-1,-1,-1,-1,-1,-1,-1,-1,-1,-1,-1,-1,-1,-1,-1],"loss_changes":[2.4157827E3,1.5618251E3,9.467141E2,5.145803E2,7.348672E2,2.1836157E2,1.595899E2,2.3618674E2,4.1605963E2,3.1184375E2,7.783489E2,7.112573E1,3.7798657E2,1.3923242E2,6.0980995E1,0E0,0E0,0E0,0E0,0E0,0E0,0E0,0E0,0E0,0E0,0E0,0E0,0E0,0E0,0E0,0E0],"parents":[2147483647,0,0,1,1,2,2,3,3,4,4,5,5,6,6,7,7,8,8,9,9,10,10,11,11,12,12,13,13,14,14],"right_children":[2,4,6,8,10,12,14,16,18,20,22,24,26,28,30,-1,-1,-1,-1,-1,-1,-1,-1,-1,-1,-1,-1,-1,-1,-1,-1],"split_conditions":[1.095E2,1.611E2,1.755E2,9.62E1,9.6E1,8.84E1,1.23E2,6.13E1,6.67E1,1.711E2,3.22E1,3.04E1,1.15E2,9.75E1,1.184E2,1.5948167E-2,-1.3824515E-1,1.8528937E-1,3.91641E-2,-8.591163E-2,-1.9018446E-1,3.6053807E-2,-8.141381E-2,-3.079543E-2,2.0651136E-1,-1.2111958E-2,1.4678591E-1,8.226775E-2,-7.5656705E-2,2.3906973E-1,4.600529E-2],"split_indices":[5,3,3,5,5,2,5,2,2,3,6,7,5,2,2,0,0,0,0,0,0,0,0,0,0,0,0,0,0,0,0],"split_type":[0,0,0,0,0,0,0,0,0,0,0,0,0,0,0,0,0,0,0,0,0,0,0,0,0,0,0,0,0,0,0],"sum_hessian":[1.745E3,1.288E3,4.57E2,3.96E2,8.92E2,3.41E2,1.16E2,2E2,1.96E2,2.94E2,5.98E2,1.14E2,2.27E2,9.6E1,2E1,1.72E2,2.8E1,9.1E1,1.05E2,1.61E2,1.33E2,2.26E2,3.72E2,3E0,1.11E2,4.7E1,1.8E2,1.6E1,8E1,5E0,1.5E1],"tree_param":{"num_deleted":"0","num_feature":"8","num_nodes":"31","size_leaf_vector":"1"}},{"base_weights":[5.3693512E-3,-1.8032675E0,1.8326031E0,-3.086702E0,-1.0838096E0,8.696764E-1,2.6231997E0,-4.2684093E0,-2.8055923E0,8.7474847E-1,-1.351923E0,1.1944323E-2,1.3705442E0,2.2121153E0,3.3531003E0,-1.035766E-1,-2.4851322E-1,-7.2760776E-2,-1.6252686E-1,3.3099342E-3,1.4995135E-1,-7.991071E-2,2.0689115E-2,1.10850506E-1,-2.9822633E-2,1.0101731E-1,-8.629918E-3,1.6716021E-1,8.849781E-2,3.4736255E-1,1.5312912E-1],"categories":[],"categories_nodes":[],"categories_segments":[],"categories_sizes":[],"default_left":[0,0,0,0,0,0,0,0,0,0,0,0,0,0,0,0,0,0,0,0,0,0,0,0,0,0,0,0,0,0,0],"id":30,"left_children":[1,3,5,7,9,11,13,15,17,19,21,23,25,27,29,-1,-1,-1,-1,-1,-1,-1,-1,-1,-1,-1,-1,-1,-1,-1,-1],"loss_changes":[5.813147E3,8.129199E2,6.638445E2,9.332861E1,2.994483E2,1.7010931E2,1.3660693E2,8.0675415E1,1.5088806E2,1.18314835E2,2.181001E2,1.9853099E2,2.5103296E2,1.4912012E2,1.5727576E2,0E0,0E0,0E0,0E0,0E0,0E0,0E0,0E0,0E0,0E0,0E0,0E0,0E0,0E0,0E0,0E0],"parents":[2147483647,0,0,1,1,2,2,3,3,4,4,5,5,6,6,7,7,8,8,9,9,10,10,11,11,12,12,13,13,14,14],"right_children":[2,4,6,8,10,12,14,16,18,20,22,24,26,28,30,-1,-1,-1,-1,-1,-1,-1,-1,-1,-1,-1,-1,-1,-1,-1,-1],"split_conditions":[2E0,9.78E1,1.01E2,8.86E1,2.2E1,9.18E1,1.153E2,5.42E1,2.92E1,1.118E2,1.17E2,2.2E1,6.34E1,6.94E1,8.16E1,-1.035766E-1,-2.4851322E-1,-7.2760776E-2,-1.6252686E-1,3.3099342E-3,1.4995135E-1,-7.991071E-2,2.0689115E-2,1.10850506E-1,-2.9822633E-2,1.0101731E-1,-8.629918E-3,1.6716021E-1,8.849781E-2,3.4736255E-1,1.5312912E-1],"split_indices":[0,5,5,5,1,5,5,2,6,5,5,1,2,2,2,0,0,0,0,0,0,0,0,0,0,0,0,0,0,0,0],"split_type":[0,0,0,0,0,0,0,0,0,0,0,0,0,0,0,0,0,0,0,0,0,0,0,0,0,0,0,0,0,0,0],"sum_hessian":[1.757E3,8.83E2,8.74E2,3.16E2,5.67E2,3.95E2,4.79E2,5.8E1,2.58E2,6.8E1,4.99E2,1.46E2,2.49E2,3.09E2,1.7E2,1.5E1,4.3E1,6.5E1,1.93E2,5E1,1.8E1,4.38E2,6.1E1,3.1E1,1.15E2,1.75E2,7.4E1,8.5E1,2.24E2,1.1E1,1.59E2],"tree_param":{"num_deleted":"0","num_feature":"8","num_nodes":"31","size_leaf_vector":"1"}},{"base_weights":[9.349215E-3,-1.6291592E0,1.6609251E0,-3.0725791E0,-9.9618983E-1,1.0332656E0,2.6587808E0,-4.5060205E0,-2.6483932E0,1.9369748E0,-1.2643816E0,-2.9693297E-1,1.238546E0,4.0335736E0,2.3353362E0,-2.3111008E-1,5.871606E-2,-9.1370285E-2,-1.8021402E-1,2.1329165E-1,6.040572E-2,-9.229907E-2,-2.3167308E-2,1.565141E-1,-3.5392698E-2,5.2603375E-2,1.3882324E-1,2.158331E-1,-6.105714E-2,3.0783344E-2,1.2831691E-1],"categories":[],"categories_nodes":[],"categories_segments":[],"categories_sizes":[],"default_left":[0,0,0,0,0,0,0,0,0,0,0,0,0,0,0,0,0,0,0,0,0,0,0,0,0,0,0,0,0,0,0],"id":31,"left_children":[1,3,5,7,9,11,13,15,17,19,21,23,25,27,29,-1,-1,-1,-1,-1,-1,-1,-1,-1,-1,-1,-1,-1,-1,-1,-1],"loss_changes":[4.765479E3,8.0459766E2,5.465298E2,1.5163037E2,4.8702594E2,1.478222E2,1.4087866E2,4.502466E1,1.5821558E2,8.31118E1,2.6236798E2,1.0502273E2,1.3129608E2,9.8986694E1,1.0806006E2,0E0,0E0,0E0,0E0,0E0,0E0,0E0,0E0,0E0,0E0,0E0,0E0,0E0,0E0,0E0,0E0],"parents":[2147483647,0,0,1,1,2,2,3,3,4,4,5,5,6,6,7,7,8,8,9,9,10,10,11,11,12,12,13,13,14,14],"right_children":[2,4,6,8,10,12,14,16,18,20,22,24,26,28,30,-1,-1,-1,-1,-1,-1,-1,-1,-1,-1,-1,-1,-1,-1,-1,-1],"split_conditions":[2E0,8.92E1,1.062E2,7.6E1,2.2E1,7.2E1,7.55E1,9.6E1,7.09E1,1.036E2,1.062E2,4.23E1,5.6E1,1.716E2,1.092E2,-2.3111008E-1,5.871606E-2,-9.1370285E-2,-1.8021402E-1,2.1329165E-1,6.040572E-2,-9.229907E-2,-2.3167308E-2,1.565141E-1,-3.5392698E-2,5.2603375E-2,1.3882324E-1,2.158331E-1,-6.105714E-2,3.0783344E-2,1.2831691E-1],"split_indices":[0,4,5,4,1,4,2,5,2,5,5,2,1,3,5,0,0,0,0,0,0,0,0,0,0,0,0,0,0,0,0],"split_type":[0,0,0,0,0,0,0,0,0,0,0,0,0,0,0,0,0,0,0,0,0,0,0,0,0,0,0,0,0,0,0],"sum_hessian":[1.759E3,8.83E2,8.76E2,2.68E2,6.15E2,5.39E2,3.37E2,5.9E1,2.09E2,5.1E1,5.64E2,7.2E1,4.67E2,6.2E1,2.75E2,5.8E1,1E0,1.14E2,9.5E1,1.1E1,4E1,3.26E2,2.38E2,7E0,6.5E1,4.18E2,4.9E1,5.9E1,3E0,3.3E1,2.42E2],"tree_param":{"num_deleted":"0","num_feature":"8","num_nodes":"31","size_leaf_vector":"1"}},{"base_weights":[7.811468E-2,1.0039786E0,-8.915142E-1,1.3336822E-1,2.0952175E0,-1.7653936E0,4.8556137E-1,1.0923065E0,-4.9358267E-1,3.3819008E0,1.5912513E0,-3.164799E0,-1.3592143E0,1.719405E0,-1.5622717E-1,9.202576E-2,-5.664652E-3,-2.8499702E-1,-1.4719905E-2,3.0813923E-1,1.5210924E-1,-2.6306087E-2,1.1818613E-1,-1.0612177E-1,-2.4111238E-1,1.3113539E-2,-8.960468E-2,9.4533116E-2,-1.1789421E-1,-3.9433625E-2,1.4301604E-1],"categories":[],"categories_nodes":[],"categories_segments":[],"categories_sizes":[],"default_left":[0,0,0,0,0,0,0,0,0,0,0,0,0,0,0,0,0,0,0,0,0,0,0,0,0,0,0,0,0,0,0],"id":32,"left_children":[1,3,5,7,9,11,13,15,17,19,21,23,25,27,29,-1,-1,-1,-1,-1,-1,-1,-1,-1,-1,-1,-1,-1,-1,-1,-1],"loss_changes":[1.5584816E3,8.4335956E2,1.0213386E3,2.9813672E2,2.5010596E2,2.9070288E2,2.6158463E2,1.7700839E2,3.0942975E2,8.516992E1,4.673924E2,1.901742E2,2.8404065E2,8.336197E1,4.181566E2,0E0,0E0,0E0,0E0,0E0,0E0,0E0,0E0,0E0,0E0,0E0,0E0,0E0,0E0,0E0,0E0],"parents":[2147483647,0,0,1,1,2,2,3,3,4,4,5,5,6,6,7,7,8,8,9,9,10,10,11,11,12,12,13,13,14,14],"right_children":[2,4,6,8,10,12,14,16,18,20,22,24,26,28,30,-1,-1,-1,-1,-1,-1,-1,-1,-1,-1,-1,-1,-1,-1,-1,-1],"split_conditions":[1.671E2,1.017E2,1.06E2,1.582E2,3.23E1,8.05E1,3.65E1,4.6E1,8.42E1,2.1E1,1.085E2,2.94E1,3.05E1,1.242E2,1.275E2,9.202576E-2,-5.664652E-3,-2.8499702E-1,-1.4719905E-2,3.0813923E-1,1.5210924E-1,-2.6306087E-2,1.1818613E-1,-1.0612177E-1,-2.4111238E-1,1.3113539E-2,-8.960468E-2,9.4533116E-2,-1.1789421E-1,-3.9433625E-2,1.4301604E-1],"split_indices":[3,5,5,3,6,4,6,1,5,1,5,6,6,4,5,0,0,0,0,0,0,0,0,0,0,0,0,0,0,0,0],"split_type":[0,0,0,0,0,0,0,0,0,0,0,0,0,0,0,0,0,0,0,0,0,0,0,0,0,0,0,0,0,0,0],"sum_hessian":[1.734E3,8.87E2,8.47E2,4.94E2,3.93E2,5.18E2,3.29E2,1.95E2,2.99E2,1.09E2,2.84E2,1.15E2,4.03E2,1.12E2,2.17E2,1.2E2,7.5E1,1E1,2.89E2,1E1,9.9E1,7.6E1,2.08E2,7.2E1,4.3E1,8.5E1,3.18E2,1.08E2,4E0,1.8E2,3.7E1],"tree_param":{"num_deleted":"0","num_feature":"8","num_nodes":"31","size_leaf_vector":"1"}},{"base_weights":[-3.8987145E-4,-1.5886467E0,1.5933316E0,-2.5281088E0,-5.879736E-1,-2.9152524E-1,1.988484E0,-3.094939E0,-1.9450041E0,4.916522E-2,-1.3326367E0,-8.924197E-2,-6.220805E0,1.6874477E0,2.8091133E0,-1.4580758E-1,-3.170286E-1,-3.1431578E-2,-1.3550031E-1,1.0745163E-1,-7.505367E-3,2.4166353E-1,-7.105582E-2,7.236364E-2,-2.8898064E-2,-3.7288032E-2,-4.811124E-1,8.819327E-2,-2.1370149E-1,1.1380824E-1,2.1802692E-1],"categories":[],"categories_nodes":[],"categories_segments":[],"categories_sizes":[],"default_left":[0,0,0,0,0,0,0,0,0,0,0,0,0,0,0,0,0,0,0,0,0,0,0,0,0,0,0,0,0,0,0],"id":33,"left_children":[1,3,5,7,9,11,13,15,17,19,21,23,25,27,29,-1,-1,-1,-1,-1,-1,-1,-1,-1,-1,-1,-1,-1,-1,-1,-1],"loss_changes":[4.422074E3,8.210962E2,6.500503E2,1.4304565E2,2.0170834E2,1.8175276E2,1.73375E2,1.13233154E2,2.2487762E2,9.656515E1,1.13798096E2,1.11973274E2,8.593938E1,2.4898694E2,1.4882605E2,0E0,0E0,0E0,0E0,0E0,0E0,0E0,0E0,0E0,0E0,0E0,0E0,0E0,0E0,0E0,0E0],"parents":[2147483647,0,0,1,1,2,2,3,3,4,4,5,5,6,6,7,7,8,8,9,9,10,10,11,11,12,12,13,13,14,14],"right_children":[2,4,6,8,10,12,14,16,18,20,22,24,26,28,30,-1,-1,-1,-1,-1,-1,-1,-1,-1,-1,-1,-1,-1,-1,-1,-1],"split_conditions":[2E0,9.66E1,7.67E1,8.6E1,4.4E1,7.64E1,3.49E1,8.02E1,3.3E1,2E1,2.81E1,2.1E1,5.54E1,9.48E1,4.9E1,-1.4580758E-1,-3.170286E-1,-3.1431578E-2,-1.3550031E-1,1.0745163E-1,-7.505367E-3,2.4166353E-1,-7.105582E-2,7.236364E-2,-2.8898064E-2,-3.7288032E-2,-4.811124E-1,8.819327E-2,-2.1370149E-1,1.1380824E-1,2.1802692E-1],"split_indices":[0,4,4,4,1,4,6,2,1,1,6,1,2,2,1,0,0,0,0,0,0,0,0,0,0,0,0,0,0,0,0],"split_type":[0,0,0,0,0,0,0,0,0,0,0,0,0,0,0,0,0,0,0,0,0,0,0,0,0,0,0,0,0,0,0],"sum_hessian":[1.745E3,8.74E2,8.71E2,4.5E2,4.24E2,1.51E2,7.2E2,2.26E2,2.24E2,2.29E2,1.95E2,1.47E2,4E0,5.29E2,1.91E2,2.16E2,1E1,8.3E1,1.41E2,1.9E1,2.1E2,2E0,1.93E2,3.5E1,1.12E2,2E0,2E0,5.23E2,6E0,1.44E2,4.7E1],"tree_param":{"num_deleted":"0","num_feature":"8","num_nodes":"31","size_leaf_vector":"1"}},{"base_weights":[2.6541611E-2,1.3760558E0,-5.091565E-1,1.0738921E0,3.45926E0,-1.7242407E0,-4.3641374E-2,3.1641605E0,8.642618E-1,2.9398534E0,5.8661885E0,-1.2515675E0,-3.8966165E0,2.1815296E-1,-1.4525652E0,9.953809E-2,2.6789114E-1,1.8929195E-2,7.543172E-2,2.4500957E-1,1.05524816E-1,7.774973E-2,3.0862164E-1,-1.13685906E-1,-3.4184687E-2,-2.0347877E-1,1.6202278E-1,-6.1443504E-3,5.140503E-2,-1.00173615E-1,-2.205462E-2],"categories":[],"categories_nodes":[],"categories_segments":[],"categories_sizes":[],"default_left":[0,0,0,0,0,0,0,0,0,0,0,0,0,0,0,0,0,0,0,0,0,0,0,0,0,0,0,0,0,0,0],"id":34,"left_children":[1,3,5,7,9,11,13,15,17,19,21,23,25,27,29,-1,-1,-1,-1,-1,-1,-1,-1,-1,-1,-1,-1,-1,-1,-1,-1],"loss_changes":[1.254265E3,3.0661316E2,7.0244977E2,1.865607E2,6.0265076E1,3.483504E2,3.3191144E2,8.9721375E1,1.2273413E2,7.58266E1,3.6047058E0,1.63294E2,8.848688E1,2.0978076E2,7.7685394E1,0E0,0E0,0E0,0E0,0E0,0E0,0E0,0E0,0E0,0E0,0E0,0E0,0E0,0E0,0E0,0E0],"parents":[2147483647,0,0,1,1,2,2,3,3,4,4,5,5,6,6,7,7,8,8,9,9,10,10,11,11,12,12,13,13,14,14],"right_children":[2,4,6,8,10,12,14,16,18,20,22,24,26,28,30,-1,-1,-1,-1,-1,-1,-1,-1,-1,-1,-1,-1,-1,-1,-1,-1],"split_conditions":[1.611E2,3.63E1,8.6E1,1.503E2,5.5E1,7.24E1,1.788E2,3.48E1,3.7E1,1.538E2,1E2,7.55E1,8.63E1,1.073E2,1.104E2,9.953809E-2,2.6789114E-1,1.8929195E-2,7.543172E-2,2.4500957E-1,1.05524816E-1,7.774973E-2,3.0862164E-1,-1.13685906E-1,-3.4184687E-2,-2.0347877E-1,1.6202278E-1,-6.1443504E-3,5.140503E-2,-1.00173615E-1,-2.205462E-2],"split_indices":[3,6,4,3,1,2,3,7,7,3,4,4,2,4,4,0,0,0,0,0,0,0,0,0,0,0,0,0,0,0,0],"split_type":[0,0,0,0,0,0,0,0,0,0,0,0,0,0,0,0,0,0,0,0,0,0,0,0,0,0,0,0,0,0,0],"sum_hessian":[1.733E3,4.92E2,1.241E3,4.31E2,6.1E1,3.43E2,8.98E2,3.8E1,3.93E2,5.2E1,9E0,2.83E2,6E1,7.58E2,1.4E2,2.6E1,1.2E1,2.25E2,1.68E2,1.4E1,3.8E1,1E0,8E0,1E2,1.83E2,5.9E1,1E0,5.34E2,2.24E2,9E1,5E1],"tree_param":{"num_deleted":"0","num_feature":"8","num_nodes":"31","size_leaf_vector":"1"}},{"base_weights":[-1.5825422E-2,-1.4840578E0,1.5203203E0,-2.2073376E0,-3.5726544E-1,6.164695E-1,2.0551703E0,-4.130757E0,-1.9505627E0,-5.4488605E-1,1.770638E0,2.2334905E0,2.6156843E-1,1.3165079E0,2.3741195E0,-2.119238E-1,6.638851E-2,-8.891478E-2,-1.7288218E-1,-2.0786805E-2,-2.1086088E-1,-1.1917734E-1,1.0020643E-1,-5.964036E-2,1.6249083E-1,-5.855998E-2,3.7492152E-2,1.5001129E-1,4.6151962E-2,4.08596E-2,1.2728627E-1],"categories":[],"categories_nodes":[],"categories_segments":[],"categories_sizes":[],"default_left":[0,0,0,0,0,0,0,0,0,0,0,0,0,0,0,0,0,0,0,0,0,0,0,0,0,0,0,0,0,0,0],"id":35,"left_children":[1,3,5,7,9,11,13,15,17,19,21,23,25,27,29,-1,-1,-1,-1,-1,-1,-1,-1,-1,-1,-1,-1,-1,-1,-1,-1],"loss_changes":[3.992092E3,7.367739E2,4.1689526E2,2.6407373E2,1.4269446E2,1.8477982E2,1.2480298E2,4.3259033E1,1.20546265E2,1.5333675E2,3.2905838E1,2.0584607E2,1.8696764E2,1.0720407E2,9.891284E1,0E0,0E0,0E0,0E0,0E0,0E0,0E0,0E0,0E0,0E0,0E0,0E0,0E0,0E0,0E0,0E0],"parents":[2147483647,0,0,1,1,2,2,3,3,4,4,5,5,6,6,7,7,8,8,9,9,10,10,11,11,12,12,13,13,14,14],"right_children":[2,4,6,8,10,12,14,16,18,20,22,24,26,28,30,-1,-1,-1,-1,-1,-1,-1,-1,-1,-1,-1,-1,-1,-1,-1,-1],"split_conditions":[2E0,1.002E2,9.89E1,7.58E1,1.259E2,5E1,3.69E1,9.6E1,3.65E1,1.248E2,3.51E1,8.42E1,9.09E1,9.18E1,8.43E1,-2.119238E-1,6.638851E-2,-8.891478E-2,-1.7288218E-1,-2.0786805E-2,-2.1086088E-1,-1.1917734E-1,1.0020643E-1,-5.964036E-2,1.6249083E-1,-5.855998E-2,3.7492152E-2,1.5001129E-1,4.6151962E-2,4.08596E-2,1.2728627E-1],"split_indices":[0,4,5,4,5,2,7,5,6,2,7,5,5,4,4,0,0,0,0,0,0,0,0,0,0,0,0,0,0,0,0],"split_type":[0,0,0,0,0,0,0,0,0,0,0,0,0,0,0,0,0,0,0,0,0,0,0,0,0,0,0,0,0,0,0],"sum_hessian":[1.768E3,9.04E2,8.64E2,5.5E2,3.54E2,3.22E2,5.42E2,6.3E1,4.87E2,3.26E2,2.8E1,5.7E1,2.65E2,1.65E2,3.77E2,6.2E1,1E0,4.39E2,4.8E1,3.16E2,1E1,1E0,2.7E1,1.3E1,4.4E1,6.7E1,1.98E2,3E1,1.35E2,3.8E1,3.39E2],"tree_param":{"num_deleted":"0","num_feature":"8","num_nodes":"31","size_leaf_vector":"1"}},{"base_weights":[4.1636538E-2,-1.3708984E0,1.5156093E0,-2.2044227E0,-5.6746805E-1,1.0922053E0,2.227652E0,-2.046335E0,-4.3470874E0,-7.8309065E-1,8.310098E-1,-3.1303462E-1,1.2770635E0,1.9097341E0,3.4029515E0,-1.3549979E-1,-6.5545954E-2,-2.6264843E-1,1.3139582E-1,2.435898E-3,-5.3934705E-2,1.765546E-1,2.3612684E-2,1.5231206E-1,-5.411161E-2,1.8998262E-1,5.5490013E-2,2.0990296E-1,8.732507E-2,2.2693704E-1,1.3449423E-1],"categories":[],"categories_nodes":[],"categories_segments":[],"categories_sizes":[],"default_left":[0,0,0,0,0,0,0,0,0,0,0,0,0,0,0,0,0,0,0,0,0,0,0,0,0,0,0,0,0,0,0],"id":36,"left_children":[1,3,5,7,9,11,13,15,17,19,21,23,25,27,29,-1,-1,-1,-1,-1,-1,-1,-1,-1,-1,-1,-1,-1,-1,-1,-1],"loss_changes":[3.6164958E3,5.92754E2,2.538263E2,1.3845142E2,1.3724992E2,1.3937677E2,1.1157434E2,1.9509045E2,1.9704175E2,9.668555E1,5.742137E1,1.6608539E2,1.9535895E2,8.642395E1,4.1244324E1,0E0,0E0,0E0,0E0,0E0,0E0,0E0,0E0,0E0,0E0,0E0,0E0,0E0,0E0,0E0,0E0],"parents":[2147483647,0,0,1,1,2,2,3,3,4,4,5,5,6,6,7,7,8,8,9,9,10,10,11,11,12,12,13,13,14,14],"right_children":[2,4,6,8,10,12,14,16,18,20,22,24,26,28,30,-1,-1,-1,-1,-1,-1,-1,-1,-1,-1,-1,-1,-1,-1,-1,-1],"split_conditions":[2E0,9.66E1,3.25E1,8.72E1,1.212E2,7.2E1,4.06E1,8.66E1,1.86E2,8.62E1,1.083E2,2.28E1,5.04E1,8.92E1,9.97E1,-1.3549979E-1,-6.5545954E-2,-2.6264843E-1,1.3139582E-1,2.435898E-3,-5.3934705E-2,1.765546E-1,2.3612684E-2,1.5231206E-1,-5.411161E-2,1.8998262E-1,5.5490013E-2,2.0990296E-1,8.732507E-2,2.2693704E-1,1.3449423E-1],"split_indices":[0,4,6,2,4,4,7,4,3,2,2,6,2,4,4,0,0,0,0,0,0,0,0,0,0,0,0,0,0,0,0],"split_type":[0,0,0,0,0,0,0,0,0,0,0,0,0,0,0,0,0,0,0,0,0,0,0,0,0,0,0,0,0,0,0],"sum_hessian":[1.735E3,8.86E2,8.49E2,4.34E2,4.52E2,5.34E2,3.15E2,4.06E2,2.8E1,3.92E2,6E1,6.2E1,4.72E2,2.5E2,6.5E1,2.12E2,1.94E2,2.5E1,3E0,1.03E2,2.89E2,6E0,5.4E1,1.1E1,5.1E1,2.8E1,4.44E2,1.5E1,2.35E2,2.3E1,4.2E1],"tree_param":{"num_deleted":"0","num_feature":"8","num_nodes":"31","size_leaf_vector":"1"}},{"base_weights":[-9.252882E-2,-1.4000484E0,1.2973052E0,-2.8555243E0,-9.641177E-1,5.762679E-1,1.8906796E0,-3.9939175E0,-2.3824115E0,-1.9116548E-1,-1.3882929E0,9.867935E-1,-8.91868E-1,-1.5741091E0,1.9474436E0,-2.2951987E-1,-1.3910465E-1,-3.359556E-2,-1.3879645E-1,8.832776E-2,-2.0050231E-2,-1.4087169E-1,-5.5509795E-2,2.1977505E-2,1.5357931E-1,5.8915883E-2,-6.099776E-2,-1.9198711E-1,8.257299E-2,1.2760556E-1,7.580036E-2],"categories":[],"categories_nodes":[],"categories_segments":[],"categories_sizes":[],"default_left":[0,0,0,0,0,0,0,0,0,0,0,0,0,0,0,0,0,0,0,0,0,0,0,0,0,0,0,0,0,0,0],"id":37,"left_children":[1,3,5,7,9,11,13,15,17,19,21,23,25,27,29,-1,-1,-1,-1,-1,-1,-1,-1,-1,-1,-1,-1,-1,-1,-1,-1],"loss_changes":[3.1601711E3,5.657468E2,3.5958374E2,1.0143408E2,2.2629083E2,2.3111432E2,9.392944E1,2.9876038E1,9.775531E1,1.0176677E2,1.7413025E2,3.3977563E2,5.8490402E1,6.4804825E1,1.1482922E2,0E0,0E0,0E0,0E0,0E0,0E0,0E0,0E0,0E0,0E0,0E0,0E0,0E0,0E0,0E0,0E0],"parents":[2147483647,0,0,1,1,2,2,3,3,4,4,5,5,6,6,7,7,8,8,9,9,10,10,11,11,12,12,13,13,14,14],"right_children":[2,4,6,8,10,12,14,16,18,20,22,24,26,28,30,-1,-1,-1,-1,-1,-1,-1,-1,-1,-1,-1,-1,-1,-1,-1,-1],"split_conditions":[2E0,9.44E1,1.01E2,8.86E1,3.3E1,6.33E1,7.72E1,7.58E1,6.21E1,7.19E1,9.27E1,9.65E1,2.4E1,3.1E1,9.75E1,-2.2951987E-1,-1.3910465E-1,-3.359556E-2,-1.3879645E-1,8.832776E-2,-2.0050231E-2,-1.4087169E-1,-5.5509795E-2,2.1977505E-2,1.5357931E-1,5.8915883E-2,-6.099776E-2,-1.9198711E-1,8.257299E-2,1.2760556E-1,7.580036E-2],"split_indices":[0,5,5,5,1,2,4,4,2,2,4,5,1,1,4,0,0,0,0,0,0,0,0,0,0,0,0,0,0,0,0],"split_type":[0,0,0,0,0,0,0,0,0,0,0,0,0,0,0,0,0,0,0,0,0,0,0,0,0,0,0,0,0,0,0],"sum_hessian":[1.737E3,8.95E2,8.42E2,2.05E2,6.9E2,3.81E2,4.61E2,5.8E1,1.47E2,2.45E2,4.45E2,2.98E2,8.3E1,7E0,4.54E2,3.7E1,2.1E1,2.8E1,1.19E2,2.3E1,2.22E2,7.1E1,3.74E2,2.37E2,6.1E1,1.1E1,7.2E1,4E0,3E0,1.87E2,2.67E2],"tree_param":{"num_deleted":"0","num_feature":"8","num_nodes":"31","size_leaf_vector":"1"}},{"base_weights":[-5.4083083E-2,-1.2986925E0,1.2677299E0,-2.383567E0,-6.562821E-1,6.296435E-1,2.0442595E0,-2.0147715E0,-3.136796E0,7.2281015E-1,-8.871557E-1,1.7156972E0,3.248892E-1,4.9204116E0,1.8266271E0,-1.68538E-1,-7.886701E-2,-4.9569152E-2,-1.69868E-1,5.5476096E-3,1.23284616E-1,6.182775E-2,-5.031495E-2,4.5619793E-2,1.5402661E-1,-3.5589583E-2,3.2524597E-2,2.5524804E-1,7.6672556E-3,3.4335606E-2,1.12487994E-1],"categories":[],"categories_nodes":[],"categories_segments":[],"categories_sizes":[],"default_left":[0,0,0,0,0,0,0,0,0,0,0,0,0,0,0,0,0,0,0,0,0,0,0,0,0,0,0,0,0,0,0],"id":38,"left_children":[1,3,5,7,9,11,13,15,17,19,21,23,25,27,29,-1,-1,-1,-1,-1,-1,-1,-1,-1,-1,-1,-1,-1,-1,-1,-1],"loss_changes":[2.846095E3,6.1940466E2,4.1443127E2,8.5627686E1,1.7926138E2,1.5235513E2,2.2761902E2,1.2814227E2,5.6446777E1,8.610452E1,1.2294977E2,1.07923065E2,1.2265469E2,2.2090881E1,1.6871948E2,0E0,0E0,0E0,0E0,0E0,0E0,0E0,0E0,0E0,0E0,0E0,0E0,0E0,0E0,0E0,0E0],"parents":[2147483647,0,0,1,1,2,2,3,3,4,4,5,5,6,6,7,7,8,8,9,9,10,10,11,11,12,12,13,13,14,14],"right_children":[2,4,6,8,10,12,14,16,18,20,22,24,26,28,30,-1,-1,-1,-1,-1,-1,-1,-1,-1,-1,-1,-1,-1,-1,-1,-1],"split_conditions":[2E0,9.78E1,1.04E2,3.16E1,2.3E1,1.542E2,6.96E1,8.86E1,1.618E2,1.108E2,3.14E1,1.525E2,9.09E1,3.22E1,1.095E2,-1.68538E-1,-7.886701E-2,-4.9569152E-2,-1.69868E-1,5.5476096E-3,1.23284616E-1,6.182775E-2,-5.031495E-2,4.5619793E-2,1.5402661E-1,-3.5589583E-2,3.2524597E-2,2.5524804E-1,7.6672556E-3,3.4335606E-2,1.12487994E-1],"split_indices":[0,5,5,6,1,3,2,5,3,5,6,3,5,6,5,0,0,0,0,0,0,0,0,0,0,0,0,0,0,0,0],"split_type":[0,0,0,0,0,0,0,0,0,0,0,0,0,0,0,0,0,0,0,0,0,0,0,0,0,0,0,0,0,0,0],"sum_hessian":[1.728E3,8.9E2,8.38E2,3.3E2,5.6E2,4.61E2,3.77E2,2.24E2,1.06E2,8E1,4.8E2,1E2,3.61E2,2.5E1,3.52E2,5.3E1,1.71E2,1.2E1,9.4E1,6E1,2E1,2.5E1,4.55E2,6.4E1,3.6E1,8.6E1,2.75E2,2.4E1,1E0,9.6E1,2.56E2],"tree_param":{"num_deleted":"0","num_feature":"8","num_nodes":"31","size_leaf_vector":"1"}},{"base_weights":[-9.173597E-2,-1.3205585E0,1.1621544E0,-2.0877657E0,-5.039522E-1,-2.477076E-2,1.4340855E0,-1.8122836E0,-3.200653E0,-9.933129E-4,-1.1478446E0,1.4562947E0,-5.7834506E-1,7.2795236E-1,1.9047875E0,-1.3205586E-1,-6.396481E-2,-1.8788856E-1,-9.2203505E-2,5.7467114E-2,-2.8079683E-2,1.5225959E-1,-6.417482E-2,1.7417684E-1,3.682086E-2,4.88374E-2,-6.354538E-2,9.165444E-2,5.5978103E-3,5.7798516E-2,1.5173723E-1],"categories":[],"categories_nodes":[],"categories_segments":[],"categories_sizes":[],"default_left":[0,0,0,0,0,0,0,0,0,0,0,0,0,0,0,0,0,0,0,0,0,0,0,0,0,0,0,0,0,0,0],"id":39,"left_children":[1,3,5,7,9,11,13,15,17,19,21,23,25,27,29,-1,-1,-1,-1,-1,-1,-1,-1,-1,-1,-1,-1,-1,-1,-1,-1],"loss_changes":[2.6055015E3,5.3398413E2,2.7018726E2,1.2909497E2,1.3439719E2,1.2956337E2,2.2496301E2,1.5344531E2,5.806726E1,1.5154704E2,1.0742882E2,6.01874E1,1.2509627E2,1.8632298E2,3.417135E2,0E0,0E0,0E0,0E0,0E0,0E0,0E0,0E0,0E0,0E0,0E0,0E0,0E0,0E0,0E0,0E0],"parents":[2147483647,0,0,1,1,2,2,3,3,4,4,5,5,6,6,7,7,8,8,9,9,10,10,11,11,12,12,13,13,14,14],"right_children":[2,4,6,8,10,12,14,16,18,20,22,24,26,28,30,-1,-1,-1,-1,-1,-1,-1,-1,-1,-1,-1,-1,-1,-1,-1,-1],"split_conditions":[2E0,9.66E1,7.72E1,4.9E1,4.5E1,2.2E1,3.7E1,8.27E1,1.739E2,3.6E1,2.96E1,2.32E1,1.575E2,1.54E2,4E1,-1.3205586E-1,-6.396481E-2,-1.8788856E-1,-9.2203505E-2,5.7467114E-2,-2.8079683E-2,1.5225959E-1,-6.417482E-2,1.7417684E-1,3.682086E-2,4.88374E-2,-6.354538E-2,9.165444E-2,5.5978103E-3,5.7798516E-2,1.5173723E-1],"split_indices":[0,4,4,1,1,1,7,4,3,6,6,6,3,3,1,0,0,0,0,0,0,0,0,0,0,0,0,0,0,0,0],"split_type":[0,0,0,0,0,0,0,0,0,0,0,0,0,0,0,0,0,0,0,0,0,0,0,0,0,0,0,0,0,0,0],"sum_hessian":[1.689E3,8.53E2,8.36E2,4.39E2,4.14E2,1.56E2,6.8E2,3.54E2,8.5E1,2.33E2,1.81E2,4.2E1,1.14E2,2.73E2,4.07E2,1.37E2,2.17E2,5.9E1,2.6E1,7.6E1,1.57E2,5E0,1.76E2,1E1,3.2E1,3.5E1,7.9E1,9.7E1,1.76E2,2.46E2,1.61E2],"tree_param":{"num_deleted":"0","num_feature":"8","num_nodes":"31","size_leaf_vector":"1"}},{"base_weights":[6.7388974E-2,-1.1033069E0,1.2393692E0,-1.5680358E0,-1.886594E-2,6.619976E-1,1.7876799E0,-2.5673308E0,-1.2127504E0,-4.386354E-1,1.1207778E0,9.797508E-1,-4.504202E-1,4.0812278E-1,2.0171335E0,-9.689868E-2,-2.4367309E-1,-3.6759462E-2,-1.315171E-1,3.9068043E-2,-6.476261E-2,-8.0630265E-2,7.7525005E-2,2.4812352E-2,9.986448E-2,-1.2875101E-1,2.220975E-2,9.213967E-2,-4.166278E-2,8.321034E-2,1.6532852E-1],"categories":[],"categories_nodes":[],"categories_segments":[],"categories_sizes":[],"default_left":[0,0,0,0,0,0,0,0,0,0,0,0,0,0,0,0,0,0,0,0,0,0,0,0,0,0,0,0,0,0,0],"id":40,"left_children":[1,3,5,7,9,11,13,15,17,19,21,23,25,27,29,-1,-1,-1,-1,-1,-1,-1,-1,-1,-1,-1,-1,-1,-1,-1,-1],"loss_changes":[2.3585188E3,4.3338562E2,2.7075806E2,2.1061768E2,1.24394005E2,1.4890051E2,1.3845618E2,2.18422E2,3.000022E2,1.995752E2,8.472202E1,1.5988757E2,1.7980954E2,1.1551753E2,1.6606104E2,0E0,0E0,0E0,0E0,0E0,0E0,0E0,0E0,0E0,0E0,0E0,0E0,0E0,0E0,0E0,0E0],"parents":[2147483647,0,0,1,1,2,2,3,3,4,4,5,5,6,6,7,7,8,8,9,9,10,10,11,11,12,12,13,13,14,14],"right_children":[2,4,6,8,10,12,14,16,18,20,22,24,26,28,30,-1,-1,-1,-1,-1,-1,-1,-1,-1,-1,-1,-1,-1,-1,-1,-1],"split_conditions":[2E0,1.062E2,1.021E2,8.3E1,1.174E2,3.02E1,3.5E1,3.14E1,8.63E1,9.75E1,3.92E1,9.6E1,3.09E1,1.033E2,1.224E2,-9.689868E-2,-2.4367309E-1,-3.6759462E-2,-1.315171E-1,3.9068043E-2,-6.476261E-2,-8.0630265E-2,7.7525005E-2,2.4812352E-2,9.986448E-2,-1.2875101E-1,2.220975E-2,9.213967E-2,-4.166278E-2,8.321034E-2,1.6532852E-1],"split_indices":[0,5,5,4,5,6,7,6,2,2,7,5,6,4,5,0,0,0,0,0,0,0,0,0,0,0,0,0,0,0,0],"split_type":[0,0,0,0,0,0,0,0,0,0,0,0,0,0,0,0,0,0,0,0,0,0,0,0,0,0,0,0,0,0,0],"sum_hessian":[1.717E3,8.59E2,8.58E2,6.01E2,2.58E2,4.19E2,4.39E2,1.56E2,4.45E2,1.89E2,6.9E1,3.26E2,9.3E1,6.3E1,3.76E2,1.24E2,3.2E1,3.34E2,1.11E2,7.8E1,1.11E2,9E0,6E1,2.22E2,1.04E2,2.7E1,6.6E1,2.9E1,3.4E1,2.97E2,7.9E1],"tree_param":{"num_deleted":"0","num_feature":"8","num_nodes":"31","size_leaf_vector":"1"}},{"base_weights":[-6.1406236E-2,-1.1165293E0,1.0337943E0,-1.48235E0,1.5186964E-1,4.8463306E-1,1.7601357E0,-2.1849878E0,-1.2153339E0,2.0071797E0,-1.9343865E-1,-3.8185358E-1,7.9569125E-1,3.6926134E0,1.6000851E0,-8.515532E-2,-1.5077238E-1,-3.9676648E-2,-1.015808E-1,-4.0755864E-2,1.512144E-1,-1.3013521E-1,2.2014077E-3,-2.89417E-2,2.289816E-1,7.7326156E-2,-1.5703378E-4,2.0445493E-1,-4.211502E-2,8.777099E-3,9.0391986E-2],"categories":[],"categories_nodes":[],"categories_segments":[],"categories_sizes":[],"default_left":[0,0,0,0,0,0,0,0,0,0,0,0,0,0,0,0,0,0,0,0,0,0,0,0,0,0,0,0,0,0,0],"id":41,"left_children":[1,3,5,7,9,11,13,15,17,19,21,23,25,27,29,-1,-1,-1,-1,-1,-1,-1,-1,-1,-1,-1,-1,-1,-1,-1,-1],"loss_changes":[1.9875814E3,4.0669495E2,3.358004E2,1.24923096E2,1.2659709E2,1.3021622E2,1.06365234E2,6.92984E1,1.6882068E2,9.14532E1,9.565872E1,1.2774724E2,2.1292978E2,5.1990936E1,9.9419556E1,0E0,0E0,0E0,0E0,0E0,0E0,0E0,0E0,0E0,0E0,0E0,0E0,0E0,0E0,0E0,0E0],"parents":[2147483647,0,0,1,1,2,2,3,3,4,4,5,5,6,6,7,7,8,8,9,9,10,10,11,11,12,12,13,13,14,14],"right_children":[2,4,6,8,10,12,14,16,18,20,22,24,26,28,30,-1,-1,-1,-1,-1,-1,-1,-1,-1,-1,-1,-1,-1,-1,-1,-1],"split_conditions":[2E0,1.09E2,1.047E2,9.42E1,9.75E1,7.58E1,6.96E1,3.02E1,3.51E1,3.93E1,1.06E2,1.012E2,6.34E1,3.31E1,3.5E1,-8.515532E-2,-1.5077238E-1,-3.9676648E-2,-1.015808E-1,-4.0755864E-2,1.512144E-1,-1.3013521E-1,2.2014077E-3,-2.89417E-2,2.289816E-1,7.7326156E-2,-1.5703378E-4,2.0445493E-1,-4.211502E-2,8.777099E-3,9.0391986E-2],"split_indices":[0,5,5,5,2,4,2,6,6,7,4,5,2,6,7,0,0,0,0,0,0,0,0,0,0,0,0,0,0,0,0],"split_type":[0,0,0,0,0,0,0,0,0,0,0,0,0,0,0,0,0,0,0,0,0,0,0,0,0,0,0,0,0,0,0],"sum_hessian":[1.718E3,8.75E2,8.43E2,6.79E2,1.96E2,4.81E2,3.62E2,1.85E2,4.94E2,3E1,1.66E2,1.27E2,3.54E2,2.6E1,3.36E2,1.19E2,6.6E1,3.27E2,1.67E2,8E0,2.2E1,1.4E1,1.52E2,1.23E2,4E0,1.82E2,1.72E2,2.4E1,2E0,4.3E1,2.93E2],"tree_param":{"num_deleted":"0","num_feature":"8","num_nodes":"31","size_leaf_vector":"1"}},{"base_weights":[-1.4680451E-2,-5.266463E-1,9.830665E-1,4.544835E-1,-1.0873387E0,2.2310562E0,3.9717364E-1,-1.18489616E-1,1.1044607E0,-1.5978621E0,-4.983094E-1,4.032533E0,1.9150877E0,-3.7851906E-1,1.7639334E0,4.867115E-2,-5.7145383E-2,2.082018E-1,1.927689E-2,-5.7510722E-2,-1.3543178E-1,3.1960275E-2,-7.187219E-2,2.2262171E-1,2.5249815E-2,6.149401E-2,1.2014376E-1,1.1761322E-2,-6.316919E-2,2.5395915E-1,6.566831E-2],"categories":[],"categories_nodes":[],"categories_segments":[],"categories_sizes":[],"default_left":[0,0,0,0,0,0,0,0,0,0,0,0,0,0,0,0,0,0,0,0,0,0,0,0,0,0,0,0,0,0,0],"id":42,"left_children":[1,3,5,7,9,11,13,15,17,19,21,23,25,27,29,-1,-1,-1,-1,-1,-1,-1,-1,-1,-1,-1,-1,-1,-1,-1,-1],"loss_changes":[8.826908E2,6.2872217E2,4.2759015E2,1.5505737E2,2.1782227E2,9.8719666E1,4.247419E2,2.4943614E2,4.273163E2,1.903089E2,3.6306546E2,3.7744324E1,5.085669E1,1.3932611E2,2.099219E2,0E0,0E0,0E0,0E0,0E0,0E0,0E0,0E0,0E0,0E0,0E0,0E0,0E0,0E0,0E0,0E0],"parents":[2147483647,0,0,1,1,2,2,3,3,4,4,5,5,6,6,7,7,8,8,9,9,10,10,11,11,12,12,13,13,14,14],"right_children":[2,4,6,8,10,12,14,16,18,20,22,24,26,28,30,-1,-1,-1,-1,-1,-1,-1,-1,-1,-1,-1,-1,-1,-1,-1,-1],"split_conditions":[1.062E2,1.628E2,8.77E1,9.62E1,9.86E1,3.1E1,1.213E2,3.6E1,6.09E1,3.16E1,8.16E1,7.53E1,3.6E1,1.008E2,1.565E2,4.867115E-2,-5.7145383E-2,2.082018E-1,1.927689E-2,-5.7510722E-2,-1.3543178E-1,3.1960275E-2,-7.187219E-2,2.2262171E-1,2.5249815E-2,6.149401E-2,1.2014376E-1,1.1761322E-2,-6.316919E-2,2.5395915E-1,6.566831E-2],"split_indices":[5,3,2,5,5,6,5,1,2,6,2,2,1,2,3,0,0,0,0,0,0,0,0,0,0,0,0,0,0,0,0],"split_type":[0,0,0,0,0,0,0,0,0,0,0,0,0,0,0,0,0,0,0,0,0,0,0,0,0,0,0,0,0,0,0],"sum_hessian":[1.726E3,1.141E3,5.85E2,4.15E2,7.26E2,1.86E2,3.99E2,2.21E2,1.94E2,3.88E2,3.38E2,2.6E1,1.6E2,2.55E2,1.44E2,1.07E2,1.14E2,3.6E1,1.58E2,2.78E2,1.1E2,1.53E2,1.85E2,2.3E1,3E0,6.8E1,9.2E1,1.51E2,1.04E2,1.6E1,1.28E2],"tree_param":{"num_deleted":"0","num_feature":"8","num_nodes":"31","size_leaf_vector":"1"}},{"base_weights":[3.390097E-2,-9.618303E-1,1.0445405E0,-2.2249506E0,-6.032193E-1,8.9537245E-1,2.561401E0,-3.7382107E0,-1.9579072E0,-1.921166E0,-2.4951914E-1,7.429321E-1,2.338732E0,2.694428E0,-1.8871632E-1,9.4657965E-2,-2.1221034E-1,-3.8333993E-2,-1.30936E-1,-1.2735265E-1,-4.096312E-2,7.738822E-2,-2.2578526E-2,4.2554483E-2,-1.0800693E-1,2.2470063E-2,1.5087952E-1,-1.0587426E-2,1.4294116E-1],"categories":[],"categories_nodes":[],"categories_segments":[],"categories_sizes":[],"default_left":[0,0,0,0,0,0,0,0,0,0,0,0,0,0,0,0,0,0,0,0,0,0,0,0,0,0,0,0,0],"id":43,"left_children":[1,3,5,7,9,11,13,15,17,19,21,23,25,27,-1,-1,-1,-1,-1,-1,-1,-1,-1,-1,-1,-1,-1,-1,-1],"loss_changes":[1.7560361E3,3.9681744E2,1.9365387E2,7.1077515E1,3.1930493E2,1.7208325E2,7.506708E1,8.781961E1,1.2945099E2,9.79151E1,1.9752275E2,2.2665475E2,9.483798E1,3.691516E1,0E0,0E0,0E0,0E0,0E0,0E0,0E0,0E0,0E0,0E0,0E0,0E0,0E0,0E0,0E0],"parents":[2147483647,0,0,1,1,2,2,3,3,4,4,5,5,6,6,7,7,8,8,9,9,10,10,11,11,12,12,13,13],"right_children":[2,4,6,8,10,12,14,16,18,20,22,24,26,28,-1,-1,-1,-1,-1,-1,-1,-1,-1,-1,-1,-1,-1,-1,-1],"split_conditions":[2E0,8.56E1,3.91E1,7.14E1,1.678E2,5.6E1,1.75E2,1.619E2,2.93E1,1.006E2,2.2E1,1.164E2,3.41E1,3.27E1,-1.8871632E-1,9.4657965E-2,-2.1221034E-1,-3.8333993E-2,-1.30936E-1,-1.2735265E-1,-4.096312E-2,7.738822E-2,-2.2578526E-2,4.2554483E-2,-1.0800693E-1,2.2470063E-2,1.5087952E-1,-1.0587426E-2,1.4294116E-1],"split_indices":[0,4,6,4,3,1,3,3,6,4,1,4,7,7,0,0,0,0,0,0,0,0,0,0,0,0,0,0,0],"split_type":[0,0,0,0,0,0,0,0,0,0,0,0,0,0,0,0,0,0,0,0,0,0,0,0,0,0,0,0,0],"sum_hessian":[1.743E3,8.78E2,8.65E2,1.93E2,6.85E2,7.89E2,7.6E1,2.7E1,1.66E2,1.44E2,5.41E2,7.15E2,7.4E1,7.5E1,1E0,2E0,2.5E1,6E1,1.06E2,9.1E1,5.3E1,5.4E1,4.87E2,6.9E2,2.5E1,2E1,5.4E1,4E0,7.1E1],"tree_param":{"num_deleted":"0","num_feature":"8","num_nodes":"29","size_leaf_vector":"1"}},{"base_weights":[6.746469E-2,-8.7081736E-1,1.0012782E0,-1.5326349E0,-2.007026E-1,-1.6992484E-1,1.2690817E0,-3.3087232E0,-1.361084E0,1.9869044E-1,-1.1155834E0,2.0295482E0,-8.7164223E-1,5.2736893E0,1.1911154E0,4.1991647E-2,-1.7848895E-1,-5.236404E-2,-9.9273115E-2,-1.9303182E-2,3.9302655E-2,-3.577241E-2,-2.3154934E-1,-7.226067E-2,1.2339778E-1,3.0244306E-2,-7.996383E-2,-1.9706981E-2,3.1700173E-1,1.086353E-1,5.076754E-2],"categories":[],"categories_nodes":[],"categories_segments":[],"categories_sizes":[],"default_left":[0,0,0,0,0,0,0,0,0,0,0,0,0,0,0,0,0,0,0,0,0,0,0,0,0,0,0,0,0,0,0],"id":44,"left_children":[1,3,5,7,9,11,13,15,17,19,21,23,25,27,29,-1,-1,-1,-1,-1,-1,-1,-1,-1,-1,-1,-1,-1,-1,-1,-1],"loss_changes":[1.4947596E3,3.7710553E2,2.683883E2,1.259035E2,1.5515002E2,2.487144E2,2.1102673E2,4.3069183E1,7.472595E1,1.0196843E2,1.781429E2,6.29778E1,1.3204086E2,8.106909E1,1.1580365E2,0E0,0E0,0E0,0E0,0E0,0E0,0E0,0E0,0E0,0E0,0E0,0E0,0E0,0E0,0E0,0E0],"parents":[2147483647,0,0,1,1,2,2,3,3,4,4,5,5,6,6,7,7,8,8,9,9,10,10,11,11,12,12,13,13,14,14],"right_children":[2,4,6,8,10,12,14,16,18,20,22,24,26,28,30,-1,-1,-1,-1,-1,-1,-1,-1,-1,-1,-1,-1,-1,-1,-1,-1],"split_conditions":[2E0,9.66E1,7.67E1,3.76E1,5E1,2.1E1,5.12E1,7.23E1,4.31E1,4.21E1,4.45E1,6.6E1,3.59E1,7.82E1,1.54E2,4.1991647E-2,-1.7848895E-1,-5.236404E-2,-9.9273115E-2,-1.9303182E-2,3.9302655E-2,-3.577241E-2,-2.3154934E-1,-7.226067E-2,1.2339778E-1,3.0244306E-2,-7.996383E-2,-1.9706981E-2,3.1700173E-1,1.086353E-1,5.076754E-2],"split_indices":[0,4,4,7,1,1,2,4,7,7,7,4,7,4,3,0,0,0,0,0,0,0,0,0,0,0,0,0,0,0,0],"split_type":[0,0,0,0,0,0,0,0,0,0,0,0,0,0,0,0,0,0,0,0,0,0,0,0,0,0,0,0,0,0,0],"sum_hessian":[1.704E3,8.5E2,8.54E2,4.27E2,4.23E2,1.59E2,6.95E2,3.6E1,3.91E2,2.95E2,1.28E2,3.8E1,1.21E2,1.2E1,6.83E2,2E0,3.4E1,2.62E2,1.29E2,1.48E2,1.47E2,1.16E2,1.2E1,4E0,3.4E1,4E1,8.1E1,2E0,1E1,1.02E2,5.81E2],"tree_param":{"num_deleted":"0","num_feature":"8","num_nodes":"31","size_leaf_vector":"1"}},{"base_weights":[4.0908877E-2,-3.7104928E-1,8.2920635E-1,-8.6773634E-2,-1.5544859E0,3.775472E0,6.649221E-1,-1.1476051E0,1.8621433E-1,-2.1626389E-1,-1.899335E0,5.0646195E0,2.8132095E0,8.850537E-1,-8.917873E-1,3.1847663E-2,-8.1876606E-2,5.2588332E-2,-1.8875195E-2,-1.3890891E-1,5.564953E-2,-1.1142752E-1,-4.0579874E-2,1.2523627E-1,2.8198075E-1,5.4666556E-2,2.0604944E-1,8.608466E-2,2.7702129E-2,7.798725E-3,-1.2345003E-1],"categories":[],"categories_nodes":[],"categories_segments":[],"categories_sizes":[],"default_left":[0,0,0,0,0,0,0,0,0,0,0,0,0,0,0,0,0,0,0,0,0,0,0,0,0,0,0,0,0,0,0],"id":45,"left_children":[1,3,5,7,9,11,13,15,17,19,21,23,25,27,29,-1,-1,-1,-1,-1,-1,-1,-1,-1,-1,-1,-1,-1,-1,-1,-1],"loss_changes":[5.591948E2,3.803586E2,2.8354828E2,2.646132E2,1.0065442E2,2.4207611E1,1.9303328E2,1.645378E2,3.5512042E2,1.5974214E2,6.050067E1,3.537445E0,4.0478836E1,1.3529904E2,1.1606317E2,0E0,0E0,0E0,0E0,0E0,0E0,0E0,0E0,0E0,0E0,0E0,0E0,0E0,0E0,0E0,0E0],"parents":[2147483647,0,0,1,1,2,2,3,3,4,4,5,5,6,6,7,7,8,8,9,9,10,10,11,11,12,12,13,13,14,14],"right_children":[2,4,6,8,10,12,14,16,18,20,22,24,26,28,30,-1,-1,-1,-1,-1,-1,-1,-1,-1,-1,-1,-1,-1,-1,-1,-1],"split_conditions":[1.062E2,4.26E1,3.1E1,9.09E1,1.728E2,3.86E1,1.791E2,1.557E2,3.02E1,8.35E1,9.68E1,3.4E1,2.97E1,1.026E2,4.1E1,3.1847663E-2,-8.1876606E-2,5.2588332E-2,-1.8875195E-2,-1.3890891E-1,5.564953E-2,-1.1142752E-1,-4.0579874E-2,1.2523627E-1,2.8198075E-1,5.4666556E-2,2.0604944E-1,8.608466E-2,2.7702129E-2,7.798725E-3,-1.2345003E-1],"split_indices":[5,7,6,5,3,7,3,3,6,4,4,1,6,4,1,0,0,0,0,0,0,0,0,0,0,0,0,0,0,0,0],"split_type":[0,0,0,0,0,0,0,0,0,0,0,0,0,0,0,0,0,0,0,0,0,0,0,0,0,0,0,0,0,0,0],"sum_hessian":[1.72E3,1.13E3,5.9E2,9.12E2,2.18E2,3E1,5.6E2,1.86E2,7.26E2,4.5E1,1.73E2,1.1E1,1.9E1,4.91E2,6.9E1,4E1,1.46E2,2.86E2,4.4E2,1.5E1,3E1,1.32E2,4.1E1,3E0,8E0,9E0,1E1,1.38E2,3.53E2,4.2E1,2.7E1],"tree_param":{"num_deleted":"0","num_feature":"8","num_nodes":"31","size_leaf_vector":"1"}},{"base_weights":[-4.0768523E-2,-9.074945E-1,8.586351E-1,-1.2487816E0,5.9720557E-2,4.4846588E-1,1.674506E0,-1.0527698E0,-3.0970755E0,2.0937564E0,-2.0846817E-1,-1.1365973E0,6.175302E-1,2.572944E0,1.3629471E0,-1.0444472E-1,-3.525119E-2,-1.2567338E-1,-2.940245E-1,6.325736E-2,1.5120445E-1,-1.9580431E-2,9.1994286E-2,1.6677925E-1,-9.29141E-2,5.54061E-2,4.2357193E-3,7.4311055E-2,1.6568941E-1,3.8962286E-2,1.2721168E-1],"categories":[],"categories_nodes":[],"categories_segments":[],"categories_sizes":[],"default_left":[0,0,0,0,0,0,0,0,0,0,0,0,0,0,0,0,0,0,0,0,0,0,0,0,0,0,0,0,0,0,0],"id":46,"left_children":[1,3,5,7,9,11,13,15,17,19,21,23,25,27,29,-1,-1,-1,-1,-1,-1,-1,-1,-1,-1,-1,-1,-1,-1,-1,-1],"loss_changes":[1.3501569E3,2.9122095E2,2.836974E2,2.3295111E2,1.2644824E2,1.5264523E2,7.59895E1,2.1146948E2,8.5933716E1,1.6987907E1,7.76235E1,1.8371124E2,1.3400179E2,5.3041595E1,1.4488489E2,0E0,0E0,0E0,0E0,0E0,0E0,0E0,0E0,0E0,0E0,0E0,0E0,0E0,0E0,0E0,0E0],"parents":[2147483647,0,0,1,1,2,2,3,3,4,4,5,5,6,6,7,7,8,8,9,9,10,10,11,11,12,12,13,13,14,14],"right_children":[2,4,6,8,10,12,14,16,18,20,22,24,26,28,30,-1,-1,-1,-1,-1,-1,-1,-1,-1,-1,-1,-1,-1,-1,-1,-1],"split_conditions":[2E0,1.06E2,1.081E2,3.7E1,2.4E1,8.8E1,9.99E1,8.21E1,3.99E1,1.139E2,1.275E2,4.23E1,6.34E1,1.116E2,3.98E1,-1.0444472E-1,-3.525119E-2,-1.2567338E-1,-2.940245E-1,6.325736E-2,1.5120445E-1,-1.9580431E-2,9.1994286E-2,1.6677925E-1,-9.29141E-2,5.54061E-2,4.2357193E-3,7.4311055E-2,1.6568941E-1,3.8962286E-2,1.2721168E-1],"split_indices":[0,4,5,6,1,5,4,4,6,4,5,2,2,5,6,0,0,0,0,0,0,0,0,0,0,0,0,0,0,0,0],"split_type":[0,0,0,0,0,0,0,0,0,0,0,0,0,0,0,0,0,0,0,0,0,0,0,0,0,0,0,0,0,0,0],"sum_hessian":[1.73E3,8.81E2,8.49E2,6.51E2,2.3E2,5.66E2,2.83E2,5.9E2,6.1E1,2.6E1,2.04E2,5.4E1,5.12E2,7.1E1,2.12E2,1.47E2,4.43E2,5.2E1,9E0,1.5E1,1.1E1,1.88E2,1.6E1,7E0,4.7E1,2.66E2,2.46E2,3E1,4.1E1,1.43E2,6.9E1],"tree_param":{"num_deleted":"0","num_feature":"8","num_nodes":"31","size_leaf_vector":"1"}},{"base_weights":[7.952553E-2,-6.7857426E-1,8.6885786E-1,-1.4944708E0,-4.568949E-1,7.386373E-1,2.3738337E0,-5.3582543E-1,-1.8570719E0,-1.2707849E-1,-1.2556269E0,5.921165E-1,1.963691E0,1.7439274E0,4.8562183E0,-4.769219E-2,9.6737914E-2,-1.7479031E-1,-7.887351E-2,-5.7093985E-2,3.0305805E-3,-2.3492053E-1,-5.8140755E-2,3.0936822E-1,2.7955458E-2,1.0876026E-1,-2.2008775E-1,2.2995673E-1,4.6279993E-2,2.5987476E-1,1.902256E-2],"categories":[],"categories_nodes":[],"categories_segments":[],"categories_sizes":[],"default_left":[0,0,0,0,0,0,0,0,0,0,0,0,0,0,0,0,0,0,0,0,0,0,0,0,0,0,0,0,0,0,0],"id":47,"left_children":[1,3,5,7,9,11,13,15,17,19,21,23,25,27,29,-1,-1,-1,-1,-1,-1,-1,-1,-1,-1,-1,-1,-1,-1,-1,-1],"loss_changes":[1.034612E3,1.5884229E2,1.642406E2,6.435483E1,1.829277E2,1.3902356E2,9.629697E1,5.658117E1,5.6799683E1,9.397E1,5.9401398E1,1.256349E2,1.2132443E2,1.2425023E2,1.787976E1,0E0,0E0,0E0,0E0,0E0,0E0,0E0,0E0,0E0,0E0,0E0,0E0,0E0,0E0,0E0,0E0],"parents":[2147483647,0,0,1,1,2,2,3,3,4,4,5,5,6,6,7,7,8,8,9,9,10,10,11,11,12,12,13,13,14,14],"right_children":[2,4,6,8,10,12,14,16,18,20,22,24,26,28,30,-1,-1,-1,-1,-1,-1,-1,-1,-1,-1,-1,-1,-1,-1,-1,-1],"split_conditions":[2E0,1.68E2,3.97E1,3E1,1.784E2,5.6E1,1.653E2,4.26E1,3.6E1,6.69E1,1.785E2,4.23E1,1.07E2,1.552E2,4.56E1,-4.769219E-2,9.6737914E-2,-1.7479031E-1,-7.887351E-2,-5.7093985E-2,3.0305805E-3,-2.3492053E-1,-5.8140755E-2,3.0936822E-1,2.7955458E-2,1.0876026E-1,-2.2008775E-1,2.2995673E-1,4.6279993E-2,2.5987476E-1,1.902256E-2],"split_indices":[0,3,6,1,3,1,3,7,1,2,3,2,2,3,7,0,0,0,0,0,0,0,0,0,0,0,0,0,0,0,0],"split_type":[0,0,0,0,0,0,0,0,0,0,0,0,0,0,0,0,0,0,0,0,0,0,0,0,0,0,0,0,0,0,0],"sum_hessian":[1.727E3,8.81E2,8.46E2,1.87E2,6.94E2,7.8E2,6.6E1,5.2E1,1.35E2,4.92E2,2.02E2,6.98E2,8.2E1,5.4E1,1.2E1,4.5E1,7E0,1.8E1,1.17E2,7.6E1,4.16E2,4E0,1.98E2,3E0,6.95E2,8E1,2E0,1.1E1,4.3E1,1.1E1,1E0],"tree_param":{"num_deleted":"0","num_feature":"8","num_nodes":"31","size_leaf_vector":"1"}},{"base_weights":[-5.236106E-2,-8.7231606E-1,7.676538E-1,-1.8247919E0,-5.8697486E-1,-2.9078314E-1,1.0924227E0,-1.0986053E0,-2.6905274E0,-1.3566539E0,-3.6215994E-1,-1.3830666E-1,-4.605713E0,7.6843386E0,1.0412166E0,-8.199017E-2,3.229278E-2,-1.4572254E-1,2.064502E-2,2.4992557E-1,-7.15922E-2,-3.3512046E-3,-6.658441E-2,1.1945838E-1,-1.9307746E-2,-3.2788548E-1,9.142621E-3,4.6548158E-1,1.7487997E-1,4.4738654E-2,1.16746284E-1],"categories":[],"categories_nodes":[],"categories_segments":[],"categories_sizes":[],"default_left":[0,0,0,0,0,0,0,0,0,0,0,0,0,0,0,0,0,0,0,0,0,0,0,0,0,0,0,0,0,0,0],"id":48,"left_children":[1,3,5,7,9,11,13,15,17,19,21,23,25,27,29,-1,-1,-1,-1,-1,-1,-1,-1,-1,-1,-1,-1,-1,-1,-1,-1],"loss_changes":[1.1753093E3,2.3646521E2,3.007528E2,1.2340991E2,1.1613449E2,1.348956E2,2.1781708E2,1.0585405E2,6.4441956E1,7.978943E1,1.4956332E2,1.262086E2,6.6629944E1,1.4620361E0,1.2389862E2,0E0,0E0,0E0,0E0,0E0,0E0,0E0,0E0,0E0,0E0,0E0,0E0,0E0,0E0,0E0,0E0],"parents":[2147483647,0,0,1,1,2,2,3,3,4,4,5,5,6,6,7,7,8,8,9,9,10,10,11,11,12,12,13,13,14,14],"right_children":[2,4,6,8,10,12,14,16,18,20,22,24,26,28,30,-1,-1,-1,-1,-1,-1,-1,-1,-1,-1,-1,-1,-1,-1,-1,-1],"split_conditions":[2E0,8.56E1,9.42E1,2.99E1,1.678E2,9.01E1,5.22E1,9.3E1,9.93E1,2.76E1,1.793E2,1.503E2,6.01E1,2.45E1,1.27E2,-8.199017E-2,3.229278E-2,-1.4572254E-1,2.064502E-2,2.4992557E-1,-7.15922E-2,-3.3512046E-3,-6.658441E-2,1.1945838E-1,-1.9307746E-2,-3.2788548E-1,9.142621E-3,4.6548158E-1,1.7487997E-1,4.4738654E-2,1.16746284E-1],"split_indices":[0,4,5,6,3,4,2,5,5,6,3,3,2,6,5,0,0,0,0,0,0,0,0,0,0,0,0,0,0,0,0],"split_type":[0,0,0,0,0,0,0,0,0,0,0,0,0,0,0,0,0,0,0,0,0,0,0,0,0,0,0,0,0,0,0],"sum_hessian":[1.746E3,8.73E2,8.73E2,2E2,6.73E2,2.05E2,6.68E2,1.1E2,9E1,1.51E2,5.22E2,1.99E2,6E0,4E0,6.64E2,8.4E1,2.6E1,8.4E1,6E0,1E0,1.5E2,4.01E2,1.21E2,1.7E1,1.82E2,4E0,2E0,2E0,2E0,5.98E2,6.6E1],"tree_param":{"num_deleted":"0","num_feature":"8","num_nodes":"31","size_leaf_vector":"1"}},{"base_weights":[3.4426775E-2,-7.323751E-1,8.0913967E-1,-1.880312E0,-4.035609E-1,3.690344E-1,1.411773E0,-2.8713841E0,-1.3855473E0,5.62391E-1,-8.3360803E-1,-2.3096309E0,4.6178243E-1,6.034619E-1,1.8651644E0,-1.4863817E-1,8.788748E-2,-2.8393049E-2,-1.0508358E-1,3.940521E-2,-1.0298773E-1,-9.453783E-2,-2.4043163E-2,-2.0705748E-1,-1.107432E-2,2.7705187E-2,-1.2401012E-1,-2.211372E-1,3.767362E-2,1.2317351E-1,3.3004496E-2],"categories":[],"categories_nodes":[],"categories_segments":[],"categories_sizes":[],"default_left":[0,0,0,0,0,0,0,0,0,0,0,0,0,0,0,0,0,0,0,0,0,0,0,0,0,0,0,0,0,0,0],"id":49,"left_children":[1,3,5,7,9,11,13,15,17,19,21,23,25,27,29,-1,-1,-1,-1,-1,-1,-1,-1,-1,-1,-1,-1,-1,-1,-1,-1],"loss_changes":[1.036618E3,3.3027173E2,2.2969171E2,9.163934E1,2.841903E2,1.26032295E2,1.3300665E2,3.5260376E1,7.610112E1,1.2650428E2,1.7547421E2,6.40989E1,1.3364737E2,1.0361222E2,1.6708862E2,0E0,0E0,0E0,0E0,0E0,0E0,0E0,0E0,0E0,0E0,0E0,0E0,0E0,0E0,0E0,0E0],"parents":[2147483647,0,0,1,1,2,2,3,3,4,4,5,5,6,6,7,7,8,8,9,9,10,10,11,11,12,12,13,13,14,14],"right_children":[2,4,6,8,10,12,14,16,18,20,22,24,26,28,30,-1,-1,-1,-1,-1,-1,-1,-1,-1,-1,-1,-1,-1,-1,-1,-1],"split_conditions":[2E0,8.56E1,1.047E2,7.58E1,3.3E1,8.42E1,3.5E1,9.6E1,4.15E1,1.821E2,1.679E2,6.77E1,9.89E1,3.35E1,1.101E2,-1.4863817E-1,8.788748E-2,-2.8393049E-2,-1.0508358E-1,3.940521E-2,-1.0298773E-1,-9.453783E-2,-2.4043163E-2,-2.0705748E-1,-1.107432E-2,2.7705187E-2,-1.2401012E-1,-2.211372E-1,3.767362E-2,1.2317351E-1,3.3004496E-2],"split_indices":[0,4,5,4,1,5,1,5,7,3,3,4,4,7,4,0,0,0,0,0,0,0,0,0,0,0,0,0,0,0,0],"split_type":[0,0,0,0,0,0,0,0,0,0,0,0,0,0,0,0,0,0,0,0,0,0,0,0,0,0,0,0,0,0,0],"sum_hessian":[1.743E3,8.76E2,8.67E2,1.94E2,6.82E2,5.02E2,3.65E2,6.3E1,1.31E2,2.1E2,4.72E2,1.6E1,4.86E2,1.32E2,2.33E2,6.2E1,1E0,6.2E1,6.9E1,1.94E2,1.6E1,1.17E2,3.55E2,8E0,8E0,4.72E2,1.4E1,3E0,1.29E2,1.55E2,7.8E1],"tree_param":{"num_deleted":"0","num_feature":"8","num_nodes":"31","size_leaf_vector":"1"}},{"base_weights":[9.397865E-2,-6.9921327E-1,8.9630574E-1,-1.0685724E0,3.1794608E-1,6.7799024E-2,1.2349434E0,-9.767641E-1,-3.7151043E0,1.139115E0,-2.2010702E-1,-2.545753E-2,3.8644753E0,5.9970746E0,1.1128142E0,-5.745774E-2,1.9338124E-2,4.680009E-2,-1.9972299E-1,2.046827E-1,4.426919E-2,-1.8621434E-1,-3.1946213E-3,1.9839937E-2,-4.348298E-2,2.6437315E-1,3.3949982E-2,4.4804668E-1,2.0523386E-1,-1.2200701E-2,6.4272486E-2],"categories":[],"categories_nodes":[],"categories_segments":[],"categories_sizes":[],"default_left":[0,0,0,0,0,0,0,0,0,0,0,0,0,0,0,0,0,0,0,0,0,0,0,0,0,0,0,0,0,0,0],"id":50,"left_children":[1,3,5,7,9,11,13,15,17,19,21,23,25,27,29,-1,-1,-1,-1,-1,-1,-1,-1,-1,-1,-1,-1,-1,-1,-1,-1],"loss_changes":[1.0984155E3,3.2644485E2,2.4063983E2,1.5114545E2,1.0275586E2,8.861462E1,3.47518E2,1.4547601E2,3.1024353E1,6.534414E1,7.6946014E1,8.768013E1,2.3607178E1,4.735022E1,1.3968445E2,0E0,0E0,0E0,0E0,0E0,0E0,0E0,0E0,0E0,0E0,0E0,0E0,0E0,0E0,0E0,0E0],"parents":[2147483647,0,0,1,1,2,2,3,3,4,4,5,5,6,6,7,7,8,8,9,9,10,10,11,11,12,12,13,13,14,14],"right_children":[2,4,6,8,10,12,14,