{"learner":{"attributes":{"scikit_learn":"{\"_estimator_type\": \"regressor\"}"},"feature_names":[],"feature_types":[],"gradient_booster":{"model":{"cats":{"enc":[],"feature_segments":[],"sorted_idx":[]},"gbtree_model_param":{"num_parallel_tree":"1","num_trees":"300"},"iteration_indptr":[0,1,2,3,4,5,6,7,8,9,10,11,12,13,14,15,16,17,18,19,20,21,22,23,24,25,26,27,28,29,30,31,32,33,34,35,36,37,38,39,40,41,42,43,44,45,46,47,48,49,50,51,52,53,54,55,56,57,58,59,60,61,62,63,64,65,66,67,68,69,70,71,72,73,74,75,76,77,78,79,80,81,82,83,84,85,86,87,88,89,90,91,92,93,94,95,96,97,98,99,100,101,102,103,104,105,106,107,108,109,110,111,112,113,114,115,116,117,118,119,120,121,122,123,124,125,126,127,128,129,130,131,132,133,134,135,136,137,138,139,140,141,142,143,144,145,146,147,148,149,150,151,152,153,154,155,156,157,158,159,160,161,162,163,164,165,166,167,168,169,170,171,172,173,174,175,176,177,178,179,180,181,182,183,184,185,186,187,188,189,190,191,192,193,194,195,196,197,198,199,200,201,202,203,204,205,206,207,208,209,210,211,212,213,214,215,216,217,218,219,220,221,222,223,224,225,226,227,228,229,230,231,232,233,234,235,236,237,238,239,240,241,242,243,244,245,246,247,248,249,250,251,252,253,254,255,256,257,258,259,260,261,262,263,264,265,266,267,268,269,270,271,272,273,274,275,276,277,278,279,280,281,282,283,284,285,286,287,288,289,290,291,292,293,294,295,296,297,298,299,300],"tree_info":[0,0,0,0,0,0,0,0,0,0,0,0,0,0,0,0,0,0,0,0,0,0,0,0,0,0,0,0,0,0,0,0,0,0,0,0,0,0,0,0,0,0,0,0,0,0,0,0,0,0,0,0,0,0,0,0,0,0,0,0,0,0,0,0,0,0,0,0,0,0,0,0,0,0,0,0,0,0,0,0,0,0,0,0,0,0,0,0,0,0,0,0,0,0,0,0,0,0,0,0,0,0,0,0,0,0,0,0,0,0,0,0,0,0,0,0,0,0,0,0,0,0,0,0,0,0,0,0,0,0,0,0,0,0,0,0,0,0,0,0,0,0,0,0,0,0,0,0,0,0,0,0,0,0,0,0,0,0,0,0,0,0,0,0,0,0,0,0,0,0,0,0,0,0,0,0,0,0,0,0,0,0,0,0,0,0,0,0,0,0,0,0,0,0,0,0,0,0,0,0,0,0,0,0,0,0,0,0,0,0,0,0,0,0,0,0,0,0,0,0,0,0,0,0,0,0,0,0,0,0,0,0,0,0,0,0,0,0,0,0,0,0,0,0,0,0,0,0,0,0,0,0,0,0,0,0,0,0,0,0,0,0,0,0,0,0,0,0,0,0,0,0,0,0,0,0,0,0,0,0,0,0,0,0,0,0,0,0,0,0,0,0,0,0,0,0,0,0,0,0],"trees":[{"base_weights":[-1.4459859E-1,-8.354756E0,8.324997E0,-1.2454304E1,-5.2122784E0,1.7326264E0,1.1996277E1,-1.4466238E1,-1.0701694E1,-7.217212E0,-7.7333283E-1,-1.5234387E0,4.230213E0,1.0041346E1,1.6945345E1,-8.0883217E-1,-5.834767E-1,-4.6320978E-1,-7.36545E-1,-3.310566E-1,-4.6374097E-1,-1.3331993E-1,9.046941E-2,7.845496E-2,-1.7518477E-1,2.5715405E-1,-4.6516445E-2,3.8483214E-1,5.660931E-1,7.920755E-1,1.0407032E0],"categories":[],"categories_nodes":[],"categories_segments":[],"categories_sizes":[],"default_left":[0,0,0,0,0,0,0,0,0,0,0,0,0,0,0,0,0,0,0,0,0,0,0,0,0,0,0,0,0,0,0],"id":0,"left_children":[1,3,5,7,9,11,13,15,17,19,21,23,25,27,29,-1,-1,-1,-1,-1,-1,-1,-1,-1,-1,-1,-1,-1,-1,-1,-1],"loss_changes":[1.207853E5,1.1297656E4,2.06723E4,1.1921758E3,4.453214E3,2.503062E3,5.1414688E3,6.4833984E2,1.0682598E3,3.6173242E2,7.724384E2,8.261161E2,8.244802E2,1.1018242E3,3.2791797E2,0E0,0E0,0E0,0E0,0E0,0E0,0E0,0E0,0E0,0E0,0E0,0E0,0E0,0E0,0E0,0E0],"parents":[2147483647,0,0,1,1,2,2,3,3,4,4,5,5,6,6,7,7,8,8,9,9,10,10,11,11,12,12,13,13,14,14],"right_children":[2,4,6,8,10,12,14,16,18,20,22,24,26,28,30,-1,-1,-1,-1,-1,-1,-1,-1,-1,-1,-1,-1,-1,-1,-1,-1],"split_conditions":[2E0,9.91E1,2.9E1,9.37E1,1.104E2,2.62E1,3.58E1,3.8E1,1.77E2,1.785E2,1.184E2,1.575E2,1.683E2,1.022E2,1.134E2,-8.0883217E-1,-5.834767E-1,-4.6320978E-1,-7.36545E-1,-3.310566E-1,-4.6374097E-1,-1.3331993E-1,9.046941E-2,7.845496E-2,-1.7518477E-1,2.5715405E-1,-4.6516445E-2,3.8483214E-1,5.660931E-1,7.920755E-1,1.0407032E0],"split_indices":[0,5,6,5,5,6,6,1,3,3,5,3,3,5,2,0,0,0,0,0,0,0,0,0,0,0,0,0,0,0,0],"split_type":[0,0,0,0,0,0,0,0,0,0,0,0,0,0,0,0,0,0,0,0,0,0,0,0,0,0,0,0,0,0,0],"sum_hessian":[1.735E3,8.81E2,8.54E2,3.81E2,5E2,3.06E2,5.48E2,1.74E2,2.07E2,3.44E2,1.56E2,1.33E2,1.73E2,3.95E2,1.53E2,1.05E2,6.9E1,1.55E2,5.2E1,2.7E2,7.4E1,9E1,6.6E1,5.2E1,8.1E1,1.47E2,2.6E1,1.42E2,2.53E2,1.23E2,3E1],"tree_param":{"num_deleted":"0","num_feature":"8","num_nodes":"31","size_leaf_vector":"1"}},{"base_weights":[-4.0425356E-2,5.6082325E0,-5.643325E0,1.1045604E0,1.1351367E1,-9.351843E0,-2.6567543E-2,5.4925747E0,-1.3477976E0,8.275142E0,1.5088525E1,-1.2231539E1,-6.346117E0,-2.1457028E0,5.4922905E0,3.0773978E-3,4.2249975E-1,-1.9871946E-1,8.538392E-2,4.872408E-1,2.1201367E-2,6.556188E-1,9.1437435E-1,-7.055166E-1,-4.848311E-1,1.4233547E-1,-3.5669473E-1,3.4310445E-1,-1.633552E-1,4.1570416E-1,-1.013443E-1],"categories":[],"categories_nodes":[],"categories_segments":[],"categories_sizes":[],"default_left":[0,0,0,0,0,0,0,0,0,0,0,0,0,0,0,0,0,0,0,0,0,0,0,0,0,0,0,0,0,0,0],"id":1,"left_children":[1,3,5,7,9,11,13,15,17,19,21,23,25,27,29,-1,-1,-1,-1,-1,-1,-1,-1,-1,-1,-1,-1,-1,-1,-1,-1],"loss_changes":[5.4530984E4,2.2179797E4,1.8017564E4,5.1941963E3,4.2092617E3,4.4319336E3,4.0466309E3,2.7781763E3,2.494688E3,2.4074316E3,8.285664E2,1.1252656E3,1.8814766E3,2.547756E3,2.0537373E3,0E0,0E0,0E0,0E0,0E0,0E0,0E0,0E0,0E0,0E0,0E0,0E0,0E0,0E0,0E0,0E0],"parents":[2147483647,0,0,1,1,2,2,3,3,4,4,5,5,6,6,7,7,8,8,9,9,10,10,11,11,12,12,13,13,14,14],"right_children":[2,4,6,8,10,12,14,16,18,20,22,24,26,28,30,-1,-1,-1,-1,-1,-1,-1,-1,-1,-1,-1,-1,-1,-1,-1,-1],"split_conditions":[1.671E2,1.025E2,1.056E2,1.575E2,1.122E2,9.76E1,1.174E2,7.89E1,9.56E1,8.53E1,1.252E2,8.31E1,6.96E1,8.43E1,1.783E2,3.0773978E-3,4.2249975E-1,-1.9871946E-1,8.538392E-2,4.872408E-1,2.1201367E-2,6.556188E-1,9.1437435E-1,-7.055166E-1,-4.848311E-1,1.4233547E-1,-3.5669473E-1,3.4310445E-1,-1.633552E-1,4.1570416E-1,-1.013443E-1],"split_indices":[3,5,5,3,5,5,5,4,5,2,5,4,2,2,3,0,0,0,0,0,0,0,0,0,0,0,0,0,0,0,0],"split_type":[0,0,0,0,0,0,0,0,0,0,0,0,0,0,0,0,0,0,0,0,0,0,0,0,0,0,0,0,0,0,0],"sum_hessian":[1.721E3,8.57E2,8.64E2,4.81E2,3.76E2,5.2E2,3.44E2,1.72E2,3.09E2,2.08E2,1.68E2,2.64E2,2.56E2,2.49E2,9.5E1,6.1E1,1.11E2,1.66E2,1.43E2,1.75E2,3.3E1,1.07E2,6.1E1,1.49E2,1.15E2,2E1,2.36E2,2.7E1,2.22E2,6.9E1,2.6E1],"tree_param":{"num_deleted":"0","num_feature":"8","num_nodes":"31","size_leaf_vector":"1"}},{"base_weights":[-6.0986526E-2,5.2332406E0,-5.424061E0,2.6254308E0,1.0504087E1,-7.8158827E0,8.5465425E-1,-3.733563E0,4.1750865E0,8.44776E0,1.5194736E1,-1.283283E1,-6.1879926E0,-1.4428933E0,4.2315173E0,3.9031625E-2,-2.6873025E-1,3.3478335E-1,2.1627264E-2,5.338194E-1,2.1842122E-1,8.071273E-1,4.6174717E-1,-5.2016497E-1,-7.399129E-1,-1.4153937E-1,-4.0330917E-1,2.978281E-1,-9.983613E-2,4.464233E-1,8.52022E-2],"categories":[],"categories_nodes":[],"categories_segments":[],"categories_sizes":[],"default_left":[0,0,0,0,0,0,0,0,0,0,0,0,0,0,0,0,0,0,0,0,0,0,0,0,0,0,0,0,0,0,0],"id":2,"left_children":[1,3,5,7,9,11,13,15,17,19,21,23,25,27,29,-1,-1,-1,-1,-1,-1,-1,-1,-1,-1,-1,-1,-1,-1,-1,-1],"loss_changes":[4.829705E4,1.1738455E4,1.2696527E4,5.6719277E3,2.6013164E3,4.9188164E3,1.8215956E3,8.41298E2,4.355324E3,1.7625332E3,3.3106836E2,5.5753516E2,2.9029043E3,5.856187E2,1.1125697E3,0E0,0E0,0E0,0E0,0E0,0E0,0E0,0E0,0E0,0E0,0E0,0E0,0E0,0E0,0E0,0E0],"parents":[2147483647,0,0,1,1,2,2,3,3,4,4,5,5,6,6,7,7,8,8,9,9,10,10,11,11,12,12,13,13,14,14],"right_children":[2,4,6,8,10,12,14,16,18,20,22,24,26,28,30,-1,-1,-1,-1,-1,-1,-1,-1,-1,-1,-1,-1,-1,-1,-1,-1],"split_conditions":[1.671E2,9.75E1,1.057E2,7.53E1,3.79E1,8.16E1,1.177E2,3.57E1,1.611E2,1.625E2,1.649E2,2.83E1,1.72E2,3.84E1,1.715E2,3.9031625E-2,-2.6873025E-1,3.3478335E-1,2.1627264E-2,5.338194E-1,2.1842122E-1,8.071273E-1,4.6174717E-1,-5.2016497E-1,-7.399129E-1,-1.4153937E-1,-4.0330917E-1,2.978281E-1,-9.983613E-2,4.464233E-1,8.52022E-2],"split_indices":[3,4,4,4,6,4,4,7,3,3,3,6,3,7,3,0,0,0,0,0,0,0,0,0,0,0,0,0,0,0,0],"split_type":[0,0,0,0,0,0,0,0,0,0,0,0,0,0,0,0,0,0,0,0,0,0,0,0,0,0,0,0,0,0,0],"sum_hessian":[1.699E3,8.55E2,8.44E2,5.73E2,2.82E2,6.11E2,2.33E2,1.12E2,4.61E2,1.98E2,8.4E1,1.48E2,4.63E2,1.39E2,9.4E1,3E1,8.2E1,2.75E2,1.86E2,1.27E2,7.1E1,7.1E1,1.3E1,6.9E1,7.9E1,1.67E2,2.96E2,9E0,1.3E2,3.2E1,6.2E1],"tree_param":{"num_deleted":"0","num_feature":"8","num_nodes":"31","size_leaf_vector":"1"}},{"base_weights":[-1.9589724E-2,-7.321417E0,7.5893464E0,-1.0910998E1,-3.6749222E0,1.5262231E0,1.0908695E1,-1.37032385E1,-8.592678E0,-5.424089E0,2.4297012E-1,-2.2856817E0,3.7934008E0,8.520982E0,1.3726874E1,-7.9194826E-1,-6.33347E-1,-3.988354E-1,-4.7051057E-1,-3.0381456E-1,-2.0650212E-1,-4.7859028E-2,2.0453183E-1,-1.8420856E-1,3.0412415E-2,2.5290892E-1,5.0752617E-2,3.546283E-1,4.601728E-1,6.2830156E-1,8.655612E-1],"categories":[],"categories_nodes":[],"categories_segments":[],"categories_sizes":[],"default_left":[0,0,0,0,0,0,0,0,0,0,0,0,0,0,0,0,0,0,0,0,0,0,0,0,0,0,0,0,0,0,0],"id":3,"left_children":[1,3,5,7,9,11,13,15,17,19,21,23,25,27,29,-1,-1,-1,-1,-1,-1,-1,-1,-1,-1,-1,-1,-1,-1,-1,-1],"loss_changes":[9.7117375E4,1.1635637E4,1.7210879E4,2.7887695E3,3.0440708E3,2.6359194E3,3.6041797E3,2.4644531E2,4.982422E1,2.3400586E2,6.4116907E2,4.636137E2,6.6603784E2,2.2913086E2,8.310039E2,0E0,0E0,0E0,0E0,0E0,0E0,0E0,0E0,0E0,0E0,0E0,0E0,0E0,0E0,0E0,0E0],"parents":[2147483647,0,0,1,1,2,2,3,3,4,4,5,5,6,6,7,7,8,8,9,9,10,10,11,11,12,12,13,13,14,14],"right_children":[2,4,6,8,10,12,14,16,18,20,22,24,26,28,30,-1,-1,-1,-1,-1,-1,-1,-1,-1,-1,-1,-1,-1,-1,-1,-1],"split_conditions":[2E0,9.66E1,8.46E1,8.56E1,1.111E2,7.5E1,9.92E1,7.58E1,4.22E1,1.052E2,1.253E2,9.13E1,1.627E2,1.006E2,1.282E2,-7.9194826E-1,-6.33347E-1,-3.988354E-1,-4.7051057E-1,-3.0381456E-1,-2.0650212E-1,-4.7859028E-2,2.0453183E-1,-1.8420856E-1,3.0412415E-2,2.5290892E-1,5.0752617E-2,3.546283E-1,4.601728E-1,6.2830156E-1,8.655612E-1],"split_indices":[0,4,4,4,4,4,4,4,7,4,4,5,3,5,5,0,0,0,0,0,0,0,0,0,0,0,0,0,0,0,0],"split_type":[0,0,0,0,0,0,0,0,0,0,0,0,0,0,0,0,0,0,0,0,0,0,0,0,0,0,0,0,0,0,0],"sum_hessian":[1.746E3,8.91E2,8.55E2,4.48E2,4.43E2,3.03E2,5.52E2,2.01E2,2.47E2,3.06E2,1.37E2,1.13E2,1.9E2,3.01E2,2.51E2,6.1E1,1.4E2,1.47E2,1E2,2.01E2,1.05E2,1.05E2,3.2E1,7.6E1,3.7E1,1.3E2,6E1,1.01E2,2E2,1.93E2,5.8E1],"tree_param":{"num_deleted":"0","num_feature":"8","num_nodes":"31","size_leaf_vector":"1"}},{"base_weights":[7.726886E-2,4.7564945E0,-4.874032E0,6.501635E-1,9.874842E0,-8.132538E0,3.970382E-1,2.7739174E0,-3.4024324E0,8.571778E0,1.4931082E1,-1.0308367E1,-5.201603E0,-1.6827806E0,4.9851823E0,2.568286E-1,2.606611E-2,-2.684313E-1,1.1558621E-2,5.310726E-1,3.1026673E-1,7.615767E-1,1.07114635E-1,-5.884077E-1,-3.736075E-1,-7.419849E-2,-3.56942E-1,3.1351185E-1,-1.4757447E-1,4.9030232E-1,9.6085414E-2],"categories":[],"categories_nodes":[],"categories_segments":[],"categories_sizes":[],"default_left":[0,0,0,0,0,0,0,0,0,0,0,0,0,0,0,0,0,0,0,0,0,0,0,0,0,0,0,0,0,0,0],"id":4,"left_children":[1,3,5,7,9,11,13,15,17,19,21,23,25,27,29,-1,-1,-1,-1,-1,-1,-1,-1,-1,-1,-1,-1,-1,-1,-1,-1],"loss_changes":[4.0196938E4,1.8741307E4,1.4482443E4,4.2783696E3,2.4876836E3,3.2689062E3,3.0906194E3,1.7323281E3,1.2229282E3,1.4765293E3,2.7476172E2,1.1458652E3,1.6026396E3,2.2685903E3,1.4727834E3,0E0,0E0,0E0,0E0,0E0,0E0,0E0,0E0,0E0,0E0,0E0,0E0,0E0,0E0,0E0,0E0],"parents":[2147483647,0,0,1,1,2,2,3,3,4,4,5,5,6,6,7,7,8,8,9,9,10,10,11,11,12,12,13,13,14,14],"right_children":[2,4,6,8,10,12,14,16,18,20,22,24,26,28,30,-1,-1,-1,-1,-1,-1,-1,-1,-1,-1,-1,-1,-1,-1,-1,-1],"split_conditions":[1.672E2,1.017E2,1.056E2,3.81E1,1.224E2,9.91E1,1.17E2,1.575E2,9.72E1,1.612E2,1.671E2,8.56E1,4.1E1,8.43E1,1.715E2,2.568286E-1,2.606611E-2,-2.684313E-1,1.1558621E-2,5.310726E-1,3.1026673E-1,7.615767E-1,1.07114635E-1,-5.884077E-1,-3.736075E-1,-7.419849E-2,-3.56942E-1,3.1351185E-1,-1.4757447E-1,4.9030232E-1,9.6085414E-2],"split_indices":[3,5,5,7,5,5,5,3,5,3,3,4,7,2,3,0,0,0,0,0,0,0,0,0,0,0,0,0,0,0,0],"split_type":[0,0,0,0,0,0,0,0,0,0,0,0,0,0,0,0,0,0,0,0,0,0,0,0,0,0,0,0,0,0,0],"sum_hessian":[1.733E3,8.91E2,8.42E2,4.95E2,3.96E2,5.2E2,3.22E2,3.25E2,1.7E2,3.17E2,7.9E1,2.97E2,2.23E2,2.22E2,1E2,1.58E2,1.67E2,1.1E2,6E1,1.68E2,1.49E2,7.7E1,2E0,1.94E2,1.03E2,7.7E1,1.46E2,3E1,1.92E2,3.8E1,6.2E1],"tree_param":{"num_deleted":"0","num_feature":"8","num_nodes":"31","size_leaf_vector":"1"}},{"base_weights":[-4.407687E-3,-6.7568026E0,6.825517E0,-9.414698E0,-2.4999332E0,1.2684168E0,1.0130992E1,-1.2570856E1,-7.4876437E0,-3.6222036E0,1.654428E0,-2.1987164E0,3.2987792E0,8.641274E0,1.3799893E1,-7.39567E-1,-5.7826704E-1,-2.4032827E-1,-3.9151207E-1,4.1038044E-2,-1.9822606E-1,4.0545216E-1,4.2349163E-2,-1.8307771E-1,1.2742529E-3,2.7723736E-1,1.1001803E-1,3.7138286E-1,4.836657E-1,6.1548215E-1,7.6837754E-1],"categories":[],"categories_nodes":[],"categories_segments":[],"categories_sizes":[],"default_left":[0,0,0,0,0,0,0,0,0,0,0,0,0,0,0,0,0,0,0,0,0,0,0,0,0,0,0,0,0,0,0],"id":5,"left_children":[1,3,5,7,9,11,13,15,17,19,21,23,25,27,29,-1,-1,-1,-1,-1,-1,-1,-1,-1,-1,-1,-1,-1,-1,-1,-1],"loss_changes":[8.079936E4,9.944371E3,1.5986418E4,3.2023672E3,1.5911802E3,2.302142E3,2.8649844E3,2.844082E2,2.737461E2,4.1085645E2,3.735892E2,3.9378442E2,4.960044E2,4.178789E2,1.7527734E2,0E0,0E0,0E0,0E0,0E0,0E0,0E0,0E0,0E0,0E0,0E0,0E0,0E0,0E0,0E0,0E0],"parents":[2147483647,0,0,1,1,2,2,3,3,4,4,5,5,6,6,7,7,8,8,9,9,10,10,11,11,12,12,13,13,14,14],"right_children":[2,4,6,8,10,12,14,16,18,20,22,24,26,28,30,-1,-1,-1,-1,-1,-1,-1,-1,-1,-1,-1,-1,-1,-1,-1,-1],"split_conditions":[2E0,1.006E2,8.52E1,8.56E1,1.2E2,7.5E1,3.58E1,7.58E1,2.3E1,2.2E1,2.1E1,7.2E1,3.63E1,9.33E1,3.91E1,-7.39567E-1,-5.7826704E-1,-2.4032827E-1,-3.9151207E-1,4.1038044E-2,-1.9822606E-1,4.0545216E-1,4.2349163E-2,-1.8307771E-1,1.2742529E-3,2.7723736E-1,1.1001803E-1,3.7138286E-1,4.836657E-1,6.1548215E-1,7.6837754E-1],"split_indices":[0,4,4,4,4,4,6,4,1,1,1,4,7,4,6,0,0,0,0,0,0,0,0,0,0,0,0,0,0,0,0],"split_type":[0,0,0,0,0,0,0,0,0,0,0,0,0,0,0,0,0,0,0,0,0,0,0,0,0,0,0,0,0,0,0],"sum_hessian":[1.75E3,8.8E2,8.7E2,5.41E2,3.39E2,3.25E2,5.45E2,2.03E2,3.38E2,2.67E2,7.2E1,1.2E2,2.05E2,3.9E2,1.55E2,5.9E1,1.44E2,4E1,2.98E2,1.9E1,2.48E2,7E0,6.5E1,7.2E1,4.8E1,6.6E1,1.39E2,1.83E2,2.07E2,8.4E1,7.1E1],"tree_param":{"num_deleted":"0","num_feature":"8","num_nodes":"31","size_leaf_vector":"1"}},{"base_weights":[-2.0613028E-1,3.884381E0,-4.3631463E0,1.9096351E0,8.28026E0,-6.463905E0,8.894071E-1,-2.7247913E0,3.1518557E0,5.9018826E0,1.1848239E1,-1.1402666E1,-5.0848627E0,8.953499E0,1.7534375E-2,1.0164985E-2,-2.1849291E-1,2.5769088E-1,1.4521442E-2,3.9865506E-1,1.4673261E-1,6.79569E-1,3.460566E-1,-4.337987E-1,-6.607052E-1,-1.1960124E-1,-3.4562626E-1,1.1456912E-1,5.523453E-1,-1.037244E-1,1.1321795E-1],"categories":[],"categories_nodes":[],"categories_segments":[],"categories_sizes":[],"default_left":[0,0,0,0,0,0,0,0,0,0,0,0,0,0,0,0,0,0,0,0,0,0,0,0,0,0,0,0,0,0,0],"id":6,"left_children":[1,3,5,7,9,11,13,15,17,19,21,23,25,27,29,-1,-1,-1,-1,-1,-1,-1,-1,-1,-1,-1,-1,-1,-1,-1,-1],"loss_changes":[2.9417418E4,7.553796E3,9.473219E3,3.4800464E3,2.221295E3,4.1170156E3,1.729435E3,6.174522E2,2.7252534E3,9.8450977E2,8.2491797E2,5.422715E2,2.350754E3,3.094037E2,1.0528882E3,0E0,0E0,0E0,0E0,0E0,0E0,0E0,0E0,0E0,0E0,0E0,0E0,0E0,0E0,0E0,0E0],"parents":[2147483647,0,0,1,1,2,2,3,3,4,4,5,5,6,6,7,7,8,8,9,9,10,10,11,11,12,12,13,13,14,14],"right_children":[2,4,6,8,10,12,14,16,18,20,22,24,26,28,30,-1,-1,-1,-1,-1,-1,-1,-1,-1,-1,-1,-1,-1,-1,-1,-1],"split_conditions":[1.671E2,9.85E1,1.057E2,7.53E1,3.68E1,8.09E1,3.81E1,1.579E2,1.611E2,1.619E2,1.642E2,2.73E1,1.726E2,1.679E2,1.139E2,1.0164985E-2,-2.1849291E-1,2.5769088E-1,1.4521442E-2,3.9865506E-1,1.4673261E-1,6.79569E-1,3.460566E-1,-4.337987E-1,-6.607052E-1,-1.1960124E-1,-3.4562626E-1,1.1456912E-1,5.523453E-1,-1.037244E-1,1.1321795E-1],"split_indices":[3,4,4,4,6,4,7,3,3,3,3,6,3,3,4,0,0,0,0,0,0,0,0,0,0,0,0,0,0,0,0],"split_type":[0,0,0,0,0,0,0,0,0,0,0,0,0,0,0,0,0,0,0,0,0,0,0,0,0,0,0,0,0,0,0],"sum_hessian":[1.728E3,8.71E2,8.57E2,6.02E2,2.69E2,6.12E2,2.45E2,1.27E2,4.75E2,1.63E2,1.06E2,1.32E2,4.8E2,2.3E1,2.22E2,4.6E1,8.1E1,2.79E2,1.96E2,9.5E1,6.8E1,7.7E1,2.9E1,5.5E1,7.7E1,1.95E2,2.85E2,6E0,1.7E1,1.15E2,1.07E2],"tree_param":{"num_deleted":"0","num_feature":"8","num_nodes":"31","size_leaf_vector":"1"}},{"base_weights":[1.4040576E-2,-6.341649E0,6.435538E0,-8.73912E0,-2.5945902E0,8.8823235E-1,9.541231E0,-1.14116125E1,-7.12234E0,-4.305304E0,-1.0111323E-1,-2.2017014E0,2.9271398E0,8.153475E0,1.2903954E1,-6.702227E-1,-5.291361E-1,-3.3213314E-1,-4.3654466E-1,-1.664641E-2,-2.264992E-1,-5.4362774E-2,1.2529533E-1,-2.0313595E-1,-5.8943527E-3,2.0699476E-1,4.4945672E-2,3.4382853E-1,4.747328E-1,5.837368E-1,7.5942487E-1],"categories":[],"categories_nodes":[],"categories_segments":[],"categories_sizes":[],"default_left":[0,0,0,0,0,0,0,0,0,0,0,0,0,0,0,0,0,0,0,0,0,0,0,0,0,0,0,0,0,0,0],"id":7,"left_children":[1,3,5,7,9,11,13,15,17,19,21,23,25,27,29,-1,-1,-1,-1,-1,-1,-1,-1,-1,-1,-1,-1,-1,-1,-1,-1],"loss_changes":[7.130038E4,7.8648086E3,1.4962859E4,2.2303633E3,1.46694E3,1.9783724E3,2.4941094E3,1.8851562E2,2.0125781E2,1.8056445E2,3.652204E2,4.84273E2,4.611698E2,6.145957E2,2.7479883E2,0E0,0E0,0E0,0E0,0E0,0E0,0E0,0E0,0E0,0E0,0E0,0E0,0E0,0E0,0E0,0E0],"parents":[2147483647,0,0,1,1,2,2,3,3,4,4,5,5,6,6,7,7,8,8,9,9,10,10,11,11,12,12,13,13,14,14],"right_children":[2,4,6,8,10,12,14,16,18,20,22,24,26,28,30,-1,-1,-1,-1,-1,-1,-1,-1,-1,-1,-1,-1,-1,-1,-1,-1],"split_conditions":[2E0,1.002E2,8.43E1,8.56E1,1.111E2,7.5E1,3.6E1,7.55E1,3.52E1,3.71E1,1.253E2,8.92E1,1.623E2,9.45E1,1.206E2,-6.702227E-1,-5.291361E-1,-3.3213314E-1,-4.3654466E-1,-1.664641E-2,-2.264992E-1,-5.4362774E-2,1.2529533E-1,-2.0313595E-1,-5.8943527E-3,2.0699476E-1,4.4945672E-2,3.4382853E-1,4.747328E-1,5.837368E-1,7.5942487E-1],"split_indices":[0,4,4,4,4,4,6,4,6,7,4,5,3,4,4,0,0,0,0,0,0,0,0,0,0,0,0,0,0,0,0],"split_type":[0,0,0,0,0,0,0,0,0,0,0,0,0,0,0,0,0,0,0,0,0,0,0,0,0,0,0,0,0,0,0],"sum_hessian":[1.745E3,8.77E2,8.68E2,5.34E2,3.43E2,3.12E2,5.56E2,1.99E2,3.35E2,2.03E2,1.4E2,1.24E2,1.88E2,3.96E2,1.6E2,5.4E1,1.45E2,2.62E2,7.3E1,1.1E1,1.92E2,1.02E2,3.8E1,6.5E1,5.9E1,1.17E2,7.1E1,2.06E2,1.9E2,1.08E2,5.2E1],"tree_param":{"num_deleted":"0","num_feature":"8","num_nodes":"31","size_leaf_vector":"1"}},{"base_weights":[1.7841731E-1,-5.8493547E0,6.2758293E0,-8.106076E0,-2.218505E0,1.4541501E0,8.855671E0,-1.0783152E1,-6.4773655E0,-4.04602E0,-2.069451E-1,-1.624866E0,3.2266326E0,7.544179E0,1.2161359E1,-5.893039E-1,-4.7151428E-1,-1.8295848E-1,-3.350602E-1,-4.7204616E-3,-2.206798E-1,2.2429882E-1,-3.422034E-2,7.683668E-2,-1.5505432E-1,4.853935E-1,1.4085904E-1,3.0655324E-1,4.1297808E-1,5.498678E-1,7.227829E-1],"categories":[],"categories_nodes":[],"categories_segments":[],"categories_sizes":[],"default_left":[0,0,0,0,0,0,0,0,0,0,0,0,0,0,0,0,0,0,0,0,0,0,0,0,0,0,0,0,0,0,0],"id":8,"left_children":[1,3,5,7,9,11,13,15,17,19,21,23,25,27,29,-1,-1,-1,-1,-1,-1,-1,-1,-1,-1,-1,-1,-1,-1,-1,-1],"loss_changes":[6.3804566E4,7.135217E3,1.0722125E4,2.2759297E3,1.2343512E3,1.6534086E3,2.3447383E3,1.629336E2,1.8806738E2,2.5522632E2,3.638214E2,5.2282666E2,4.82172E2,3.587832E2,2.629746E2,0E0,0E0,0E0,0E0,0E0,0E0,0E0,0E0,0E0,0E0,0E0,0E0,0E0,0E0,0E0,0E0],"parents":[2147483647,0,0,1,1,2,2,3,3,4,4,5,5,6,6,7,7,8,8,9,9,10,10,11,11,12,12,13,13,14,14],"right_children":[2,4,6,8,10,12,14,16,18,20,22,24,26,28,30,-1,-1,-1,-1,-1,-1,-1,-1,-1,-1,-1,-1,-1,-1,-1,-1],"split_conditions":[2E0,1.006E2,8.46E1,8.56E1,1.098E2,7.5E1,3.6E1,7.98E1,2.1E1,2.2E1,2.2E1,1.572E2,1.503E2,3.09E1,1.206E2,-5.893039E-1,-4.7151428E-1,-1.8295848E-1,-3.350602E-1,-4.7204616E-3,-2.206798E-1,2.2429882E-1,-3.422034E-2,7.683668E-2,-1.5505432E-1,4.853935E-1,1.4085904E-1,3.0655324E-1,4.1297808E-1,5.498678E-1,7.227829E-1],"split_indices":[0,4,4,4,4,4,6,4,1,1,1,3,3,6,4,0,0,0,0,0,0,0,0,0,0,0,0,0,0,0,0],"split_type":[0,0,0,0,0,0,0,0,0,0,0,0,0,0,0,0,0,0,0,0,0,0,0,0,0,0,0,0,0,0,0],"sum_hessian":[1.734E3,8.72E2,8.62E2,5.37E2,3.35E2,3.01E2,5.61E2,2.01E2,3.36E2,1.75E2,1.6E2,1.1E2,1.91E2,4.04E2,1.57E2,1.11E2,9E1,2.6E1,3.1E2,1.5E1,1.6E2,1.4E1,1.46E2,3.5E1,7.5E1,1E1,1.81E2,1.39E2,2.65E2,1.08E2,4.9E1],"tree_param":{"num_deleted":"0","num_feature":"8","num_nodes":"31","size_leaf_vector":"1"}},{"base_weights":[1.4819878E-1,-5.511402E0,5.94778E0,-8.291916E0,-3.5564504E0,2.674827E0,9.108213E0,-7.121479E0,-9.84926E0,-4.860104E0,-9.283446E-1,8.591915E-2,4.710182E0,7.826259E0,1.1744935E1,-5.30154E-1,-3.2259017E-1,-5.399975E-1,-4.045991E-1,-2.0218472E-1,-3.1137854E-1,1.4090686E-1,-7.79593E-2,1.19847976E-1,-6.708221E-2,2.590184E-1,7.320576E-2,4.088305E-1,1.9569723E-1,-1.5586567E-2,5.917281E-1],"categories":[],"categories_nodes":[],"categories_segments":[],"categories_sizes":[],"default_left":[0,0,0,0,0,0,0,0,0,0,0,0,0,0,0,0,0,0,0,0,0,0,0,0,0,0,0,0,0,0,0],"id":9,"left_children":[1,3,5,7,9,11,13,15,17,19,21,23,25,27,29,-1,-1,-1,-1,-1,-1,-1,-1,-1,-1,-1,-1,-1,-1,-1,-1],"loss_changes":[5.6357594E4,4.6941914E3,8.747309E3,5.824121E2,1.7496719E3,2.2021826E3,1.3649258E3,4.1655176E2,1.6487207E2,3.5663037E2,4.085415E2,6.135598E2,3.495586E2,3.6960547E2,1.5389062E2,0E0,0E0,0E0,0E0,0E0,0E0,0E0,0E0,0E0,0E0,0E0,0E0,0E0,0E0,0E0,0E0],"parents":[2147483647,0,0,1,1,2,2,3,3,4,4,5,5,6,6,7,7,8,8,9,9,10,10,11,11,12,12,13,13,14,14],"right_children":[2,4,6,8,10,12,14,16,18,20,22,24,26,28,30,-1,-1,-1,-1,-1,-1,-1,-1,-1,-1,-1,-1,-1,-1,-1,-1],"split_conditions":[2E0,9.92E1,3.09E1,4.15E1,1.104E2,2.7E1,3.68E1,8.94E1,9.6E1,4.3E1,2.2E1,3.66E1,4.08E1,4.19E1,5.28E1,-5.30154E-1,-3.2259017E-1,-5.399975E-1,-4.045991E-1,-2.0218472E-1,-3.1137854E-1,1.4090686E-1,-7.79593E-2,1.19847976E-1,-6.708221E-2,2.590184E-1,7.320576E-2,4.088305E-1,1.9569723E-1,-1.5586567E-2,5.917281E-1],"split_indices":[0,5,6,7,5,6,6,5,5,7,1,7,7,7,2,0,0,0,0,0,0,0,0,0,0,0,0,0,0,0,0],"split_type":[0,0,0,0,0,0,0,0,0,0,0,0,0,0,0,0,0,0,0,0,0,0,0,0,0,0,0,0,0,0,0],"sum_hessian":[1.715E3,8.68E2,8.47E2,3.57E2,5.11E2,4.17E2,4.3E2,2.07E2,1.5E2,3.41E2,1.7E2,1.84E2,2.33E2,2.92E2,1.38E2,3.1E1,1.76E2,9.4E1,5.6E1,2.16E2,1.25E2,2.4E1,1.46E2,7E1,1.14E2,2.03E2,3E1,2.67E2,2.5E1,1E0,1.37E2],"tree_param":{"num_deleted":"0","num_feature":"8","num_nodes":"31","size_leaf_vector":"1"}},{"base_weights":[6.7537025E-2,-5.413226E0,5.4412503E0,-8.1231E0,-2.5270631E0,8.7019944E-1,8.016546E0,-5.3532E-1,-7.0289693E0,-3.452136E0,1.271735E0,-3.5898807E0,1.9773728E0,6.08908E0,9.795711E0,-4.0781695E-1,-3.0380088E-1,4.1085742E-3,-1.8508068E-1,2.9349566E-1,3.4765575E-2,-3.2404023E-1,-1.0971182E-1,3.442956E-2,1.7713709E-1,2.6350525E-1,3.919892E-1,4.45091E-1,6.004277E-1],"categories":[],"categories_nodes":[],"categories_segments":[],"categories_sizes":[],"default_left":[0,0,0,0,0,0,0,0,0,0,0,0,0,0,0,0,0,0,0,0,0,0,0,0,0,0,0,0,0],"id":10,"left_children":[1,3,5,7,9,11,13,-1,15,17,19,21,23,25,27,-1,-1,-1,-1,-1,-1,-1,-1,-1,-1,-1,-1,-1,-1],"loss_changes":[5.0804793E4,6.6587227E3,1.0246268E4,1.1683887E3,1.462769E3,1.5625944E3,1.850457E3,0E0,2.8563184E2,2.948015E2,2.1325938E2,2.399657E2,5.079674E2,3.4580566E2,4.6277734E2,0E0,0E0,0E0,0E0,0E0,0E0,0E0,0E0,0E0,0E0,0E0,0E0,0E0,0E0],"parents":[2147483647,0,0,1,1,2,2,3,3,4,4,5,5,6,6,8,8,9,9,10,10,11,11,12,12,13,13,14,14],"right_children":[2,4,6,8,10,12,14,-1,16,18,20,22,24,26,28,-1,-1,-1,-1,-1,-1,-1,-1,-1,-1,-1,-1,-1,-1],"split_conditions":[2E0,9.66E1,8.46E1,8.09E1,1.184E2,7.14E1,3.31E1,-5.3532E-1,8.92E1,2.2E1,2.2E1,8.51E1,2.76E1,9.53E1,3.91E1,-4.0781695E-1,-3.0380088E-1,4.1085742E-3,-1.8508068E-1,2.9349566E-1,3.4765575E-2,-3.2404023E-1,-1.0971182E-1,3.442956E-2,1.7713709E-1,2.6350525E-1,3.919892E-1,4.45091E-1,6.004277E-1],"split_indices":[0,4,4,4,4,4,6,0,4,1,1,5,6,4,6,0,0,0,0,0,0,0,0,0,0,0,0,0,0],"split_type":[0,0,0,0,0,0,0,0,0,0,0,0,0,0,0,0,0,0,0,0,0,0,0,0,0,0,0,0,0],"sum_hessian":[1.723E3,8.53E2,8.7E2,4.39E2,4.14E2,3.14E2,5.56E2,1.28E2,3.11E2,3.33E2,8.1E1,6.2E1,2.52E2,2.69E2,2.87E2,1.39E2,1.72E2,2.2E1,3.11E2,8E0,7.3E1,1.9E1,4.3E1,1.39E2,1.13E2,1.86E2,8.3E1,2.08E2,7.9E1],"tree_param":{"num_deleted":"0","num_feature":"8","num_nodes":"29","size_leaf_vector":"1"}},{"base_weights":[5.966191E-2,3.322894E0,-3.5204613E0,-3.353505E-1,6.1752567E0,-5.9259195E0,3.8526604E-1,1.5047E0,-4.0407906E0,4.4890137E0,9.472186E0,-7.530893E0,-3.8430927E0,-5.8160573E-1,6.1994214E0,2.4194086E-1,4.782879E-3,-2.5700656E-1,-6.437441E-2,2.8985986E-1,6.1307278E-2,4.1121802E-1,6.0848135E-1,-2.9050976E-1,-4.4692966E-1,1.0209447E-1,-2.5281894E-1,2.4496758E-1,-6.9428794E-2,4.2029873E-1,-2.8454958E-2],"categories":[],"categories_nodes":[],"categories_segments":[],"categories_sizes":[],"default_left":[0,0,0,0,0,0,0,0,0,0,0,0,0,0,0,0,0,0,0,0,0,0,0,0,0,0,0,0,0,0,0],"id":11,"left_children":[1,3,5,7,9,11,13,15,17,19,21,23,25,27,29,-1,-1,-1,-1,-1,-1,-1,-1,-1,-1,-1,-1,-1,-1,-1,-1],"loss_changes":[2.018785E4,9.434985E3,7.7438174E3,2.7129043E3,2.781666E3,1.6759277E3,1.7743916E3,1.2491819E3,3.9292212E2,1.4356206E3,4.754873E2,6.4324414E2,1.6097219E3,1.2054275E3,6.768635E2,0E0,0E0,0E0,0E0,0E0,0E0,0E0,0E0,0E0,0E0,0E0,0E0,0E0,0E0,0E0,0E0],"parents":[2147483647,0,0,1,1,2,2,3,3,4,4,5,5,6,6,7,7,8,8,9,9,10,10,11,11,12,12,13,13,14,14],"right_children":[2,4,6,8,10,12,14,16,18,20,22,24,26,28,30,-1,-1,-1,-1,-1,-1,-1,-1,-1,-1,-1,-1,-1,-1,-1,-1],"split_conditions":[1.671E2,9.86E1,1.056E2,3.81E1,1.126E2,9.91E1,1.252E2,1.54E2,9.51E1,7.71E1,1.27E2,4.15E1,7.65E1,8.43E1,1.764E2,2.4194086E-1,4.782879E-3,-2.5700656E-1,-6.437441E-2,2.8985986E-1,6.1307278E-2,4.1121802E-1,6.0848135E-1,-2.9050976E-1,-4.4692966E-1,1.0209447E-1,-2.5281894E-1,2.4496758E-1,-6.9428794E-2,4.2029873E-1,-2.8454958E-2],"split_indices":[3,5,5,7,5,5,5,3,5,2,5,7,2,2,3,0,0,0,0,0,0,0,0,0,0,0,0,0,0,0,0],"split_type":[0,0,0,0,0,0,0,0,0,0,0,0,0,0,0,0,0,0,0,0,0,0,0,0,0,0,0,0,0,0,0],"sum_hessian":[1.726E3,9.03E2,8.23E2,3.96E2,5.07E2,5.09E2,3.14E2,2.65E2,1.31E2,3.37E2,1.7E2,2.86E2,2.23E2,2.7E2,4.4E1,7.8E1,1.87E2,9.3E1,3.8E1,2.4E2,9.7E1,1.19E2,5.1E1,1.31E2,1.55E2,3.8E1,1.85E2,3.4E1,2.36E2,3.3E1,1.1E1],"tree_param":{"num_deleted":"0","num_feature":"8","num_nodes":"31","size_leaf_vector":"1"}},{"base_weights":[-6.822788E-2,-4.7883177E0,4.956102E0,-6.8633327E0,-1.6884679E0,1.0972832E0,7.2196183E0,-9.461837E0,-5.685991E0,-2.6281025E0,1.4190044E0,-3.1193275E0,2.2679074E0,5.8301787E0,9.543413E0,-5.318617E-1,-4.3255207E-1,-2.8790838E-1,3.6726516E-2,5.225859E-3,-1.4685228E-1,3.454281E-1,4.151161E-2,3.1234248E-2,-2.1416724E-1,3.0754682E-1,8.263879E-2,2.5847018E-1,3.6698973E-1,4.3336096E-1,5.932303E-1],"categories":[],"categories_nodes":[],"categories_segments":[],"categories_sizes":[],"default_left":[0,0,0,0,0,0,0,0,0,0,0,0,0,0,0,0,0,0,0,0,0,0,0,0,0,0,0,0,0,0,0],"id":12,"left_children":[1,3,5,7,9,11,13,15,17,19,21,23,25,27,29,-1,-1,-1,-1,-1,-1,-1,-1,-1,-1,-1,-1,-1,-1,-1,-1],"loss_changes":[4.102747E4,5.7259688E3,7.311588E3,1.5798809E3,1.0519696E3,1.5421908E3,1.6491523E3,6.522168E1,1.756914E2,2.3331262E2,2.6576068E2,2.9902618E2,5.726456E2,2.9423047E2,2.9579492E2,0E0,0E0,0E0,0E0,0E0,0E0,0E0,0E0,0E0,0E0,0E0,0E0,0E0,0E0,0E0,0E0],"parents":[2147483647,0,0,1,1,2,2,3,3,4,4,5,5,6,6,7,7,8,8,9,9,10,10,11,11,12,12,13,13,14,14],"right_children":[2,4,6,8,10,12,14,16,18,20,22,24,26,28,30,-1,-1,-1,-1,-1,-1,-1,-1,-1,-1,-1,-1,-1,-1,-1,-1],"split_conditions":[2E0,1.002E2,8.46E1,8.31E1,1.184E2,7.2E1,1.136E2,7.55E1,1.108E2,2.4E1,2.1E1,1.544E2,1.536E2,3.31E1,1.206E2,-5.318617E-1,-4.3255207E-1,-2.8790838E-1,3.6726516E-2,5.225859E-3,-1.4685228E-1,3.454281E-1,4.151161E-2,3.1234248E-2,-2.1416724E-1,3.0754682E-1,8.263879E-2,2.5847018E-1,3.6698973E-1,4.3336096E-1,5.932303E-1],"split_indices":[0,4,4,4,4,4,5,4,5,1,1,3,3,6,4,0,0,0,0,0,0,0,0,0,0,0,0,0,0,0,0],"split_type":[0,0,0,0,0,0,0,0,0,0,0,0,0,0,0,0,0,0,0,0,0,0,0,0,0,0,0,0,0,0,0],"sum_hessian":[1.728E3,8.91E2,8.37E2,5.33E2,3.58E2,3.1E2,5.27E2,1.64E2,3.69E2,2.75E2,8.3E1,6.7E1,2.43E2,3.32E2,1.95E2,6.2E1,1.02E2,3.65E2,4E0,2.8E1,2.47E2,7E0,7.6E1,1.6E1,5.1E1,3.2E1,2.11E2,2.34E2,9.8E1,1.45E2,5E1],"tree_param":{"num_deleted":"0","num_feature":"8","num_nodes":"31","size_leaf_vector":"1"}},{"base_weights":[-5.110758E-2,2.9574745E0,-3.1048985E0,2.5208074E-1,6.335102E0,-5.3417573E0,3.5820687E-1,1.6645981E0,-2.972805E0,4.4585776E0,8.948614E0,-8.027968E0,-4.225586E0,-5.5077267E-1,6.036543E0,1.7898025E-1,1.0540342E-4,-2.1389873E-1,6.2140502E-2,2.8119072E-1,-2.8426392E-2,5.183727E-1,3.6633503E-1,-3.5676363E-1,-5.5902493E-1,9.27837E-2,-2.3060171E-1,2.4630223E-1,-6.192493E-2,3.664224E-1,2.6182396E-2],"categories":[],"categories_nodes":[],"categories_segments":[],"categories_sizes":[],"default_left":[0,0,0,0,0,0,0,0,0,0,0,0,0,0,0,0,0,0,0,0,0,0,0,0,0,0,0,0,0,0,0],"id":13,"left_children":[1,3,5,7,9,11,13,15,17,19,21,23,25,27,29,-1,-1,-1,-1,-1,-1,-1,-1,-1,-1,-1,-1,-1,-1,-1,-1],"loss_changes":[1.5995574E4,8.012265E3,6.69487E3,2.2278896E3,1.8727852E3,1.5401709E3,1.7582318E3,1.0824435E3,8.251284E2,1.3446265E3,2.968418E2,3.508047E2,8.8514307E2,1.1134664E3,3.3090283E2,0E0,0E0,0E0,0E0,0E0,0E0,0E0,0E0,0E0,0E0,0E0,0E0,0E0,0E0,0E0,0E0],"parents":[2147483647,0,0,1,1,2,2,3,3,4,4,5,5,6,6,7,7,8,8,9,9,10,10,11,11,12,12,13,13,14,14],"right_children":[2,4,6,8,10,12,14,16,18,20,22,24,26,28,30,-1,-1,-1,-1,-1,-1,-1,-1,-1,-1,-1,-1,-1,-1,-1,-1],"split_conditions":[1.671E2,1.017E2,1.056E2,3.85E1,1.127E2,8.16E1,1.252E2,1.575E2,9.91E1,8.33E1,1.612E2,3.11E1,2.83E1,8.41E1,1.775E2,1.7898025E-1,1.0540342E-4,-2.1389873E-1,6.2140502E-2,2.8119072E-1,-2.8426392E-2,5.183727E-1,3.6633503E-1,-3.5676363E-1,-5.5902493E-1,9.27837E-2,-2.3060171E-1,2.4630223E-1,-6.192493E-2,3.664224E-1,2.6182396E-2],"split_indices":[3,5,5,7,5,4,5,3,5,2,3,6,6,2,3,0,0,0,0,0,0,0,0,0,0,0,0,0,0,0,0],"split_type":[0,0,0,0,0,0,0,0,0,0,0,0,0,0,0,0,0,0,0,0,0,0,0,0,0,0,0,0,0,0,0],"sum_hessian":[1.739E3,8.76E2,8.63E2,4.87E2,3.89E2,5.24E2,3.39E2,3.39E2,1.48E2,2.28E2,1.61E2,1.52E2,3.72E2,2.93E2,4.6E1,1.57E2,1.82E2,1.13E2,3.5E1,1.85E2,4.3E1,8.3E1,7.8E1,1.21E2,3.1E1,2.2E1,3.5E2,3.2E1,2.61E2,3.7E1,9E0],"tree_param":{"num_deleted":"0","num_feature":"8","num_nodes":"31","size_leaf_vector":"1"}},{"base_weights":[-9.3773596E-2,-4.5565896E0,4.5262938E0,-7.1068144E0,-2.6650717E0,7.8912467E-1,6.784E0,-8.891842E0,-5.8365397E0,-3.7035089E0,-4.4443154E-1,-1.6133469E0,2.301851E0,5.62805E0,8.969707E0,-5.08662E-1,-4.168441E-1,-1.4018962E-1,-3.1479016E-1,-7.04156E-2,-2.038718E-1,2.5177994E-1,-3.9869588E-2,-3.0918664E-1,-4.669484E-2,9.042134E-2,2.5574818E-1,2.3515192E-1,3.273632E-1,4.1114685E-1,5.8849293E-1],"categories":[],"categories_nodes":[],"categories_segments":[],"categories_sizes":[],"default_left":[0,0,0,0,0,0,0,0,0,0,0,0,0,0,0,0,0,0,0,0,0,0,0,0,0,0,0,0,0,0,0],"id":14,"left_children":[1,3,5,7,9,11,13,15,17,19,21,23,25,27,29,-1,-1,-1,-1,-1,-1,-1,-1,-1,-1,-1,-1,-1,-1,-1,-1],"loss_changes":[3.5752504E4,4.2356484E3,7.183336E3,7.9840625E2,1.1698E3,1.1739524E3,1.291127E3,2.4699219E1,2.9155615E2,2.9120703E2,3.192953E2,3.8239368E2,2.6558557E2,2.6680664E2,2.83792E2,0E0,0E0,0E0,0E0,0E0,0E0,0E0,0E0,0E0,0E0,0E0,0E0,0E0,0E0,0E0,0E0],"parents":[2147483647,0,0,1,1,2,2,3,3,4,4,5,5,6,6,7,7,8,8,9,9,10,10,11,11,12,12,13,13,14,14],"right_children":[2,4,6,8,10,12,14,16,18,20,22,24,26,28,30,-1,-1,-1,-1,-1,-1,-1,-1,-1,-1,-1,-1,-1,-1,-1,-1],"split_conditions":[2E0,9.4E1,8.52E1,8.25E1,1.098E2,7.5E1,1.136E2,7.36E1,2.1E1,2.6E1,2.1E1,8.42E1,5.2E1,9.33E1,1.327E2,-5.08662E-1,-4.168441E-1,-1.4018962E-1,-3.1479016E-1,-7.04156E-2,-2.038718E-1,2.5177994E-1,-3.9869588E-2,-3.0918664E-1,-4.669484E-2,9.042134E-2,2.5574818E-1,2.3515192E-1,3.273632E-1,4.1114685E-1,5.8849293E-1],"split_indices":[0,4,4,4,4,4,5,4,1,1,1,5,1,4,5,0,0,0,0,0,0,0,0,0,0,0,0,0,0,0,0],"split_type":[0,0,0,0,0,0,0,0,0,0,0,0,0,0,0,0,0,0,0,0,0,0,0,0,0,0,0,0,0,0,0],"sum_hessian":[1.732E3,8.81E2,8.51E2,3.74E2,5.07E2,3.21E2,5.3E2,1.53E2,2.21E2,3.45E2,1.62E2,1.24E2,1.97E2,3.49E2,1.81E2,4.1E1,1.12E2,3E1,1.91E2,4.9E1,2.96E2,9E0,1.53E2,1.5E1,1.09E2,1.69E2,2.8E1,1.77E2,1.72E2,1.46E2,3.5E1],"tree_param":{"num_deleted":"0","num_feature":"8","num_nodes":"31","size_leaf_vector":"1"}},{"base_weights":[5.3472206E-2,-4.3577003E0,4.5154614E0,-6.759918E0,-2.5994751E0,-5.707799E-1,6.031529E0,-8.415126E0,-5.5408583E0,-3.5734634E0,-4.5871648E-1,-2.9640815E0,6.8458825E-1,4.4391623E0,7.5364184E0,-3.8605696E-1,-4.7520587E-1,-5.7086945E-3,-2.8344557E-1,-2.740956E-2,-1.9127165E-1,-4.358899E-2,2.1395679E-1,-6.967207E-2,-2.4797331E-1,2.7325776E-1,1.2397108E-2,2.605594E-1,1.5495956E-1,3.4710816E-1,5.106858E-1],"categories":[],"categories_nodes":[],"categories_segments":[],"categories_sizes":[],"default_left":[0,0,0,0,0,0,0,0,0,0,0,0,0,0,0,0,0,0,0,0,0,0,0,0,0,0,0,0,0,0,0],"id":15,"left_children":[1,3,5,7,9,11,13,15,17,19,21,23,25,27,29,-1,-1,-1,-1,-1,-1,-1,-1,-1,-1,-1,-1,-1,-1,-1,-1],"loss_changes":[3.4326457E4,3.6865586E3,6.688953E3,6.9995703E2,1.0575784E3,6.0292413E2,1.5672969E3,4.375879E1,1.4945215E2,2.639375E2,3.1685574E2,2.093374E2,2.741839E2,3.2212842E2,4.732168E2,0E0,0E0,0E0,0E0,0E0,0E0,0E0,0E0,0E0,0E0,0E0,0E0,0E0,0E0,0E0,0E0],"parents":[2147483647,0,0,1,1,2,2,3,3,4,4,5,5,6,6,7,7,8,8,9,9,10,10,11,11,12,12,13,13,14,14],"right_children":[2,4,6,8,10,12,14,16,18,20,22,24,26,28,30,-1,-1,-1,-1,-1,-1,-1,-1,-1,-1,-1,-1,-1,-1,-1,-1],"split_conditions":[2E0,9.4E1,7.95E1,8.25E1,1.098E2,7.2E1,9.45E1,3.02E1,2.76E1,2.2E1,1.328E2,3.81E1,3.41E1,3.82E1,1.206E2,-3.8605696E-1,-4.7520587E-1,-5.7086945E-3,-2.8344557E-1,-2.740956E-2,-1.9127165E-1,-4.358899E-2,2.1395679E-1,-6.967207E-2,-2.4797331E-1,2.7325776E-1,1.2397108E-2,2.605594E-1,1.5495956E-1,3.4710816E-1,5.106858E-1],"split_indices":[0,4,4,4,4,4,4,6,6,1,4,7,7,7,4,0,0,0,0,0,0,0,0,0,0,0,0,0,0,0,0],"split_type":[0,0,0,0,0,0,0,0,0,0,0,0,0,0,0,0,0,0,0,0,0,0,0,0,0,0,0,0,0,0,0],"sum_hessian":[1.742E3,8.76E2,8.66E2,3.69E2,5.07E2,1.99E2,6.67E2,1.54E2,2.15E2,3.48E2,1.59E2,6.8E1,1.31E2,3.26E2,3.41E2,9.9E1,5.5E1,5E0,2.1E2,2.7E1,3.21E2,1.47E2,1.2E1,3.9E1,2.9E1,1E1,1.21E2,2.05E2,1.21E2,2.82E2,5.9E1],"tree_param":{"num_deleted":"0","num_feature":"8","num_nodes":"31","size_leaf_vector":"1"}},{"base_weights":[9.753153E-2,-4.0589786E0,4.2345276E0,-6.1810374E0,-2.766945E0,1.3586704E0,6.3049574E0,-5.361504E0,-7.6292944E0,-3.5102293E0,-1.5781333E-1,-1.8296839E0,2.2470438E0,5.257896E0,8.125555E0,-3.722146E-1,-2.4044469E-1,-3.3939934E-1,-4.322338E-1,-1.4472662E-1,-2.265461E-1,2.364074E-1,-4.0082008E-2,-1.2613559E-1,4.4658357E-1,8.133723E-2,2.3606728E-1,2.1717289E-1,3.2602224E-1,3.785251E-1,5.434162E-1],"categories":[],"categories_nodes":[],"categories_segments":[],"categories_sizes":[],"default_left":[0,0,0,0,0,0,0,0,0,0,0,0,0,0,0,0,0,0,0,0,0,0,0,0,0,0,0,0,0,0,0],"id":16,"left_children":[1,3,5,7,9,11,13,15,17,19,21,23,25,27,29,-1,-1,-1,-1,-1,-1,-1,-1,-1,-1,-1,-1,-1,-1,-1,-1],"loss_changes":[2.940424E4,2.321628E3,5.0942344E3,3.412754E2,1.0311682E3,1.02379315E3,9.066035E2,2.047539E2,3.870459E1,2.470581E2,3.781301E2,6.1170764E2,4.2513525E2,3.3997168E2,1.9174902E2,0E0,0E0,0E0,0E0,0E0,0E0,0E0,0E0,0E0,0E0,0E0,0E0,0E0,0E0,0E0,0E0],"parents":[2147483647,0,0,1,1,2,2,3,3,4,4,5,5,6,6,7,7,8,8,9,9,10,10,11,11,12,12,13,13,14,14],"right_children":[2,4,6,8,10,12,14,16,18,20,22,24,26,28,30,-1,-1,-1,-1,-1,-1,-1,-1,-1,-1,-1,-1,-1,-1,-1,-1],"split_conditions":[2E0,9.82E1,2.97E1,4.19E1,1.126E2,2.5E1,1.142E2,8.94E1,3.05E1,4.3E1,2.1E1,9.57E1,5.1E1,4.3E1,1.134E2,-3.722146E-1,-2.4044469E-1,-3.3939934E-1,-4.322338E-1,-1.4472662E-1,-2.265461E-1,2.364074E-1,-4.0082008E-2,-1.2613559E-1,4.4658357E-1,8.133723E-2,2.3606728E-1,2.1717289E-1,3.2602224E-1,3.785251E-1,5.434162E-1],"split_indices":[0,5,6,7,5,6,5,5,6,7,1,5,1,1,2,0,0,0,0,0,0,0,0,0,0,0,0,0,0,0,0],"split_type":[0,0,0,0,0,0,0,0,0,0,0,0,0,0,0,0,0,0,0,0,0,0,0,0,0,0,0,0,0,0,0],"sum_hessian":[1.708E3,8.52E2,8.56E2,3.21E2,5.31E2,3.59E2,4.97E2,2.08E2,1.13E2,4.13E2,1.18E2,7.8E1,2.81E2,3.18E2,1.79E2,4.1E1,1.67E2,6.6E1,4.7E1,2.6E2,1.53E2,1.3E1,1.05E2,7.4E1,4E0,2.26E2,5.5E1,1.87E2,1.31E2,1.52E2,2.7E1],"tree_param":{"num_deleted":"0","num_feature":"8","num_nodes":"31","size_leaf_vector":"1"}},{"base_weights":[-2.1314682E-3,-3.8631349E0,3.954715E0,-5.7654395E0,-2.4286177E0,9.508918E-1,5.845465E0,-6.8970437E0,-5.012225E0,-3.0744486E0,6.006252E-1,-2.0025847E0,2.0761669E0,4.6543026E0,7.7530856E0,-3.9092714E-1,-2.892433E-1,-2.1553718E-1,-3.876768E-1,-1.09729104E-1,-1.7824842E-1,7.180222E-2,-1.3640039E-1,7.862046E-2,-1.6174488E-1,1.9687885E-1,4.381269E-2,3.293552E-1,2.1157447E-1,3.4932947E-1,4.6243855E-1],"categories":[],"categories_nodes":[],"categories_segments":[],"categories_sizes":[],"default_left":[0,0,0,0,0,0,0,0,0,0,0,0,0,0,0,0,0,0,0,0,0,0,0,0,0,0,0,0,0,0,0],"id":17,"left_children":[1,3,5,7,9,11,13,15,17,19,21,23,25,27,29,-1,-1,-1,-1,-1,-1,-1,-1,-1,-1,-1,-1,-1,-1,-1,-1],"loss_changes":[2.6170182E4,2.3519453E3,4.7992793E3,2.8250195E2,9.722102E2,1.094257E3,1.1432324E3,1.04401855E2,4.0309277E2,1.6869751E2,2.4862827E2,4.059881E2,5.281299E2,2.3526953E2,1.6237695E2,0E0,0E0,0E0,0E0,0E0,0E0,0E0,0E0,0E0,0E0,0E0,0E0,0E0,0E0,0E0,0E0],"parents":[2147483647,0,0,1,1,2,2,3,3,4,4,5,5,6,6,7,7,8,8,9,9,10,10,11,11,12,12,13,13,14,14],"right_children":[2,4,6,8,10,12,14,16,18,20,22,24,26,28,30,-1,-1,-1,-1,-1,-1,-1,-1,-1,-1,-1,-1,-1,-1,-1,-1],"split_conditions":[2E0,9.91E1,9.89E1,9.27E1,1.16E2,8.92E1,1.127E2,3.2E1,1.779E2,4.1E1,1.806E2,3.51E1,1.575E2,1.545E2,1.275E2,-3.9092714E-1,-2.892433E-1,-2.1553718E-1,-3.876768E-1,-1.09729104E-1,-1.7824842E-1,7.180222E-2,-1.3640039E-1,7.862046E-2,-1.6174488E-1,1.9687885E-1,4.381269E-2,3.293552E-1,2.1157447E-1,3.4932947E-1,4.6243855E-1],"split_indices":[0,5,5,5,5,5,5,1,3,7,3,7,3,3,5,0,0,0,0,0,0,0,0,0,0,0,0,0,0,0,0],"split_type":[0,0,0,0,0,0,0,0,0,0,0,0,0,0,0,0,0,0,0,0,0,0,0,0,0,0,0,0,0,0,0],"sum_hessian":[1.711E3,8.66E2,8.45E2,3.71E2,4.95E2,3.27E2,5.18E2,1.45E2,2.26E2,4.08E2,8.7E1,9E1,2.37E2,3.21E2,1.97E2,7.6E1,6.9E1,1.82E2,4.4E1,1.48E2,2.6E2,7E1,1.7E1,2.3E1,6.7E1,9.2E1,1.45E2,5.5E1,2.66E2,1.34E2,6.3E1],"tree_param":{"num_deleted":"0","num_feature":"8","num_nodes":"31","size_leaf_vector":"1"}},{"base_weights":[-8.054646E-2,-3.7610962E0,3.6382585E0,-5.2738256E0,-1.2253834E0,-4.9180922E-1,5.0755677E0,-7.2812333E0,-4.4727573E0,-2.0924566E0,1.2882441E0,-1.7474177E0,1.9442619E0,4.3331437E0,7.4297967E0,-3.4123954E-1,-4.5961687E-1,-2.0774923E-1,-2.9832035E-1,-7.923364E-2,-1.7828397E-1,3.4027986E-2,2.464139E-1,-1.6151512E-1,-4.4754643E-2,7.55072E-2,3.4148163E-1,1.5232636E-1,2.4181056E-1,3.405613E-1,4.9740076E-1],"categories":[],"categories_nodes":[],"categories_segments":[],"categories_sizes":[],"default_left":[0,0,0,0,0,0,0,0,0,0,0,0,0,0,0,0,0,0,0,0,0,0,0,0,0,0,0,0,0,0,0],"id":18,"left_children":[1,3,5,7,9,11,13,15,17,19,21,23,25,27,29,-1,-1,-1,-1,-1,-1,-1,-1,-1,-1,-1,-1,-1,-1,-1,-1],"loss_changes":[2.3884244E4,3.3575752E3,5.1551025E3,8.502637E2,7.1975085E2,6.916165E2,1.0934141E3,7.247266E1,1.6269287E2,1.776289E2,1.8466533E2,1.8542957E2,1.529899E2,3.0371582E2,1.7056934E2,0E0,0E0,0E0,0E0,0E0,0E0,0E0,0E0,0E0,0E0,0E0,0E0,0E0,0E0,0E0,0E0],"parents":[2147483647,0,0,1,1,2,2,3,3,4,4,5,5,6,6,7,7,8,8,9,9,10,10,11,11,12,12,13,13,14,14],"right_children":[2,4,6,8,10,12,14,16,18,20,22,24,26,28,30,-1,-1,-1,-1,-1,-1,-1,-1,-1,-1,-1,-1,-1,-1,-1,-1],"split_conditions":[2E0,1.008E2,2.75E1,8.25E1,1.172E2,7.73E1,3.58E1,3.14E1,1.793E2,1.787E2,4.4E1,2.43E1,9.35E1,8.66E1,1.134E2,-3.4123954E-1,-4.5961687E-1,-2.0774923E-1,-2.9832035E-1,-7.923364E-2,-1.7828397E-1,3.4027986E-2,2.464139E-1,-1.6151512E-1,-4.4754643E-2,7.55072E-2,3.4148163E-1,1.5232636E-1,2.4181056E-1,3.405613E-1,4.9740076E-1],"split_indices":[0,4,6,4,4,4,6,6,3,3,6,6,4,4,2,0,0,0,0,0,0,0,0,0,0,0,0,0,0,0,0],"split_type":[0,0,0,0,0,0,0,0,0,0,0,0,0,0,0,0,0,0,0,0,0,0,0,0,0,0,0,0,0,0,0],"sum_hessian":[1.743E3,8.76E2,8.67E2,5.48E2,3.28E2,2.24E2,6.43E2,1.54E2,3.94E2,2.44E2,8.4E1,1.48E2,7.6E1,4.91E2,1.52E2,1.28E2,2.6E1,3.28E2,6.6E1,1.83E2,6.1E1,7.3E1,1.1E1,5.3E1,9.5E1,7.1E1,5E0,1.4E2,3.51E2,1.25E2,2.7E1],"tree_param":{"num_deleted":"0","num_feature":"8","num_nodes":"31","size_leaf_vector":"1"}},{"base_weights":[-5.329122E-2,-3.6064296E0,3.574625E0,-6.1521783E0,-2.4274094E0,5.4379684E-1,5.2427917E0,-7.224376E0,-5.4720583E0,-3.1306677E0,-7.755718E-2,-2.9647737E0,1.4878354E0,4.6120987E0,7.706967E0,-3.748289E-1,-1.5104452E-1,-2.3674805E-1,-3.702077E-1,-1.9132532E-1,-1.3437651E-1,-4.3651253E-2,1.1555313E-1,-3.0743247E-1,-8.5452706E-2,1.1838215E-1,-2.648356E-2,1.7990355E-1,2.6540396E-1,-1.0386973E-1,3.9074004E-1],"categories":[],"categories_nodes":[],"categories_segments":[],"categories_sizes":[],"default_left":[0,0,0,0,0,0,0,0,0,0,0,0,0,0,0,0,0,0,0,0,0,0,0,0,0,0,0,0,0,0,0],"id":19,"left_children":[1,3,5,7,9,11,13,15,17,19,21,23,25,27,29,-1,-1,-1,-1,-1,-1,-1,-1,-1,-1,-1,-1,-1,-1,-1,-1],"loss_changes":[2.2300545E4,2.6083682E3,4.3250225E3,1.6173438E2,9.896362E2,1.0146399E3,8.223379E2,9.63501E1,2.1131787E2,1.3186621E2,2.6612738E2,2.4936523E2,4.2903314E2,2.9283984E2,1.333501E2,0E0,0E0,0E0,0E0,0E0,0E0,0E0,0E0,0E0,0E0,0E0,0E0,0E0,0E0,0E0,0E0],"parents":[2147483647,0,0,1,1,2,2,3,3,4,4,5,5,6,6,7,7,8,8,9,9,10,10,11,11,12,12,13,13,14,14],"right_children":[2,4,6,8,10,12,14,16,18,20,22,24,26,28,30,-1,-1,-1,-1,-1,-1,-1,-1,-1,-1,-1,-1,-1,-1,-1,-1],"split_conditions":[2E0,8.92E1,8.46E1,7.92E1,1.111E2,7.2E1,1.102E2,9.6E1,7.52E1,9.66E1,1.253E2,8.51E1,1.635E2,9.32E1,1.08E2,-3.748289E-1,-1.5104452E-1,-2.3674805E-1,-3.702077E-1,-1.9132532E-1,-1.3437651E-1,-4.3651253E-2,1.1555313E-1,-3.0743247E-1,-8.5452706E-2,1.1838215E-1,-2.648356E-2,1.7990355E-1,2.6540396E-1,-1.0386973E-1,3.9074004E-1],"split_indices":[0,4,4,4,4,4,4,5,2,4,4,5,3,4,5,0,0,0,0,0,0,0,0,0,0,0,0,0,0,0,0],"split_type":[0,0,0,0,0,0,0,0,0,0,0,0,0,0,0,0,0,0,0,0,0,0,0,0,0,0,0,0,0,0,0],"sum_hessian":[1.728E3,8.73E2,8.55E2,2.75E2,5.98E2,3.04E2,5.51E2,1.03E2,1.72E2,4.6E2,1.38E2,6.4E1,2.4E2,4.41E2,1.1E2,9.6E1,7E0,1.27E2,4.5E1,1.76E2,2.84E2,1.04E2,3.4E1,1.7E1,4.7E1,1.67E2,7.3E1,1.82E2,2.59E2,1E0,1.09E2],"tree_param":{"num_deleted":"0","num_feature":"8","num_nodes":"31","size_leaf_vector":"1"}},{"base_weights":[-3.3428418E-3,-3.2686121E0,3.4295754E0,-5.090059E0,-1.4957063E0,5.6269836E-1,4.9726644E0,-6.290318E0,-4.0436287E0,-2.4800866E0,1.7094415E-1,-1.942513E0,1.3302625E0,4.1286893E0,6.647421E0,-3.505342E-1,-2.7825114E-1,-1.874829E-1,-2.8572318E-1,-1.0483807E-1,-2.0897351E-1,-2.1054896E-2,1.3297585E-1,-2.3236762E-1,-5.6750704E-2,1.9749548E-1,4.673103E-2,2.8312832E-1,1.8211457E-1,3.07026E-1,4.63519E-1],"categories":[],"categories_nodes":[],"categories_segments":[],"categories_sizes":[],"default_left":[0,0,0,0,0,0,0,0,0,0,0,0,0,0,0,0,0,0,0,0,0,0,0,0,0,0,0,0,0,0,0],"id":20,"left_children":[1,3,5,7,9,11,13,15,17,19,21,23,25,27,29,-1,-1,-1,-1,-1,-1,-1,-1,-1,-1,-1,-1,-1,-1,-1,-1],"loss_changes":[1.970613E4,2.9019434E3,3.7884385E3,5.3222266E2,7.518269E2,5.8138007E2,7.5984766E2,6.809326E1,9.645557E1,1.788446E2,2.53061E2,1.4980014E2,2.3572653E2,2.5766064E2,1.8904785E2,0E0,0E0,0E0,0E0,0E0,0E0,0E0,0E0,0E0,0E0,0E0,0E0,0E0,0E0,0E0,0E0],"parents":[2147483647,0,0,1,1,2,2,3,3,4,4,5,5,6,6,7,7,8,8,9,9,10,10,11,11,12,12,13,13,14,14],"right_children":[2,4,6,8,10,12,14,16,18,20,22,24,26,28,30,-1,-1,-1,-1,-1,-1,-1,-1,-1,-1,-1,-1,-1,-1,-1,-1],"split_conditions":[2E0,9.66E1,8.46E1,8.56E1,1.098E2,7.2E1,1.142E2,7.92E1,8.55E1,9.71E1,1.264E2,8.42E1,3.41E1,1.545E2,1.134E2,-3.505342E-1,-2.7825114E-1,-1.874829E-1,-2.8572318E-1,-1.0483807E-1,-2.0897351E-1,-2.1054896E-2,1.3297585E-1,-2.3236762E-1,-5.6750704E-2,1.9749548E-1,4.673103E-2,2.8312832E-1,1.8211457E-1,3.07026E-1,4.63519E-1],"split_indices":[0,4,4,4,4,4,5,4,2,2,4,5,7,3,2,0,0,0,0,0,0,0,0,0,0,0,0,0,0,0,0],"split_type":[0,0,0,0,0,0,0,0,0,0,0,0,0,0,0,0,0,0,0,0,0,0,0,0,0,0,0,0,0,0,0],"sum_hessian":[1.756E3,9E2,8.56E2,4.43E2,4.57E2,3E2,5.56E2,2.04E2,2.39E2,2.87E2,1.7E2,7E1,2.3E2,3.72E2,1.84E2,9.8E1,1.06E2,2.06E2,3.3E1,2.36E2,5.1E1,1.38E2,3.2E1,1.5E1,5.5E1,2.9E1,2.01E2,8.7E1,2.85E2,1.57E2,2.7E1],"tree_param":{"num_deleted":"0","num_feature":"8","num_nodes":"31","size_leaf_vector":"1"}},{"base_weights":[-2.7742637E-2,-3.1906474E0,3.1571844E0,-4.8232946E0,-2.0209446E0,9.334496E-1,4.840068E0,-5.7312164E0,-3.7756672E0,-2.569156E0,1.8633889E-1,-1.5375266E0,1.7247055E0,3.9597254E0,6.3129582E0,-2.3985164E-1,-3.3370444E-1,-1.5688151E-1,-2.8303236E-1,3.305876E-1,-1.3040271E-1,3.6733292E-2,-1.2992556E-1,7.138517E-2,-1.5466785E-1,9.965723E-2,-1.05504386E-1,2.9855722E-1,1.7512369E-1,2.701155E-1,3.6443064E-1],"categories":[],"categories_nodes":[],"categories_segments":[],"categories_sizes":[],"default_left":[0,0,0,0,0,0,0,0,0,0,0,0,0,0,0,0,0,0,0,0,0,0,0,0,0,0,0,0,0,0,0],"id":21,"left_children":[1,3,5,7,9,11,13,15,17,19,21,23,25,27,29,-1,-1,-1,-1,-1,-1,-1,-1,-1,-1,-1,-1,-1,-1,-1,-1],"loss_changes":[1.7447512E4,1.649792E3,3.2250752E3,3.2268164E2,6.15188E2,7.319318E2,6.116553E2,1.3710107E2,1.878982E2,1.625918E2,1.5766388E2,4.2423535E2,2.9552832E2,2.6420117E2,1.2232764E2,0E0,0E0,0E0,0E0,0E0,0E0,0E0,0E0,0E0,0E0,0E0,0E0,0E0,0E0,0E0,0E0],"parents":[2147483647,0,0,1,1,2,2,3,3,4,4,5,5,6,6,7,7,8,8,9,9,10,10,11,11,12,12,13,13,14,14],"right_children":[2,4,6,8,10,12,14,16,18,20,22,24,26,28,30,-1,-1,-1,-1,-1,-1,-1,-1,-1,-1,-1,-1,-1,-1,-1,-1],"split_conditions":[2E0,9.91E1,2.98E1,9.44E1,1.141E2,8.92E1,3.51E1,1.715E2,1.769E2,2.6E1,1.806E2,3.58E1,4.2E1,1.54E2,3.86E1,-2.3985164E-1,-3.3370444E-1,-1.5688151E-1,-2.8303236E-1,3.305876E-1,-1.3040271E-1,3.6733292E-2,-1.2992556E-1,7.138517E-2,-1.5466785E-1,9.965723E-2,-1.05504386E-1,2.9855722E-1,1.7512369E-1,2.701155E-1,3.6443064E-1],"split_indices":[0,5,6,5,5,5,6,3,3,6,3,7,7,3,6,0,0,0,0,0,0,0,0,0,0,0,0,0,0,0,0],"split_type":[0,0,0,0,0,0,0,0,0,0,0,0,0,0,0,0,0,0,0,0,0,0,0,0,0,0,0,0,0,0,0],"sum_hessian":[1.73E3,8.68E2,8.62E2,3.61E2,5.07E2,3.72E2,4.9E2,1.91E2,1.7E2,4.06E2,1.01E2,9E1,2.82E2,3.09E2,1.81E2,9.9E1,9.2E1,1.29E2,4.1E1,1E0,4.05E2,8.5E1,1.6E1,3.1E1,5.9E1,2.64E2,1.8E1,5.5E1,2.54E2,9.7E1,8.4E1],"tree_param":{"num_deleted":"0","num_feature":"8","num_nodes":"31","size_leaf_vector":"1"}},{"base_weights":[-6.0808245E-2,-3.0883124E0,3.0091095E0,-4.67601E0,-1.4528166E0,-1.0480714E0,3.9334867E0,-5.698696E0,-3.6506999E0,2.217024E0,-1.7735025E0,-6.268429E0,-7.3207605E-1,2.6730165E0,5.248957E0,-3.6095405E-1,-2.6320022E-1,-8.8511005E-2,-2.0850435E-1,5.2574545E-2,2.512854E-1,-1.1287617E-1,6.8335454E-3,-3.5133144E-1,-5.070782E-3,7.428745E-2,-6.0075708E-2,2.9590726E-1,1.2371325E-1,2.4247251E-1,3.664181E-1],"categories":[],"categories_nodes":[],"categories_segments":[],"categories_sizes":[],"default_left":[0,0,0,0,0,0,0,0,0,0,0,0,0,0,0,0,0,0,0,0,0,0,0,0,0,0,0,0,0,0,0],"id":22,"left_children":[1,3,5,7,9,11,13,15,17,19,21,23,25,27,29,-1,-1,-1,-1,-1,-1,-1,-1,-1,-1,-1,-1,-1,-1,-1,-1],"loss_changes":[1.6060356E4,2.2523125E3,3.221937E3,4.4161523E2,5.099843E2,2.593484E2,1.1449893E3,1.0673584E2,2.1042139E2,1.0929204E2,3.6643567E2,4.1369812E1,1.6003714E2,2.1690308E2,2.4774219E2,0E0,0E0,0E0,0E0,0E0,0E0,0E0,0E0,0E0,0E0,0E0,0E0,0E0,0E0,0E0,0E0],"parents":[2147483647,0,0,1,1,2,2,3,3,4,4,5,5,6,6,7,7,8,8,9,9,10,10,11,11,12,12,13,13,14,14],"right_children":[2,4,6,8,10,12,14,16,18,20,22,24,26,28,30,-1,-1,-1,-1,-1,-1,-1,-1,-1,-1,-1,-1,-1,-1,-1,-1],"split_conditions":[2E0,9.66E1,7.72E1,8.67E1,2.2E1,6.6E1,9.45E1,7.5E1,2.7E1,1.139E2,1.172E2,8.78E1,1.548E2,1.495E2,1.206E2,-3.6095405E-1,-2.6320022E-1,-8.8511005E-2,-2.0850435E-1,5.2574545E-2,2.512854E-1,-1.1287617E-1,6.8335454E-3,-3.5133144E-1,-5.070782E-3,7.428745E-2,-6.0075708E-2,2.9590726E-1,1.2371325E-1,2.4247251E-1,3.664181E-1],"split_indices":[0,4,4,4,1,4,4,4,1,4,4,5,3,3,4,0,0,0,0,0,0,0,0,0,0,0,0,0,0,0,0],"split_type":[0,0,0,0,0,0,0,0,0,0,0,0,0,0,0,0,0,0,0,0,0,0,0,0,0,0,0,0,0,0,0],"sum_hessian":[1.726E3,8.69E2,8.57E2,4.4E2,4.29E2,1.59E2,6.98E2,2.18E2,2.22E2,3.4E1,3.95E2,8E0,1.51E2,3.58E2,3.4E2,4.5E1,1.73E2,4.9E1,1.73E2,2.5E1,9E0,3.15E2,8E1,7E0,1E0,2.6E1,1.25E2,1.9E1,3.39E2,2.88E2,5.2E1],"tree_param":{"num_deleted":"0","num_feature":"8","num_nodes":"31","size_leaf_vector":"1"}},{"base_weights":[5.2227464E-2,-2.8035398E0,2.9908543E0,-5.007965E0,-1.7926469E0,5.024475E-1,4.3070936E0,-6.3684335E0,-4.24369E0,-2.30306E0,1.1006864E0,-1.931588E0,1.3260379E0,3.8206437E0,6.6046705E0,-5.818205E-2,-3.2050475E-1,-6.303006E-2,-2.252826E-1,-1.3283677E-1,-6.739289E-2,-3.388737E-2,1.2718485E-1,-1.3951656E-1,2.251868E-2,1.5437894E-1,4.8049334E-2,-2.9127467E-3,1.9528244E-1,2.879794E-1,4.2407486E-1],"categories":[],"categories_nodes":[],"categories_segments":[],"categories_sizes":[],"default_left":[0,0,0,0,0,0,0,0,0,0,0,0,0,0,0,0,0,0,0,0,0,0,0,0,0,0,0,0,0,0,0],"id":23,"left_children":[1,3,5,7,9,11,13,15,17,19,21,23,25,27,29,-1,-1,-1,-1,-1,-1,-1,-1,-1,-1,-1,-1,-1,-1,-1,-1],"loss_changes":[1.4660876E4,1.965419E3,2.8179019E3,2.6203076E2,9.019033E2,6.019513E2,6.0400684E2,1.379126E1,1.3576367E2,1.7141602E2,2.3782349E2,1.5671414E2,1.4107663E2,1.5420898E2,1.0499951E2,0E0,0E0,0E0,0E0,0E0,0E0,0E0,0E0,0E0,0E0,0E0,0E0,0E0,0E0,0E0,0E0],"parents":[2147483647,0,0,1,1,2,2,3,3,4,4,5,5,6,6,7,7,8,8,9,9,10,10,11,11,12,12,13,13,14,14],"right_children":[2,4,6,8,10,12,14,16,18,20,22,24,26,28,30,-1,-1,-1,-1,-1,-1,-1,-1,-1,-1,-1,-1,-1,-1,-1,-1],"split_conditions":[2E0,8.97E1,8.46E1,7.92E1,1.172E2,7.23E1,1.13E2,3.64E1,6.11E1,1.057E2,1.184E2,9.06E1,3.49E1,9.15E1,1.124E2,-5.818205E-2,-3.2050475E-1,-6.303006E-2,-2.252826E-1,-1.3283677E-1,-6.739289E-2,-3.388737E-2,1.2718485E-1,-1.3951656E-1,2.251868E-2,1.5437894E-1,4.8049334E-2,-2.9127467E-3,1.9528244E-1,2.879794E-1,4.2407486E-1],"split_indices":[0,4,4,4,4,4,4,7,2,4,5,5,7,5,2,0,0,0,0,0,0,0,0,0,0,0,0,0,0,0,0],"split_type":[0,0,0,0,0,0,0,0,0,0,0,0,0,0,0,0,0,0,0,0,0,0,0,0,0,0,0,0,0,0,0],"sum_hessian":[1.745E3,8.85E2,8.6E2,2.77E2,6.08E2,2.98E2,5.62E2,9.7E1,1.8E2,5.17E2,9.1E1,7.5E1,2.23E2,4.66E2,9.6E1,1E0,9.6E1,1.5E1,1.65E2,3.76E2,1.41E2,4.1E1,5E1,5.5E1,2E1,3.7E1,1.86E2,1E1,4.56E2,6.9E1,2.7E1],"tree_param":{"num_deleted":"0","num_feature":"8","num_nodes":"31","size_leaf_vector":"1"}},{"base_weights":[1.1733114E-2,-2.7707992E0,2.7688987E0,-3.853042E0,-1.0054389E0,-3.7434706E-1,3.7700133E0,-5.1630697E0,-3.0142233E0,-1.3429967E0,2.4374092E0,-1.8816366E0,7.018379E-1,3.0614362E0,5.405691E0,-2.2296889E-1,-3.0308813E-1,-4.729923E-2,-1.6516839E-1,5.801758E-2,-8.2143836E-2,3.5506946E-1,8.280874E-2,5.8571886E-2,-1.4208625E-1,7.7322155E-2,-5.0204147E-2,2.4058042E-1,1.3325118E-1,2.3918834E-1,3.45975E-1],"categories":[],"categories_nodes":[],"categories_segments":[],"categories_sizes":[],"default_left":[0,0,0,0,0,0,0,0,0,0,0,0,0,0,0,0,0,0,0,0,0,0,0,0,0,0,0,0,0,0,0],"id":24,"left_children":[1,3,5,7,9,11,13,15,17,19,21,23,25,27,29,-1,-1,-1,-1,-1,-1,-1,-1,-1,-1,-1,-1,-1,-1,-1,-1],"loss_changes":[1.3410484E4,1.6583027E3,2.7642573E3,5.7673193E2,3.8911066E2,3.4683264E2,7.5534766E2,1.05140625E2,1.9481934E2,2.2936969E2,9.7548676E1,2.6420758E2,1.8165646E2,3.1117676E2,1.5519336E2,0E0,0E0,0E0,0E0,0E0,0E0,0E0,0E0,0E0,0E0,0E0,0E0,0E0,0E0,0E0,0E0],"parents":[2147483647,0,0,1,1,2,2,3,3,4,4,5,5,6,6,7,7,8,8,9,9,10,10,11,11,12,12,13,13,14,14],"right_children":[2,4,6,8,10,12,14,16,18,20,22,24,26,28,30,-1,-1,-1,-1,-1,-1,-1,-1,-1,-1,-1,-1,-1,-1,-1,-1],"split_conditions":[2E0,1.008E2,2.72E1,8.56E1,1.253E2,8.92E1,3.49E1,3.02E1,3.05E1,2.4E1,2E1,1.54E2,1.638E2,1.54E2,1.206E2,-2.2296889E-1,-3.0308813E-1,-4.729923E-2,-1.6516839E-1,5.801758E-2,-8.2143836E-2,3.5506946E-1,8.280874E-2,5.8571886E-2,-1.4208625E-1,7.7322155E-2,-5.0204147E-2,2.4058042E-1,1.3325118E-1,2.3918834E-1,3.45975E-1],"split_indices":[0,4,6,4,4,5,6,6,6,1,1,3,3,3,4,0,0,0,0,0,0,0,0,0,0,0,0,0,0,0,0],"split_type":[0,0,0,0,0,0,0,0,0,0,0,0,0,0,0,0,0,0,0,0,0,0,0,0,0,0,0,0,0,0,0],"sum_hessian":[1.746E3,8.69E2,8.77E2,5.38E2,3.31E2,2.12E2,6.65E2,2.08E2,3.3E2,3.02E2,2.9E1,8.8E1,1.24E2,4.66E2,1.99E2,1.2E2,8.8E1,4.1E1,2.89E2,3.2E1,2.7E2,3E0,2.6E1,2.1E1,6.7E1,8.3E1,4.1E1,8.4E1,3.82E2,1.44E2,5.5E1],"tree_param":{"num_deleted":"0","num_feature":"8","num_nodes":"31","size_leaf_vector":"1"}},{"base_weights":[4.1016385E-2,-2.5649135E0,2.7620444E0,-3.8543026E0,-1.607251E0,-1.3070881E-1,3.762716E0,-3.156574E0,-5.024487E0,-2.0814698E0,2.0790593E-1,-5.874522E0,2.5466964E-1,3.0610597E0,5.332985E0,-2.9430667E-1,-1.468643E-1,-1.9602019E-1,-2.7589142E-1,3.3051935E-1,-1.0594418E-1,2.6779322E-2,-1.9775242E-1,-5.0702956E-2,-3.553958E-1,1.44304E-1,-1.4561186E-2,1.2768659E-1,2.3793404E-1,2.460265E-1,3.5767457E-1],"categories":[],"categories_nodes":[],"categories_segments":[],"categories_sizes":[],"default_left":[0,0,0,0,0,0,0,0,0,0,0,0,0,0,0,0,0,0,0,0,0,0,0,0,0,0,0,0,0,0,0],"id":25,"left_children":[1,3,5,7,9,11,13,15,17,19,21,23,25,27,29,-1,-1,-1,-1,-1,-1,-1,-1,-1,-1,-1,-1,-1,-1,-1,-1],"loss_changes":[1.2465635E4,1.1026553E3,2.4899307E3,2.9603174E2,4.454568E2,4.9290237E2,6.8771875E2,1.27562256E2,5.516919E1,1.4733679E2,1.494431E2,7.6720245E1,3.0106262E2,3.7024268E2,1.1197266E2,0E0,0E0,0E0,0E0,0E0,0E0,0E0,0E0,0E0,0E0,0E0,0E0,0E0,0E0,0E0,0E0],"parents":[2147483647,0,0,1,1,2,2,3,3,4,4,5,5,6,6,7,7,8,8,9,9,10,10,11,11,12,12,13,13,14,14],"right_children":[2,4,6,8,10,12,14,16,18,20,22,24,26,28,30,-1,-1,-1,-1,-1,-1,-1,-1,-1,-1,-1,-1,-1,-1,-1,-1],"split_conditions":[2E0,9.91E1,2.76E1,4.18E1,1.15E2,8.42E1,3.48E1,2.62E1,2.93E1,2.6E1,4.61E1,1.5E2,1.544E2,5.1E1,1.327E2,-2.9430667E-1,-1.468643E-1,-1.9602019E-1,-2.7589142E-1,3.3051935E-1,-1.0594418E-1,2.6779322E-2,-1.9775242E-1,-5.0702956E-2,-3.553958E-1,1.44304E-1,-1.4561186E-2,1.2768659E-1,2.3793404E-1,2.460265E-1,3.5767457E-1],"split_indices":[0,5,6,7,5,5,6,6,6,6,7,3,3,1,5,0,0,0,0,0,0,0,0,0,0,0,0,0,0,0,0],"split_type":[0,0,0,0,0,0,0,0,0,0,0,0,0,0,0,0,0,0,0,0,0,0,0,0,0,0,0,0,0,0,0],"sum_hessian":[1.756E3,8.97E2,8.59E2,3.81E2,5.16E2,2.21E2,6.38E2,2.41E2,1.4E2,4.09E2,1.07E2,1.3E1,2.08E2,4.43E2,1.95E2,1.6E1,2.25E2,4.6E1,9.4E1,1E0,4.08E2,1E2,7E0,3E0,1E1,3.5E1,1.73E2,3.43E2,1E2,1.62E2,3.3E1],"tree_param":{"num_deleted":"0","num_feature":"8","num_nodes":"31","size_leaf_vector":"1"}},{"base_weights":[8.173471E-2,-2.3879826E0,2.6272569E0,-3.7535813E0,-9.947924E-1,1.0711957E0,4.2483854E0,-4.7875414E0,-2.8144512E0,-1.767742E0,2.4695832E-1,-1.8054179E0,1.6403807E0,3.76054E0,6.1485825E0,-2.1891573E-1,-3.1984183E-1,-1.9531512E-1,-1.2193227E-1,-2.2812E-2,-1.2330476E-1,5.122986E-2,-6.1606597E-2,-2.3195632E-1,-5.207172E-2,3.0151165E-1,6.83016E-2,8.986323E-3,1.9529516E-1,2.5530866E-1,3.4782434E-1],"categories":[],"categories_nodes":[],"categories_segments":[],"categories_sizes":[],"default_left":[0,0,0,0,0,0,0,0,0,0,0,0,0,0,0,0,0,0,0,0,0,0,0,0,0,0,0,0,0,0,0],"id":26,"left_children":[1,3,5,7,9,11,13,15,17,19,21,23,25,27,29,-1,-1,-1,-1,-1,-1,-1,-1,-1,-1,-1,-1,-1,-1,-1,-1],"loss_changes":[1.0800572E4,1.6552798E3,2.1295479E3,4.1377588E2,4.1603467E2,7.119235E2,3.6065723E2,1.0897461E2,8.607922E1,2.4341797E2,1.9334554E2,1.5104192E2,4.2773737E2,1.7210986E2,3.4378906E1,0E0,0E0,0E0,0E0,0E0,0E0,0E0,0E0,0E0,0E0,0E0,0E0,0E0,0E0,0E0,0E0],"parents":[2147483647,0,0,1,1,2,2,3,3,4,4,5,5,6,6,7,7,8,8,9,9,10,10,11,11,12,12,13,13,14,14],"right_children":[2,4,6,8,10,12,14,16,18,20,22,24,26,28,30,-1,-1,-1,-1,-1,-1,-1,-1,-1,-1,-1,-1,-1,-1,-1,-1],"split_conditions":[2E0,9.66E1,3.09E1,8.56E1,1.095E2,7.2E1,1.13E2,3.23E1,1.672E2,8.62E1,1.784E2,8.42E1,1.495E2,8.43E1,3.95E1,-2.1891573E-1,-3.1984183E-1,-1.9531512E-1,-1.2193227E-1,-2.2812E-2,-1.2330476E-1,5.122986E-2,-6.1606597E-2,-2.3195632E-1,-5.207172E-2,3.0151165E-1,6.83016E-2,8.986323E-3,1.9529516E-1,2.5530866E-1,3.4782434E-1],"split_indices":[0,4,6,4,4,4,4,6,3,2,3,5,3,4,6,0,0,0,0,0,0,0,0,0,0,0,0,0,0,0,0],"split_type":[0,0,0,0,0,0,0,0,0,0,0,0,0,0,0,0,0,0,0,0,0,0,0,0,0,0,0,0,0,0,0],"sum_hessian":[1.716E3,8.71E2,8.45E2,4.39E2,4.32E2,4.32E2,4.13E2,2.07E2,2.32E2,2.66E2,1.66E2,7.1E1,3.61E2,3.31E2,8.2E1,1.68E2,3.9E1,5.7E1,1.75E2,9.3E1,1.73E2,1.09E2,5.7E1,1.4E1,5.7E1,2E1,3.41E2,1.3E1,3.18E2,3.9E1,4.3E1],"tree_param":{"num_deleted":"0","num_feature":"8","num_nodes":"31","size_leaf_vector":"1"}},{"base_weights":[4.9748607E-2,-2.332921E0,2.4323618E0,-3.5567896E0,-1.3480893E0,-2.3770216E-1,3.3538547E0,-4.610326E0,-3.1971824E0,-8.465161E-1,-2.6031413E0,-7.504814E-1,2.429631E0,2.5498497E0,4.559336E0,-2.0508543E-1,-2.9657102E-1,3.2282668E-1,-1.6258045E-1,-5.410042E-2,1.5642653E-1,-1.7301981E-1,-4.4398915E-2,2.340056E-1,-4.754119E-2,-1.5605375E-1,1.8023205E-1,1.0514613E-1,1.9742358E-1,1.8927893E-1,2.6032853E-1],"categories":[],"categories_nodes":[],"categories_segments":[],"categories_sizes":[],"default_left":[0,0,0,0,0,0,0,0,0,0,0,0,0,0,0,0,0,0,0,0,0,0,0,0,0,0,0,0,0,0,0],"id":27,"left_children":[1,3,5,7,9,11,13,15,17,19,21,23,25,27,29,-1,-1,-1,-1,-1,-1,-1,-1,-1,-1,-1,-1,-1,-1,-1,-1],"loss_changes":[1.0048253E4,1.0618999E3,2.1782905E3,1.3453027E2,3.0751074E2,3.136711E2,6.261167E2,4.1520264E1,1.7704321E2,3.338258E2,2.0277362E2,2.1334164E2,2.5256937E2,2.3985425E2,1.1150049E2,0E0,0E0,0E0,0E0,0E0,0E0,0E0,0E0,0E0,0E0,0E0,0E0,0E0,0E0,0E0,0E0],"parents":[2147483647,0,0,1,1,2,2,3,3,4,4,5,5,6,6,7,7,8,8,9,9,10,10,11,11,12,12,13,13,14,14],"right_children":[2,4,6,8,10,12,14,16,18,20,22,24,26,28,30,-1,-1,-1,-1,-1,-1,-1,-1,-1,-1,-1,-1,-1,-1,-1,-1],"split_conditions":[2E0,8.02E1,2.76E1,6.44E1,1.787E2,5.4E1,3.38E1,2.95E1,2.6E1,1.207E2,1.075E2,1.503E2,4.77E1,5.1E1,3.68E1,-2.0508543E-1,-2.9657102E-1,3.2282668E-1,-1.6258045E-1,-5.410042E-2,1.5642653E-1,-1.7301981E-1,-4.4398915E-2,2.340056E-1,-4.754119E-2,-1.5605375E-1,1.8023205E-1,1.0514613E-1,1.9742358E-1,1.8927893E-1,2.6032853E-1],"split_indices":[0,2,6,2,3,1,6,6,6,2,2,3,2,1,6,0,0,0,0,0,0,0,0,0,0,0,0,0,0,0,0],"split_type":[0,0,0,0,0,0,0,0,0,0,0,0,0,0,0,0,0,0,0,0,0,0,0,0,0,0,0,0,0,0,0],"sum_hessian":[1.768E3,8.84E2,8.84E2,3.93E2,4.91E2,2.27E2,6.57E2,9.7E1,2.96E2,3.52E2,1.39E2,1.91E2,3.6E1,3.96E2,2.61E2,7.3E1,2.4E1,1E0,2.95E2,3.33E2,1.9E1,9.2E1,4.7E1,6E0,1.85E2,6E0,3E1,3.02E2,9.4E1,1.22E2,1.39E2],"tree_param":{"num_deleted":"0","num_feature":"8","num_nodes":"31","size_leaf_vector":"1"}},{"base_weights":[1.0102606E-2,-2.250875E0,2.3000553E0,-3.3750784E0,-1.0846393E0,2.833483E-1,3.4694462E0,-4.6152577E0,-2.8659713E0,-1.791645E0,1.2275824E-1,4.4446917E0,4.6594348E-2,2.6104846E0,4.4012403E0,-9.035673E-2,-2.4598153E-1,-1.1845382E-1,-2.2584943E-1,-3.2338616E-2,-1.2469456E-1,1.8097378E-2,-1.4187367E-1,-3.3053018E-3,2.918857E-1,-7.376751E-2,2.624531E-2,1.0094591E-1,1.8341E-1,1.9707932E-1,2.7701598E-1],"categories":[],"categories_nodes":[],"categories_segments":[],"categories_sizes":[],"default_left":[0,0,0,0,0,0,0,0,0,0,0,0,0,0,0,0,0,0,0,0,0,0,0,0,0,0,0,0,0,0,0],"id":28,"left_children":[1,3,5,7,9,11,13,15,17,19,21,23,25,27,29,-1,-1,-1,-1,-1,-1,-1,-1,-1,-1,-1,-1,-1,-1,-1,-1],"loss_changes":[8.941597E3,1.1356729E3,2.0224546E3,2.658452E2,3.655766E2,3.1112067E2,4.2311426E2,9.965845E1,2.4853955E2,2.1546228E2,1.1360789E2,1.07207855E2,2.1916367E2,1.7092126E2,1.1377051E2,0E0,0E0,0E0,0E0,0E0,0E0,0E0,0E0,0E0,0E0,0E0,0E0,0E0,0E0,0E0,0E0],"parents":[2147483647,0,0,1,1,2,2,3,3,4,4,5,5,6,6,7,7,8,8,9,9,10,10,11,11,12,12,13,13,14,14],"right_children":[2,4,6,8,10,12,14,16,18,20,22,24,26,28,30,-1,-1,-1,-1,-1,-1,-1,-1,-1,-1,-1,-1,-1,-1,-1,-1],"split_conditions":[2E0,9.66E1,8.46E1,8.02E1,1.104E2,1.503E2,3.37E1,3.85E1,3.42E1,8.62E1,1.838E2,7.07E1,2.5E1,9.53E1,3.93E1,-9.035673E-2,-2.4598153E-1,-1.1845382E-1,-2.2584943E-1,-3.2338616E-2,-1.2469456E-1,1.8097378E-2,-1.4187367E-1,-3.3053018E-3,2.918857E-1,-7.376751E-2,2.624531E-2,1.0094591E-1,1.8341E-1,1.9707932E-1,2.7701598E-1],"split_indices":[0,4,4,4,4,3,6,7,6,2,3,4,6,4,6,0,0,0,0,0,0,0,0,0,0,0,0,0,0,0,0],"split_type":[0,0,0,0,0,0,0,0,0,0,0,0,0,0,0,0,0,0,0,0,0,0,0,0,0,0,0,0,0,0,0],"sum_hessian":[1.725E3,8.68E2,8.57E2,4.41E2,4.27E2,3.15E2,5.42E2,1.26E2,3.15E2,2.69E2,1.58E2,1.6E1,2.99E2,2.84E2,2.58E2,1.3E1,1.13E2,2.44E2,7.1E1,1.03E2,1.66E2,1.47E2,1.1E1,4E0,1.2E1,7.1E1,2.28E2,1.84E2,1E2,1.87E2,7.1E1],"tree_param":{"num_deleted":"0","num_feature":"8","num_nodes":"31","size_leaf_vector":"1"}},{"base_weights":[9.474513E-2,1.7945472E0,-9.100511E-1,5.983738E-1,3.2825196E0,-2.8856733E0,1.4801218E-1,3.197309E0,1.4077355E-1,2.8525977E0,5.887468E0,-2.1312866E0,-4.0306163E0,1.4261837E0,-1.0115743E0,2.7707484E-1,9.3564235E-2,-3.0393338E-2,7.1902715E-2,2.3385596E-1,1.1447579E-1,1.7531824E-1,3.45203E-1,-1.5243994E-1,-5.6497853E-2,-2.2525887E-1,-6.6584E-2,2.468074E-2,1.4227793E-1,-9.574532E-2,5.9117614E-3],"categories":[],"categories_nodes":[],"categories_segments":[],"categories_sizes":[],"default_left":[0,0,0,0,0,0,0,0,0,0,0,0,0,0,0,0,0,0,0,0,0,0,0,0,0,0,0,0,0,0,0],"id":29,"left_children":[1,3,5,7,9,11,13,15,17,19,21,23,25,27,29,-1,-1,-1,-1,-1,-1,-1,-1,-1,-1,-1,-1,-1,-1,-1,-1],"loss_changes":[2.9837222E3,1.1531733E3,2.2956128E3,4.2887762E2,3.0686353E2,3.2221802E2,1.0626624E3,1.5748657E2,3.0000272E2,2.461305E2,7.261621E1,2.1061963E2,1.8740308E2,4.4996503E2,3.8396942E2,0E0,0E0,0E0,0E0,0E0,0E0,0E0,0E0,0E0,0E0,0E0,0E0,0E0,0E0,0E0,0E0],"parents":[2147483647,0,0,1,1,2,2,3,3,4,4,5,5,6,6,7,7,8,8,9,9,10,10,11,11,12,12,13,13,14,14],"right_children":[2,4,6,8,10,12,14,16,18,20,22,24,26,28,30,-1,-1,-1,-1,-1,-1,-1,-1,-1,-1,-1,-1,-1,-1,-1,-1],"split_conditions":[3.85E1,1.008E2,9.92E1,3.39E1,1.27E2,4.17E1,1.715E2,1.495E2,9.61E1,1.545E2,3.93E1,9.42E1,9.12E1,1.112E2,1.057E2,2.7707484E-1,9.3564235E-2,-3.0393338E-2,7.1902715E-2,2.3385596E-1,1.1447579E-1,1.7531824E-1,3.45203E-1,-1.5243994E-1,-5.6497853E-2,-2.2525887E-1,-6.6584E-2,2.468074E-2,1.4227793E-1,-9.574532E-2,5.9117614E-3],"split_indices":[7,5,5,7,5,7,3,3,5,3,6,5,4,5,4,0,0,0,0,0,0,0,0,0,0,0,0,0,0,0,0],"split_type":[0,0,0,0,0,0,0,0,0,0,0,0,0,0,0,0,0,0,0,0,0,0,0,0,0,0,0,0,0,0,0],"sum_hessian":[1.745E3,6.48E2,1.097E3,3.6E2,2.88E2,3.82E2,7.15E2,5.3E1,3.07E2,2.49E2,3.9E1,2.32E2,1.5E2,3.4E2,3.75E2,1.8E1,3.5E1,1.95E2,1.12E2,5.7E1,1.92E2,1.3E1,2.6E1,1.2E2,1.12E2,1.27E2,2.3E1,2.06E2,1.34E2,2.08E2,1.67E2],"tree_param":{"num_deleted":"0","num_feature":"8","num_nodes":"31","size_leaf_vector":"1"}},{"base_weights":[1.8590871E-2,-2.0385017E0,2.0968208E0,-3.11498E0,-1.2647439E0,7.0019525E-1,3.4950402E0,-2.8137012E0,-4.714723E0,1.1266488E0,-1.5583192E0,-1.454067E0,1.2367716E0,3.28918E0,6.3845963E0,-2.186786E-1,-1.23945296E-1,-2.5516054E-1,-1.3131063E-1,-2.6048142E-2,1.6282152E-1,-9.28463E-2,-4.734924E-3,3.242614E-2,-1.1976766E-1,2.7329287E-1,5.095596E-2,2.54274E-1,1.4617364E-1,3.7220296E-1,2.3967078E-1],"categories":[],"categories_nodes":[],"categories_segments":[],"categories_sizes":[],"default_left":[0,0,0,0,0,0,0,0,0,0,0,0,0,0,0,0,0,0,0,0,0,0,0,0,0,0,0,0,0,0,0],"id":30,"left_children":[1,3,5,7,9,11,13,15,17,19,21,23,25,27,29,-1,-1,-1,-1,-1,-1,-1,-1,-1,-1,-1,-1,-1,-1,-1,-1],"loss_changes":[7.5199204E3,7.323733E2,1.7062434E3,1.6458081E2,3.6401556E2,5.0924997E2,2.3894629E2,1.5261841E2,3.2845337E1,2.017125E2,2.0086572E2,1.7571762E2,3.1843542E2,2.5446973E2,1.1519775E1,0E0,0E0,0E0,0E0,0E0,0E0,0E0,0E0,0E0,0E0,0E0,0E0,0E0,0E0,0E0,0E0],"parents":[2147483647,0,0,1,1,2,2,3,3,4,4,5,5,6,6,7,7,8,8,9,9,10,10,11,11,12,12,13,13,14,14],"right_children":[2,4,6,8,10,12,14,16,18,20,22,24,26,28,30,-1,-1,-1,-1,-1,-1,-1,-1,-1,-1,-1,-1,-1,-1,-1,-1],"split_conditions":[2E0,9.91E1,3.09E1,1.783E2,2.2E1,8.92E1,1.134E2,8.86E1,4.4E1,3.64E1,1.16E2,1.546E2,1.495E2,1.545E2,4E1,-2.186786E-1,-1.23945296E-1,-2.5516054E-1,-1.3131063E-1,-2.6048142E-2,1.6282152E-1,-9.28463E-2,-4.734924E-3,3.242614E-2,-1.1976766E-1,2.7329287E-1,5.095596E-2,2.54274E-1,1.4617364E-1,3.7220296E-1,2.3967078E-1],"split_indices":[0,5,6,3,1,5,2,5,1,6,5,3,3,3,1,0,0,0,0,0,0,0,0,0,0,0,0,0,0,0,0],"split_type":[0,0,0,0,0,0,0,0,0,0,0,0,0,0,0,0,0,0,0,0,0,0,0,0,0,0,0,0,0,0,0],"sum_hessian":[1.757E3,8.83E2,8.74E2,3.68E2,5.15E2,4.38E2,4.36E2,3.12E2,5.6E1,5.6E1,4.59E2,8.7E1,3.51E2,4.09E2,2.7E1,5.3E1,2.59E2,4.6E1,1E1,3.2E1,2.4E1,3.81E2,7.8E1,2.7E1,6E1,1.6E1,3.35E2,6.7E1,3.42E2,1.4E1,1.3E1],"tree_param":{"num_deleted":"0","num_feature":"8","num_nodes":"31","size_leaf_vector":"1"}},{"base_weights":[2.3612037E-2,-1.8788595E0,1.9412417E0,-2.496422E0,-2.7609107E-1,9.8544776E-1,3.4407141E0,-3.4846113E0,-1.8877617E0,3.4564462E0,-5.3231734E-1,-1.6791332E0,1.4016391E0,3.2108903E0,5.7161913E0,-2.5504693E-1,-1.5886922E-1,1.7048365E-2,-1.05209425E-1,2.7836266E-1,5.9806168E-2,-3.3043925E-2,1.5750019E-1,1.7114814E-2,-1.472259E-1,4.8719656E-2,1.297422E-1,1.4050351E-1,2.2200072E-1,3.085967E-1,6.054392E-2],"categories":[],"categories_nodes":[],"categories_segments":[],"categories_sizes":[],"default_left":[0,0,0,0,0,0,0,0,0,0,0,0,0,0,0,0,0,0,0,0,0,0,0,0,0,0,0,0,0,0,0],"id":31,"left_children":[1,3,5,7,9,11,13,15,17,19,21,23,25,27,29,-1,-1,-1,-1,-1,-1,-1,-1,-1,-1,-1,-1,-1,-1,-1,-1],"loss_changes":[6.4245425E3,8.7430273E2,1.2535139E3,3.7716064E2,2.3806436E2,5.978734E2,1.5997485E2,1.0396484E2,1.9221301E2,6.967856E1,1.1191135E2,1.8773357E2,2.3452496E2,1.4123242E2,5.412451E1,0E0,0E0,0E0,0E0,0E0,0E0,0E0,0E0,0E0,0E0,0E0,0E0,0E0,0E0,0E0,0E0],"parents":[2147483647,0,0,1,1,2,2,3,3,4,4,5,5,6,6,7,7,8,8,9,9,10,10,11,11,12,12,13,13,14,14],"right_children":[2,4,6,8,10,12,14,16,18,20,22,24,26,28,30,-1,-1,-1,-1,-1,-1,-1,-1,-1,-1,-1,-1,-1,-1,-1,-1],"split_conditions":[2E0,1.052E2,9.45E1,8.75E1,2.1E1,7.2E1,1.264E2,7.32E1,2.2E1,1.736E2,1.348E2,2.4E1,4.8E1,5.1E1,1.704E2,-2.5504693E-1,-1.5886922E-1,1.7048365E-2,-1.05209425E-1,2.7836266E-1,5.9806168E-2,-3.3043925E-2,1.5750019E-1,1.7114814E-2,-1.472259E-1,4.8719656E-2,1.297422E-1,1.4050351E-1,2.2200072E-1,3.085967E-1,6.054392E-2],"split_indices":[0,4,4,4,1,4,4,4,1,3,4,1,1,1,3,0,0,0,0,0,0,0,0,0,0,0,0,0,0,0,0],"split_type":[0,0,0,0,0,0,0,0,0,0,0,0,0,0,0,0,0,0,0,0,0,0,0,0,0,0,0,0,0,0,0],"sum_hessian":[1.759E3,8.83E2,8.76E2,6.37E2,2.46E2,5.36E2,3.4E2,2.41E2,3.96E2,1.5E1,2.31E2,7.2E1,4.64E2,3.11E2,2.9E1,3.6E1,2.05E2,3.5E1,3.61E2,7E0,8E0,2.24E2,7E0,2.8E1,4.4E1,3.43E2,1.21E2,2.37E2,7.4E1,2.6E1,3E0],"tree_param":{"num_deleted":"0","num_feature":"8","num_nodes":"31","size_leaf_vector":"1"}},{"base_weights":[6.0179766E-2,1.055077E0,-1.337169E0,1.2887262E-1,2.7740622E0,-2.1365597E0,3.180866E-1,1.9363706E0,-4.4387847E-1,2.4566014E0,5.901663E0,-4.440819E0,-1.8976697E0,4.909199E0,9.32179E-2,4.7124278E-2,1.5184776E-1,-1.8633828E-1,-5.623171E-3,3.0221465E-1,1.1129041E-1,9.677951E-2,3.050774E-1,-2.3833115E-1,4.5166495E-3,-2.0333843E-2,-1.17407836E-1,3.144096E-1,9.983845E-2,3.377046E-2,-5.807027E-2],"categories":[],"categories_nodes":[],"categories_segments":[],"categories_sizes":[],"default_left":[0,0,0,0,0,0,0,0,0,0,0,0,0,0,0,0,0,0,0,0,0,0,0,0,0,0,0,0,0,0,0],"id":32,"left_children":[1,3,5,7,9,11,13,15,17,19,21,23,25,27,29,-1,-1,-1,-1,-1,-1,-1,-1,-1,-1,-1,-1,-1,-1,-1,-1],"loss_changes":[2.4134397E3,1.6140637E3,9.5602673E2,6.8412213E2,3.3797827E2,2.5964893E2,2.4318817E2,1.7106067E2,5.45756E2,2.5482349E2,1.3558228E1,6.686273E1,2.965962E2,3.1622345E1,1.6586174E2,0E0,0E0,0E0,0E0,0E0,0E0,0E0,0E0,0E0,0E0,0E0,0E0,0E0,0E0,0E0,0E0],"parents":[2147483647,0,0,1,1,2,2,3,3,4,4,5,5,6,6,7,7,8,8,9,9,10,10,11,11,12,12,13,13,14,14],"right_children":[2,4,6,8,10,12,14,16,18,20,22,24,26,28,30,-1,-1,-1,-1,-1,-1,-1,-1,-1,-1,-1,-1,-1,-1,-1,-1],"split_conditions":[1.693E2,1.049E2,1.042E2,1.557E2,1.327E2,7.58E1,3.75E1,9.56E1,8.76E1,1.516E2,3.04E1,9.46E1,3.05E1,1.712E2,1.787E2,4.7124278E-2,1.5184776E-1,-1.8633828E-1,-5.623171E-3,3.0221465E-1,1.1129041E-1,9.677951E-2,3.050774E-1,-2.3833115E-1,4.5166495E-3,-2.0333843E-2,-1.17407836E-1,3.144096E-1,9.983845E-2,3.377046E-2,-5.807027E-2],"split_indices":[3,5,4,3,5,4,7,5,5,3,7,5,6,3,3,0,0,0,0,0,0,0,0,0,0,0,0,0,0,0,0],"split_type":[0,0,0,0,0,0,0,0,0,0,0,0,0,0,0,0,0,0,0,0,0,0,0,0,0,0,0,0,0,0,0],"sum_hessian":[1.734E3,1.013E3,7.21E2,6.59E2,3.54E2,4.86E2,2.35E2,1.58E2,5.01E2,3.23E2,3.1E1,4.4E1,4.42E2,1E1,2.25E2,8.4E1,7.4E1,4.5E1,4.56E2,1.8E1,3.05E2,2E0,2.9E1,4.1E1,3E0,1.03E2,3.39E2,6E0,4E0,1.54E2,7.1E1],"tree_param":{"num_deleted":"0","num_feature":"8","num_nodes":"31","size_leaf_vector":"1"}},{"base_weights":[-5.3669777E-2,-1.876339E0,1.7753316E0,-3.0723126E0,-9.605437E-1,-1.2055539E0,2.4012947E0,-2.784724E0,-4.49781E0,-1.4979992E0,1.2996085E-1,-3.2141402E0,-6.431464E-1,1.829941E0,3.7286263E0,-2.3869231E-1,-1.2688272E-1,1.7675844E-1,-2.3437257E-1,-6.0466375E-2,-1.6593127E-1,-6.2335944E-3,2.0446177E-1,-6.0602225E-2,-3.1005266E-1,-1.4244999E-2,-2.514932E-1,-1.2322378E-1,9.651756E-2,2.2577488E-1,1.4788215E-1],"categories":[],"categories_nodes":[],"categories_segments":[],"categories_sizes":[],"default_left":[0,0,0,0,0,0,0,0,0,0,0,0,0,0,0,0,0,0,0,0,0,0,0,0,0,0,0,0,0,0,0],"id":33,"left_children":[1,3,5,7,9,11,13,15,17,19,21,23,25,27,29,-1,-1,-1,-1,-1,-1,-1,-1,-1,-1,-1,-1,-1,-1,-1,-1],"loss_changes":[5.8239097E3,9.554075E2,1.6299802E3,1.4284814E2,2.9148523E2,1.696387E2,5.399658E2,1.4416748E2,1.11020996E2,1.7099933E2,1.6685637E2,1.8982687E2,1.8715012E2,2.2294617E2,1.17684326E2,0E0,0E0,0E0,0E0,0E0,0E0,0E0,0E0,0E0,0E0,0E0,0E0,0E0,0E0,0E0,0E0],"parents":[2147483647,0,0,1,1,2,2,3,3,4,4,5,5,6,6,7,7,8,8,9,9,10,10,11,11,12,12,13,13,14,14],"right_children":[2,4,6,8,10,12,14,16,18,20,22,24,26,28,30,-1,-1,-1,-1,-1,-1,-1,-1,-1,-1,-1,-1,-1,-1,-1,-1],"split_conditions":[2E0,9.4E1,7.67E1,3.4E1,1.098E2,6.95E1,3.45E1,7.14E1,1.9E1,1.8E2,4.42E1,2.9E1,7.62E1,2.5E1,1.614E2,-2.3869231E-1,-1.2688272E-1,1.7675844E-1,-2.3437257E-1,-6.0466375E-2,-1.6593127E-1,-6.2335944E-3,2.0446177E-1,-6.0602225E-2,-3.1005266E-1,-1.4244999E-2,-2.514932E-1,-1.2322378E-1,9.651756E-2,2.2577488E-1,1.4788215E-1],"split_indices":[0,4,4,6,4,4,6,4,1,3,6,1,4,6,3,0,0,0,0,0,0,0,0,0,0,0,0,0,0,0,0],"split_type":[0,0,0,0,0,0,0,0,0,0,0,0,0,0,0,0,0,0,0,0,0,0,0,0,0,0,0,0,0,0,0],"sum_hessian":[1.745E3,8.74E2,8.71E2,3.78E2,4.96E2,1.51E2,7.2E2,3.17E2,6.1E1,3.32E2,1.64E2,3.2E1,1.19E2,5.05E2,2.15E2,3.3E1,2.84E2,1E0,6E1,2.88E2,4.4E1,1.55E2,9E0,2E1,1.2E1,1.11E2,8E0,1.1E1,4.94E2,1.04E2,1.11E2],"tree_param":{"num_deleted":"0","num_feature":"8","num_nodes":"31","size_leaf_vector":"1"}},{"base_weights":[2.752791E-2,1.049129E0,-9.929279E-1,4.6206555E-1,2.317985E0,-2.7640793E0,-2.5573483E-1,1.9098849E0,-1.2339298E-3,3.4900773E0,1.4090301E0,-2.3395126E0,-4.6422296E0,9.939816E-1,-9.316321E-1,5.9951574E-2,1.966595E-1,-1.4603792E-1,1.1812115E-2,1.3679834E-1,2.576361E-1,1.7453631E-2,1.1567048E-1,-1.856613E-1,-8.277644E-2,-2.458498E-1,1.9305639E-1,3.4025814E-2,1.9361627E-1,-7.914411E-2,6.2910835E-3],"categories":[],"categories_nodes":[],"categories_segments":[],"categories_sizes":[],"default_left":[0,0,0,0,0,0,0,0,0,0,0,0,0,0,0,0,0,0,0,0,0,0,0,0,0,0,0,0,0,0,0],"id":34,"left_children":[1,3,5,7,9,11,13,15,17,19,21,23,25,27,29,-1,-1,-1,-1,-1,-1,-1,-1,-1,-1,-1,-1,-1,-1,-1,-1],"loss_changes":[1.8087346E3,6.447563E2,1.1326238E3,3.9844208E2,2.8699622E2,1.9247644E2,5.195595E2,2.0239539E2,3.1337625E2,1.3510657E2,1.4873465E2,1.9116833E2,1.2646124E2,1.9225319E2,2.7497733E2,0E0,0E0,0E0,0E0,0E0,0E0,0E0,0E0,0E0,0E0,0E0,0E0,0E0,0E0,0E0,0E0],"parents":[2147483647,0,0,1,1,2,2,3,3,4,4,5,5,6,6,7,7,8,8,9,9,10,10,11,11,12,12,13,13,14,14],"right_children":[2,4,6,8,10,12,14,16,18,20,22,24,26,28,30,-1,-1,-1,-1,-1,-1,-1,-1,-1,-1,-1,-1,-1,-1,-1,-1],"split_conditions":[3.97E1,9.92E1,8.68E1,1.554E2,1.612E2,3.23E1,1.714E2,3.17E1,2.43E1,1.115E2,1.073E2,7.55E1,8.63E1,1.193E2,1.057E2,5.9951574E-2,1.966595E-1,-1.4603792E-1,1.1812115E-2,1.3679834E-1,2.576361E-1,1.7453631E-2,1.1567048E-1,-1.856613E-1,-8.277644E-2,-2.458498E-1,1.9305639E-1,3.4025814E-2,1.9361627E-1,-7.914411E-2,6.2910835E-3],"split_indices":[7,4,4,3,3,6,3,6,6,4,4,4,2,4,4,0,0,0,0,0,0,0,0,0,0,0,0,0,0,0,0],"split_type":[0,0,0,0,0,0,0,0,0,0,0,0,0,0,0,0,0,0,0,0,0,0,0,0,0,0,0,0,0,0,0],"sum_hessian":[1.733E3,8.66E2,8.67E2,5.93E2,2.73E2,2.54E2,6.13E2,1.43E2,4.5E2,1.18E2,1.55E2,2.09E2,4.5E1,2.15E2,3.98E2,1.07E2,3.6E1,3.3E1,4.17E2,8.3E1,3.5E1,7.2E1,8.3E1,6.8E1,1.41E2,4.4E1,1E0,1.95E2,2E1,2.46E2,1.52E2],"tree_param":{"num_deleted":"0","num_feature":"8","num_nodes":"31","size_leaf_vector":"1"}},{"base_weights":[-4.635656E-2,-1.7451193E0,1.7310153E0,-2.5147414E0,-4.826987E-1,4.4774404E-1,2.5063376E0,-3.273669E0,-2.0169702E0,-7.6665306E-1,1.7576277E0,-1.5301596E0,8.709687E-1,1.8305738E0,2.988421E0,-1.3617663E-1,-2.290334E-1,-9.402042E-2,-2.807862E-1,9.230032E-2,-5.392592E-2,4.0133905E-2,2.0577191E-1,1.8283142E-2,-1.4395711E-1,1.6390829E-1,2.6676908E-2,6.860574E-2,1.2973554E-1,2.600511E-1,1.4016362E-1],"categories":[],"categories_nodes":[],"categories_segments":[],"categories_sizes":[],"default_left":[0,0,0,0,0,0,0,0,0,0,0,0,0,0,0,0,0,0,0,0,0,0,0,0,0,0,0,0,0,0,0],"id":35,"left_children":[1,3,5,7,9,11,13,15,17,19,21,23,25,27,29,-1,-1,-1,-1,-1,-1,-1,-1,-1,-1,-1,-1,-1,-1,-1,-1],"loss_changes":[5.344221E3,8.780725E2,8.5950854E2,2.0570508E2,2.2018326E2,2.7506366E2,1.7012207E2,1.4642969E2,1.5751709E2,2.513191E2,8.450864E1,1.493838E2,2.1756168E2,7.596356E1,1.136438E2,0E0,0E0,0E0,0E0,0E0,0E0,0E0,0E0,0E0,0E0,0E0,0E0,0E0,0E0,0E0,0E0],"parents":[2147483647,0,0,1,1,2,2,3,3,4,4,5,5,6,6,7,7,8,8,9,9,10,10,11,11,12,12,13,13,14,14],"right_children":[2,4,6,8,10,12,14,16,18,20,22,24,26,28,30,-1,-1,-1,-1,-1,-1,-1,-1,-1,-1,-1,-1,-1,-1,-1,-1],"split_conditions":[2E0,1.006E2,8.56E1,8.56E1,1.253E2,7.2E1,3.28E1,3.13E1,3.88E1,3.85E1,4.32E1,4.85E1,5.09E1,9.32E1,7.21E1,-1.3617663E-1,-2.290334E-1,-9.402042E-2,-2.807862E-1,9.230032E-2,-5.392592E-2,4.0133905E-2,2.0577191E-1,1.8283142E-2,-1.4395711E-1,1.6390829E-1,2.6676908E-2,6.860574E-2,1.2973554E-1,2.600511E-1,1.4016362E-1],"split_indices":[0,4,4,4,4,4,6,6,6,7,6,2,2,4,2,0,0,0,0,0,0,0,0,0,0,0,0,0,0,0,0],"split_type":[0,0,0,0,0,0,0,0,0,0,0,0,0,0,0,0,0,0,0,0,0,0,0,0,0,0,0,0,0,0,0],"sum_hessian":[1.768E3,9.04E2,8.64E2,5.61E2,3.43E2,3.26E2,5.38E2,2.2E2,3.41E2,3.05E2,3.8E1,5.7E1,2.69E2,2.26E2,3.12E2,1.57E2,6.3E1,3.3E2,1.1E1,3.2E1,2.73E2,2.8E1,1E1,2.4E1,3.3E1,3.2E1,2.37E2,1.43E2,8.3E1,2.2E1,2.9E2],"tree_param":{"num_deleted":"0","num_feature":"8","num_nodes":"31","size_leaf_vector":"1"}},{"base_weights":[7.1599506E-2,-1.5594165E0,1.7735285E0,-2.4700563E0,-6.8151855E-1,9.9068135E-1,2.9859648E0,-3.1041796E0,-1.8532927E0,-8.80534E-1,1.8780881E0,-6.464815E-1,1.4439048E0,2.6687138E0,4.507568E0,-1.3893306E-1,-2.3977661E-1,-7.170847E-2,-1.7396438E-1,2.90019E-1,-4.631336E-2,1.9809447E-1,3.9991572E-2,7.939985E-2,-7.1840666E-2,2.5953257E-1,6.283543E-2,1.43832E-1,5.9227077E-3,3.0045202E-1,1.7174989E-1],"categories":[],"categories_nodes":[],"categories_segments":[],"categories_sizes":[],"default_left":[0,0,0,0,0,0,0,0,0,0,0,0,0,0,0,0,0,0,0,0,0,0,0,0,0,0,0,0,0,0,0],"id":36,"left_children":[1,3,5,7,9,11,13,15,17,19,21,23,25,27,29,-1,-1,-1,-1,-1,-1,-1,-1,-1,-1,-1,-1,-1,-1,-1,-1],"loss_changes":[4.8216816E3,7.0742773E2,8.0382153E2,1.6437744E2,2.324125E2,3.8528986E2,1.4871973E2,1.0394531E2,1.4698291E2,1.3400482E2,7.097796E1,2.0183731E2,2.782356E2,1.4707288E2,6.9543335E1,0E0,0E0,0E0,0E0,0E0,0E0,0E0,0E0,0E0,0E0,0E0,0E0,0E0,0E0,0E0,0E0],"parents":[2147483647,0,0,1,1,2,2,3,3,4,4,5,5,6,6,7,7,8,8,9,9,10,10,11,11,12,12,13,13,14,14],"right_children":[2,4,6,8,10,12,14,16,18,20,22,24,26,28,30,-1,-1,-1,-1,-1,-1,-1,-1,-1,-1,-1,-1,-1,-1,-1,-1],"split_conditions":[2E0,9.66E1,9.45E1,8.66E1,1.264E2,7.5E1,1.206E2,3.28E1,3.5E1,2.81E1,1.723E2,1.557E2,5.12E1,1.037E2,3.69E1,-1.3893306E-1,-2.3977661E-1,-7.170847E-2,-1.7396438E-1,2.90019E-1,-4.631336E-2,1.9809447E-1,3.9991572E-2,7.939985E-2,-7.1840666E-2,2.5953257E-1,6.283543E-2,1.43832E-1,5.9227077E-3,3.0045202E-1,1.7174989E-1],"split_indices":[0,4,4,4,4,4,4,6,6,6,3,3,2,2,7,0,0,0,0,0,0,0,0,0,0,0,0,0,0,0,0],"split_type":[0,0,0,0,0,0,0,0,0,0,0,0,0,0,0,0,0,0,0,0,0,0,0,0,0,0,0,0,0,0,0],"sum_hessian":[1.735E3,8.86E2,8.49E2,4.34E2,4.52E2,5.17E2,3.32E2,2.12E2,2.22E2,4.2E2,3.2E1,1.12E2,4.05E2,2.77E2,5.5E1,1.8E2,3.2E1,1.78E2,4.4E1,2E0,4.18E2,1E1,2.2E1,2.9E1,8.3E1,1.8E1,3.87E2,2.56E2,2.1E1,2.1E1,3.4E1],"tree_param":{"num_deleted":"0","num_feature":"8","num_nodes":"31","size_leaf_vector":"1"}},{"base_weights":[-7.902069E-2,-1.6004307E0,1.5381353E0,-2.8206778E0,-1.0779719E0,1.2793282E-1,2.25436E0,-3.9492342E0,-2.4618442E0,1.2727236E0,-1.2875881E0,1.7362187E0,-4.9726528E-1,2.0609314E0,4.225534E0,-3.5154342E-3,-2.0053318E-1,-9.7760096E-2,-1.9623423E-1,1.2665638E-1,9.28718E-3,-7.971629E-2,-1.9686548E-2,-1.2855597E-1,1.028828E-1,-1.2982982E-1,8.723942E-3,1.07031584E-1,-8.782043E-2,3.865239E-1,1.8710975E-1],"categories":[],"categories_nodes":[],"categories_segments":[],"categories_sizes":[],"default_left":[0,0,0,0,0,0,0,0,0,0,0,0,0,0,0,0,0,0,0,0,0,0,0,0,0,0,0,0,0,0,0],"id":37,"left_children":[1,3,5,7,9,11,13,15,17,19,21,23,25,27,29,-1,-1,-1,-1,-1,-1,-1,-1,-1,-1,-1,-1,-1,-1,-1,-1],"loss_changes":[4.278563E3,5.681853E2,8.5116003E2,9.880786E1,3.115747E2,2.8743005E2,2.0442749E2,1.4729614E1,1.4500073E2,7.077124E1,1.5784814E2,1.16053696E2,2.9095697E2,1.5922778E2,5.408075E1,0E0,0E0,0E0,0E0,0E0,0E0,0E0,0E0,0E0,0E0,0E0,0E0,0E0,0E0,0E0,0E0],"parents":[2147483647,0,0,1,1,2,2,3,3,4,4,5,5,6,6,7,7,8,8,9,9,10,10,11,11,12,12,13,13,14,14],"right_children":[2,4,6,8,10,12,14,16,18,20,22,24,26,28,30,-1,-1,-1,-1,-1,-1,-1,-1,-1,-1,-1,-1,-1,-1,-1,-1],"split_conditions":[2E0,8.92E1,8.37E1,7.55E1,2.2E1,3.59E1,1.206E2,6.47E1,7.5E1,4.23E1,1.098E2,8.35E1,8.92E1,1.189E2,2.4E1,-3.5154342E-3,-2.0053318E-1,-9.7760096E-2,-1.9623423E-1,1.2665638E-1,9.28718E-3,-7.971629E-2,-1.9686548E-2,-1.2855597E-1,1.028828E-1,-1.2982982E-1,8.723942E-3,1.07031584E-1,-8.782043E-2,3.865239E-1,1.8710975E-1],"split_indices":[0,4,4,4,1,7,4,4,2,7,4,5,5,4,1,0,0,0,0,0,0,0,0,0,0,0,0,0,0,0,0],"split_type":[0,0,0,0,0,0,0,0,0,0,0,0,0,0,0,0,0,0,0,0,0,0,0,0,0,0,0,0,0,0,0],"sum_hessian":[1.737E3,8.95E2,8.42E2,2.67E2,6.28E2,2.84E2,5.58E2,6.2E1,2.05E2,5.1E1,5.77E2,7.9E1,2.05E2,5.1E2,4.8E1,1E0,6.1E1,1.54E2,5.1E1,2.3E1,2.8E1,4.29E2,1.48E2,5E0,7.4E1,4.9E1,1.56E2,5E2,1E1,4E0,4.4E1],"tree_param":{"num_deleted":"0","num_feature":"8","num_nodes":"31","size_leaf_vector":"1"}},{"base_weights":[-1.6697623E-2,-1.44603E0,1.5012425E0,-2.3597307E0,-9.043526E-1,-4.3638885E-2,2.0369377E0,-3.6264887E0,-2.1106343E0,8.497636E-1,-1.1520839E0,-3.6177063E0,1.2840109E-1,1.6946664E0,3.4145064E0,-1.295772E-1,-1.9834106E-1,-8.0465876E-2,-1.4447425E-1,-6.4430766E-2,8.358408E-2,-4.1857302E-2,-1.0771725E-1,-2.6945293E-1,1.9329358E-2,1.3637258E-1,-1.7110458E-2,2.2234754E-1,7.673266E-2,-1.2362137E-1,1.7661223E-1],"categories":[],"categories_nodes":[],"categories_segments":[],"categories_sizes":[],"default_left":[0,0,0,0,0,0,0,0,0,0,0,0,0,0,0,0,0,0,0,0,0,0,0,0,0,0,0,0,0,0,0],"id":38,"left_children":[1,3,5,7,9,11,13,15,17,19,21,23,25,27,29,-1,-1,-1,-1,-1,-1,-1,-1,-1,-1,-1,-1,-1,-1,-1,-1],"loss_changes":[3.7534802E3,4.3884924E2,6.944331E2,9.679126E1,2.447612E2,1.3389401E2,2.8795923E2,8.387695E0,1.0428589E2,1.2518418E2,1.5349628E2,7.301349E1,2.5534644E2,2.1381702E2,9.398657E1,0E0,0E0,0E0,0E0,0E0,0E0,0E0,0E0,0E0,0E0,0E0,0E0,0E0,0E0,0E0,0E0],"parents":[2147483647,0,0,1,1,2,2,3,3,4,4,5,5,6,6,7,7,8,8,9,9,10,10,11,11,12,12,13,13,14,14],"right_children":[2,4,6,8,10,12,14,16,18,20,22,24,26,28,30,-1,-1,-1,-1,-1,-1,-1,-1,-1,-1,-1,-1,-1,-1,-1,-1],"split_conditions":[2E0,9.78E1,2.76E1,8.83E1,2.2E1,8.42E1,3.73E1,5.4E1,3.15E1,3.28E1,1.788E2,2.31E1,4.85E1,1.495E2,1.066E2,-1.295772E-1,-1.9834106E-1,-8.0465876E-2,-1.4447425E-1,-6.4430766E-2,8.358408E-2,-4.1857302E-2,-1.0771725E-1,-2.6945293E-1,1.9329358E-2,1.3637258E-1,-1.7110458E-2,2.2234754E-1,7.673266E-2,-1.2362137E-1,1.7661223E-1],"split_indices":[0,5,6,5,1,5,6,2,6,6,3,6,2,3,5,0,0,0,0,0,0,0,0,0,0,0,0,0,0,0,0],"split_type":[0,0,0,0,0,0,0,0,0,0,0,0,0,0,0,0,0,0,0,0,0,0,0,0,0,0,0,0,0,0,0],"sum_hessian":[1.728E3,8.9E2,8.38E2,3.3E2,5.6E2,2.16E2,6.22E2,5.2E1,2.78E2,6.9E1,4.91E2,9E0,2.07E2,5E2,1.22E2,1.5E1,3.7E1,1.71E2,1.07E2,1.9E1,5E1,3.75E2,1.16E2,6E0,3E0,3.1E1,1.76E2,2.6E1,4.74E2,2E0,1.2E2],"tree_param":{"num_deleted":"0","num_feature":"8","num_nodes":"31","size_leaf_vector":"1"}},{"base_weights":[-9.719731E-2,-1.4861624E0,1.3200947E0,-2.4757774E0,-7.6689243E-1,9.5450826E-2,2.1744194E0,-2.2064269E0,-3.864153E0,1.6274604E0,-9.747857E-1,-1.3354683E0,4.5801926E-1,1.9294887E0,4.1298842E0,-1.4439072E-1,-8.2084715E-2,1.7869592E-1,-2.030398E-1,3.548333E-2,2.1549375E-1,2.8504762E-1,-5.0832957E-2,-9.991354E-3,-1.338899E-1,4.856014E-2,-2.7296161E-2,1.840205E-1,8.528507E-2,1.0517502E-2,2.1382952E-1],"categories":[],"categories_nodes":[],"categories_segments":[],"categories_sizes":[],"default_left":[0,0,0,0,0,0,0,0,0,0,0,0,0,0,0,0,0,0,0,0,0,0,0,0,0,0,0,0,0,0,0],"id":39,"left_children":[1,3,5,7,9,11,13,15,17,19,21,23,25,27,29,-1,-1,-1,-1,-1,-1,-1,-1,-1,-1,-1,-1,-1,-1,-1,-1],"loss_changes":[3.328844E3,6.0597864E2,8.754983E2,1.25725586E2,2.4848022E2,1.795998E2,2.2815552E2,1.11854004E2,9.7883545E1,9.5417564E1,1.3354404E2,1.0617321E2,1.4272726E2,1.6612927E2,3.015149E1,0E0,0E0,0E0,0E0,0E0,0E0,0E0,0E0,0E0,0E0,0E0,0E0,0E0,0E0,0E0,0E0],"parents":[2147483647,0,0,1,1,2,2,3,3,4,4,5,5,6,6,7,7,8,8,9,9,10,10,11,11,12,12,13,13,14,14],"right_children":[2,4,6,8,10,12,14,16,18,20,22,24,26,28,30,-1,-1,-1,-1,-1,-1,-1,-1,-1,-1,-1,-1,-1,-1,-1,-1],"split_conditions":[2E0,9.35E1,8.68E1,3.42E1,2.2E1,7.2E1,3.97E1,8.19E1,1.9E1,1.139E2,2.81E1,2.8E1,1.625E2,1.518E2,3.4E1,-1.4439072E-1,-8.2084715E-2,1.7869592E-1,-2.030398E-1,3.548333E-2,2.1549375E-1,2.8504762E-1,-5.0832957E-2,-9.991354E-3,-1.338899E-1,4.856014E-2,-2.7296161E-2,1.840205E-1,8.528507E-2,1.0517502E-2,2.1382952E-1],"split_indices":[0,4,4,6,1,4,6,4,1,4,6,1,3,3,7,0,0,0,0,0,0,0,0,0,0,0,0,0,0,0,0],"split_type":[0,0,0,0,0,0,0,0,0,0,0,0,0,0,0,0,0,0,0,0,0,0,0,0,0,0,0,0,0,0,0],"sum_hessian":[1.689E3,8.53E2,8.36E2,3.58E2,4.95E2,3.44E2,4.92E2,3.02E2,5.6E1,3.9E1,4.56E2,6.9E1,2.75E2,4.39E2,5.3E1,1.35E2,1.67E2,1E0,5.5E1,3E1,9E0,2E0,4.54E2,3.8E1,3.1E1,1.82E2,9.3E1,4.8E1,3.91E2,2E0,5.1E1],"tree_param":{"num_deleted":"0","num_feature":"8","num_nodes":"31","size_leaf_vector":"1"}},{"base_weights":[7.795263E-2,-1.2628454E0,1.4202209E0,-1.8639083E0,-3.290621E-1,2.5469923E-1,2.1326137E0,-2.7717757E0,-1.4704503E0,-4.4389835E-1,3.481956E0,-8.7947804E-1,8.258222E-1,6.235263E0,2.0582204E0,-1.0797366E-1,-2.198451E-1,-1.6981857E-2,-9.210302E-2,4.9184103E-2,-3.30987E-2,2.3295633E-1,-4.0890884E-2,3.4288168E-2,-8.411068E-2,1.3877283E-1,1.9276809E-2,5.8155872E-2,4.2887416E-1,9.229288E-2,1.7663483E-1],"categories":[],"categories_nodes":[],"categories_segments":[],"categories_sizes":[],"default_left":[0,0,0,0,0,0,0,0,0,0,0,0,0,0,0,0,0,0,0,0,0,0,0,0,0,0,0,0,0,0,0],"id":40,"left_children":[1,3,5,7,9,11,13,15,17,19,21,23,25,27,29,-1,-1,-1,-1,-1,-1,-1,-1,-1,-1,-1,-1,-1,-1,-1,-1],"loss_changes":[3.093696E3,4.820725E2,7.1269226E2,1.8274377E2,1.4946896E2,2.1254205E2,1.4984326E2,1.4673096E2,1.5359564E2,1.0307564E2,5.442598E1,1.3936584E2,1.8606046E2,9.694412E1,1.578689E2,0E0,0E0,0E0,0E0,0E0,0E0,0E0,0E0,0E0,0E0,0E0,0E0,0E0,0E0,0E0,0E0],"parents":[2147483647,0,0,1,1,2,2,3,3,4,4,5,5,6,6,7,7,8,8,9,9,10,10,11,11,12,12,13,13,14,14],"right_children":[2,4,6,8,10,12,14,16,18,20,22,24,26,28,30,-1,-1,-1,-1,-1,-1,-1,-1,-1,-1,-1,-1,-1,-1,-1,-1],"split_conditions":[2E0,1.006E2,9.89E1,8.3E1,1.348E2,7.5E1,5.98E1,3.09E1,7.25E1,8.62E1,4.39E1,4.85E1,5.35E1,2.72E1,3.93E1,-1.0797366E-1,-2.198451E-1,-1.6981857E-2,-9.210302E-2,4.9184103E-2,-3.30987E-2,2.3295633E-1,-4.0890884E-2,3.4288168E-2,-8.411068E-2,1.3877283E-1,1.9276809E-2,5.8155872E-2,4.2887416E-1,9.229288E-2,1.7663483E-1],"split_indices":[0,4,5,4,4,4,2,6,2,2,7,2,2,6,6,0,0,0,0,0,0,0,0,0,0,0,0,0,0,0,0],"split_type":[0,0,0,0,0,0,0,0,0,0,0,0,0,0,0,0,0,0,0,0,0,0,0,0,0,0,0,0,0,0,0],"sum_hessian":[1.717E3,8.59E2,8.58E2,5.22E2,3.37E2,3.26E2,5.32E2,1.56E2,3.66E2,3.28E2,9E0,1.09E2,2.17E2,8E0,5.24E2,1.15E2,4.1E1,9.1E1,2.75E2,4.3E1,2.85E2,7E0,2E0,3.7E1,7.2E1,3.9E1,1.78E2,3E0,5E0,4.6E2,6.4E1],"tree_param":{"num_deleted":"0","num_feature":"8","num_nodes":"31","size_leaf_vector":"1"}},{"base_weights":[-4.8978515E-2,-1.2974659E0,1.246903E0,-1.620628E0,2.7744254E-1,-4.347208E-1,1.6109927E0,-1.503638E0,-3.5923388E0,1.3147522E0,-4.095467E-1,-2.6423976E-1,-5.3599195E0,1.0414855E0,2.1274264E0,-1.14520624E-1,-5.5176605E-2,-2.4981225E-1,-1.04211085E-1,1.15643755E-1,1.5320781E-2,-7.2446465E-2,7.3057696E-2,4.347792E-2,-4.4699915E-2,-4.876704E-2,-3.1061146E-1,6.226593E-2,-1.1909693E-1,2.535521E-1,9.426375E-2],"categories":[],"categories_nodes":[],"categories_segments":[],"categories_sizes":[],"default_left":[0,0,0,0,0,0,0,0,0,0,0,0,0,0,0,0,0,0,0,0,0,0,0,0,0,0,0,0,0,0,0],"id":41,"left_children":[1,3,5,7,9,11,13,15,17,19,21,23,25,27,29,-1,-1,-1,-1,-1,-1,-1,-1,-1,-1,-1,-1,-1,-1,-1,-1],"loss_changes":[2.7827737E3,4.462904E2,5.1744934E2,1.6229578E2,1.0743155E2,1.2537133E2,2.0189856E2,2.1405017E2,7.4276855E1,5.9677902E1,1.7905511E2,1.05738174E2,1.2626038E1,2.3463809E2,2.4918652E2,0E0,0E0,0E0,0E0,0E0,0E0,0E0,0E0,0E0,0E0,0E0,0E0,0E0,0E0,0E0,0E0],"parents":[2147483647,0,0,1,1,2,2,3,3,4,4,5,5,6,6,7,7,8,8,9,9,10,10,11,11,12,12,13,13,14,14],"right_children":[2,4,6,8,10,12,14,16,18,20,22,24,26,28,30,-1,-1,-1,-1,-1,-1,-1,-1,-1,-1,-1,-1,-1,-1,-1,-1],"split_conditions":[2E0,1.111E2,7.67E1,3.88E1,3.86E1,6.44E1,1.047E2,8.68E1,1.057E2,1.047E2,1.253E2,3.64E1,7.2E1,4.14E1,6.96E1,-1.14520624E-1,-5.5176605E-2,-2.4981225E-1,-1.04211085E-1,1.15643755E-1,1.5320781E-2,-7.2446465E-2,7.3057696E-2,4.347792E-2,-4.4699915E-2,-4.876704E-2,-3.1061146E-1,6.226593E-2,-1.1909693E-1,2.535521E-1,9.426375E-2],"split_indices":[0,4,4,6,6,2,5,4,4,2,4,7,4,7,2,0,0,0,0,0,0,0,0,0,0,0,0,0,0,0,0],"split_type":[0,0,0,0,0,0,0,0,0,0,0,0,0,0,0,0,0,0,0,0,0,0,0,0,0,0,0,0,0,0,0],"sum_hessian":[1.718E3,8.75E2,8.43E2,7.26E2,1.49E2,1.5E2,6.93E2,6.87E2,3.9E1,5.9E1,9E1,1.46E2,4E0,3.31E2,3.62E2,2.3E2,4.57E2,1.9E1,2E1,2.9E1,3E1,5.8E1,3.2E1,5.2E1,9.4E1,1E0,3E0,3.13E2,1.8E1,2.6E1,3.36E2],"tree_param":{"num_deleted":"0","num_feature":"8","num_nodes":"31","size_leaf_vector":"1"}},{"base_weights":[5.815762E-4,1.2769988E0,-5.2353144E-1,3.235228E-2,2.0517874E0,-1.6107068E0,5.3963024E-2,-3.058322E0,2.8972873E-1,3.5058463E0,1.5809983E0,-1.2909266E0,-2.82065E0,4.5208213E-1,-1.2286836E0,3.7446458E-2,-2.839852E-1,6.308573E-2,-2.5023852E-2,4.1180754E-1,1.561674E-1,4.972584E-2,1.6617933E-1,-9.7731166E-2,-1.1363182E-2,1.7051016E-1,-1.5026037E-1,-5.3704344E-3,6.1789524E-2,4.5893295E-3,-9.269018E-2],"categories":[],"categories_nodes":[],"categories_segments":[],"categories_sizes":[],"default_left":[0,0,0,0,0,0,0,0,0,0,0,0,0,0,0,0,0,0,0,0,0,0,0,0,0,0,0,0,0,0,0],"id":42,"left_children":[1,3,5,7,9,11,13,15,17,19,21,23,25,27,29,-1,-1,-1,-1,-1,-1,-1,-1,-1,-1,-1,-1,-1,-1,-1,-1],"loss_changes":[1.1560089E3,4.8499548E2,7.691882E2,1.5520665E2,2.0666919E2,1.6079797E2,4.09583E2,1.539576E2,1.3888383E2,1.09975586E2,2.3788568E2,2.3816669E2,1.1144391E2,2.6848105E2,1.570061E2,0E0,0E0,0E0,0E0,0E0,0E0,0E0,0E0,0E0,0E0,0E0,0E0,0E0,0E0,0E0,0E0],"parents":[2147483647,0,0,1,1,2,2,3,3,4,4,5,5,6,6,7,7,8,8,9,9,10,10,11,11,12,12,13,13,14,14],"right_children":[2,4,6,8,10,12,14,16,18,20,22,24,26,28,30,-1,-1,-1,-1,-1,-1,-1,-1,-1,-1,-1,-1,-1,-1,-1,-1],"split_conditions":[1.614E2,9.62E1,9.86E1,8.47E1,1.536E2,3.24E1,1.77E2,1.552E2,3.5E1,8.02E1,1.146E2,9.42E1,2E1,1.09E2,3.1E1,3.7446458E-2,-2.839852E-1,6.308573E-2,-2.5023852E-2,4.1180754E-1,1.561674E-1,4.972584E-2,1.6617933E-1,-9.7731166E-2,-1.1363182E-2,1.7051016E-1,-1.5026037E-1,-5.3704344E-3,6.1789524E-2,4.5893295E-3,-9.269018E-2],"split_indices":[3,5,5,5,3,6,3,3,1,4,5,5,1,5,1,0,0,0,0,0,0,0,0,0,0,0,0,0,0,0,0],"split_type":[0,0,0,0,0,0,0,0,0,0,0,0,0,0,0,0,0,0,0,0,0,0,0,0,0,0,0,0,0,0,0],"sum_hessian":[1.726E3,5.02E2,1.224E3,1.93E2,3.09E2,4.24E2,8E2,1.4E1,1.79E2,7.4E1,2.35E2,3.37E2,8.7E1,6.11E2,1.89E2,6E0,8E0,8E1,9.9E1,4E0,7E1,1.77E2,5.8E1,2.07E2,1.3E2,2E0,8.5E1,3.57E2,2.54E2,6.1E1,1.28E2],"tree_param":{"num_deleted":"0","num_feature":"8","num_nodes":"31","size_leaf_vector":"1"}},{"base_weights":[-4.0223796E-2,-1.1254202E0,1.0613096E0,-2.226361E0,-6.593928E-1,1.0171526E-1,1.5934691E0,-1.8966548E0,-3.4551115E0,1.6888512E0,-8.6870927E-1,2.2867067E0,-1.8468985E-1,1.3872206E0,3.0320501E0,-1.8192236E-1,-8.083638E-2,-1.1022388E-1,-2.1230161E-1,5.942552E-2,1.8106988E-1,-5.609413E-2,1.6494615E-2,1.6634157E-1,3.8931187E-2,5.4403402E-2,-3.337072E-2,4.299804E-2,1.0140033E-1,1.8628933E-1,1.0030001E-1],"categories":[],"categories_nodes":[],"categories_segments":[],"categories_sizes":[],"default_left":[0,0,0,0,0,0,0,0,0,0,0,0,0,0,0,0,0,0,0,0,0,0,0,0,0,0,0,0,0,0,0],"id":43,"left_children":[1,3,5,7,9,11,13,15,17,19,21,23,25,27,29,-1,-1,-1,-1,-1,-1,-1,-1,-1,-1,-1,-1,-1,-1,-1,-1],"loss_changes":[2.0859373E3,4.4951917E2,4.420672E2,9.918494E1,3.0572174E2,1.9441806E2,1.6105872E2,9.5533264E1,4.4053894E1,4.500946E1,1.7303534E2,5.387906E1,1.6968384E2,1.6346991E2,4.164081E1,0E0,0E0,0E0,0E0,0E0,0E0,0E0,0E0,0E0,0E0,0E0,0E0,0E0,0E0,0E0,0E0],"parents":[2147483647,0,0,1,1,2,2,3,3,4,4,5,5,6,6,7,7,8,8,9,9,10,10,11,11,12,12,13,13,14,14],"right_children":[2,4,6,8,10,12,14,16,18,20,22,24,26,28,30,-1,-1,-1,-1,-1,-1,-1,-1,-1,-1,-1,-1,-1,-1,-1,-1],"split_conditions":[2E0,8.97E1,8.46E1,3.28E1,2.2E1,3.41E1,3.93E1,7.14E1,2.8E1,1.139E2,1.158E2,8E1,2.4E1,4.4E1,3.89E1,-1.8192236E-1,-8.083638E-2,-1.1022388E-1,-2.1230161E-1,5.942552E-2,1.8106988E-1,-5.609413E-2,1.6494615E-2,1.6634157E-1,3.8931187E-2,5.4403402E-2,-3.337072E-2,4.299804E-2,1.0140033E-1,1.8628933E-1,1.0030001E-1],"split_indices":[0,4,4,6,1,7,6,4,1,4,4,4,1,1,7,0,0,0,0,0,0,0,0,0,0,0,0,0,0,0,0],"split_type":[0,0,0,0,0,0,0,0,0,0,0,0,0,0,0,0,0,0,0,0,0,0,0,0,0,0,0,0,0,0,0],"sum_hessian":[1.743E3,8.78E2,8.65E2,2.6E2,6.18E2,3.09E2,5.56E2,2.07E2,5.3E1,5E1,5.68E2,3.5E1,2.74E2,4.88E2,6.8E1,2.7E1,1.8E2,2.2E1,3.1E1,4.1E1,9E0,4.69E2,9.9E1,2E1,1.5E1,7.5E1,1.99E2,2.69E2,2.19E2,3.9E1,2.9E1],"tree_param":{"num_deleted":"0","num_feature":"8","num_nodes":"31","size_leaf_vector":"1"}},{"base_weights":[1.2581403E-3,-1.011876E0,1.009651E0,-1.7889577E0,-4.8623574E-1,-6.7312765E-1,1.4282576E0,-1.604902E0,-2.9721506E0,1.7355024E0,-6.742853E-1,1.013713E0,-1.2477204E0,9.408373E-1,2.0656414E0,-1.19932525E-1,-6.230526E-2,-1.6773425E-1,1.7507808E-1,4.084572E-2,2.0414849E-1,-2.4339473E-2,-1.0121339E-1,2.5766477E-2,2.9343578E-1,1.7389255E-2,-1.2467497E-1,3.9535716E-2,1.9997253E-1,1.6626418E-1,8.588398E-2],"categories":[],"categories_nodes":[],"categories_segments":[],"categories_sizes":[],"default_left":[0,0,0,0,0,0,0,0,0,0,0,0,0,0,0,0,0,0,0,0,0,0,0,0,0,0,0,0,0,0,0],"id":44,"left_children":[1,3,5,7,9,11,13,15,17,19,21,23,25,27,29,-1,-1,-1,-1,-1,-1,-1,-1,-1,-1,-1,-1,-1,-1,-1,-1],"loss_changes":[1.7429131E3,3.4673425E2,6.032424E2,6.992627E1,2.138288E2,1.6700595E2,2.1086816E2,8.216449E1,1.23185455E2,8.2918785E1,1.1797916E2,1.0344041E2,2.5528604E2,1.7591315E2,1.2402734E2,0E0,0E0,0E0,0E0,0E0,0E0,0E0,0E0,0E0,0E0,0E0,0E0,0E0,0E0,0E0,0E0],"parents":[2147483647,0,0,1,1,2,2,3,3,4,4,5,5,6,6,7,7,8,8,9,9,10,10,11,11,12,12,13,13,14,14],"right_children":[2,4,6,8,10,12,14,16,18,20,22,24,26,28,30,-1,-1,-1,-1,-1,-1,-1,-1,-1,-1,-1,-1,-1,-1,-1,-1],"split_conditions":[2E0,9.35E1,7.73E1,7.97E1,2.2E1,3.57E1,4.4E1,7.86E1,4.71E1,1.124E2,1.806E2,3.54E1,2.5E1,1.264E2,1.536E2,-1.19932525E-1,-6.230526E-2,-1.6773425E-1,1.7507808E-1,4.084572E-2,2.0414849E-1,-2.4339473E-2,-1.0121339E-1,2.5766477E-2,2.9343578E-1,1.7389255E-2,-1.2467497E-1,3.9535716E-2,1.9997253E-1,1.6626418E-1,8.588398E-2],"split_indices":[0,4,4,2,1,7,1,4,7,4,3,7,1,4,3,0,0,0,0,0,0,0,0,0,0,0,0,0,0,0,0],"split_type":[0,0,0,0,0,0,0,0,0,0,0,0,0,0,0,0,0,0,0,0,0,0,0,0,0,0,0,0,0,0,0],"sum_hessian":[1.704E3,8.5E2,8.54E2,3.42E2,5.08E2,1.7E2,6.84E2,2.98E2,4.4E1,3.9E1,4.69E2,4.3E1,1.27E2,3.89E2,2.95E2,9.1E1,2.07E2,4.2E1,2E0,2.9E1,1E1,4.13E2,5.6E1,4E1,3E0,5.6E1,7.1E1,3.72E2,1.7E1,6.2E1,2.33E2],"tree_param":{"num_deleted":"0","num_feature":"8","num_nodes":"31","size_leaf_vector":"1"}},{"base_weights":[-6.533684E-3,-4.1199425E-1,1.0305877E0,1.6813399E0,-6.465138E-1,1.6030405E0,-2.9267514E-1,2.3248655E-1,3.149812E0,-2.8199792E0,-4.9808225E-1,4.086079E0,1.4911463E0,4.5140445E-1,-1.1878657E0,1.2828147E-1,-2.993392E-2,5.285525E-1,1.4274283E-1,-1.0034996E-1,-4.0987536E-1,-1.8530566E-3,-6.323941E-2,2.7666676E-1,1.154485E-1,1.7598407E-1,6.732939E-2,5.5595603E-2,-6.852491E-2,-1.1281288E-1,2.9184252E-2],"categories":[],"categories_nodes":[],"categories_segments":[],"categories_sizes":[],"default_left":[0,0,0,0,0,0,0,0,0,0,0,0,0,0,0,0,0,0,0,0,0,0,0,0,0,0,0,0,0,0,0],"id":45,"left_children":[1,3,5,7,9,11,13,15,17,19,21,23,25,27,29,-1,-1,-1,-1,-1,-1,-1,-1,-1,-1,-1,-1,-1,-1,-1,-1],"loss_changes":[7.241254E2,6.088556E2,3.671018E2,2.652178E2,3.579839E2,8.78161E1,9.845189E1,1.256465E2,1.05535095E2,2.9394696E2,3.6897327E2,2.3230728E1,9.056409E1,9.899769E1,1.2812856E2,0E0,0E0,0E0,0E0,0E0,0E0,0E0,0E0,0E0,0E0,0E0,0E0,0E0,0E0,0E0,0E0],"parents":[2147483647,0,0,1,1,2,2,3,3,4,4,5,5,6,6,7,7,8,8,9,9,10,10,11,11,12,12,13,13,14,14],"right_children":[2,4,6,8,10,12,14,16,18,20,22,24,26,28,30,-1,-1,-1,-1,-1,-1,-1,-1,-1,-1,-1,-1,-1,-1,-1,-1],"split_conditions":[1.081E2,1.545E2,1.734E2,9.62E1,7.14E1,1.508E2,4E1,1.495E2,9.65E1,4E1,4.12E1,4.7E1,2E1,1.806E2,1.168E2,1.2828147E-1,-2.993392E-2,5.285525E-1,1.4274283E-1,-1.0034996E-1,-4.0987536E-1,-1.8530566E-3,-6.323941E-2,2.7666676E-1,1.154485E-1,1.7598407E-1,6.732939E-2,5.5595603E-2,-6.852491E-2,-1.1281288E-1,2.9184252E-2],"split_indices":[5,3,3,5,4,3,1,3,5,1,7,1,1,3,5,0,0,0,0,0,0,0,0,0,0,0,0,0,0,0,0],"split_type":[0,0,0,0,0,0,0,0,0,0,0,0,0,0,0,0,0,0,0,0,0,0,0,0,0,0,0,0,0,0,0],"sum_hessian":[1.72E3,1.237E3,4.83E2,1.24E2,1.113E3,3.37E2,1.46E2,6.3E1,6.1E1,7E1,1.043E3,1.3E1,3.24E2,8E1,6.6E1,1.6E1,4.7E1,1E0,6E1,6.2E1,8E0,6.52E2,3.91E2,6E0,7E0,2E1,3.04E2,5.9E1,2.1E1,4.1E1,2.5E1],"tree_param":{"num_deleted":"0","num_feature":"8","num_nodes":"31","size_leaf_vector":"1"}},{"base_weights":[2.2551615E-2,-9.5059884E-1,1.0323118E0,-1.4115201E0,-2.0100355E-1,2.5434047E-2,1.6555686E0,-1.336582E0,-4.93473E0,-3.1613037E-1,3.5952559E0,-1.6235568E-1,3.4483387E0,6.3190827E0,1.5619819E0,-6.8725266E-2,2.0254211E-1,-1.11963786E-1,-2.8328082E-1,6.644017E-2,-2.6812775E-2,-2.2416448E-2,2.0471787E-1,-5.2745905E-2,1.9584633E-2,2.8981587E-1,-9.11171E-2,1.3368411E-1,3.7497213E-1,-1.2888554E-1,8.202759E-2],"categories":[],"categories_nodes":[],"categories_segments":[],"categories_sizes":[],"default_left":[0,0,0,0,0,0,0,0,0,0,0,0,0,0,0,0,0,0,0,0,0,0,0,0,0,0,0,0,0,0,0],"id":46,"left_children":[1,3,5,7,9,11,13,15,17,19,21,23,25,27,29,-1,-1,-1,-1,-1,-1,-1,-1,-1,-1,-1,-1,-1,-1,-1,-1],"loss_changes":[1.7019458E3,3.0445117E2,5.333698E2,1.3756067E2,1.4842282E2,2.1010818E2,2.1926196E2,1.1507745E2,8.983917E0,1.19478516E2,2.2017212E1,1.5371526E2,2.2094547E2,2.2977722E1,1.7206067E2,0E0,0E0,0E0,0E0,0E0,0E0,0E0,0E0,0E0,0E0,0E0,0E0,0E0,0E0,0E0,0E0],"parents":[2147483647,0,0,1,1,2,2,3,3,4,4,5,5,6,6,7,7,8,8,9,9,10,10,11,11,12,12,13,13,14,14],"right_children":[2,4,6,8,10,12,14,16,18,20,22,24,26,28,30,-1,-1,-1,-1,-1,-1,-1,-1,-1,-1,-1,-1,-1,-1,-1,-1],"split_conditions":[2E0,1.008E2,9.89E1,3.88E1,4.42E1,9.32E1,6.01E1,1.104E2,8.63E1,8.62E1,1.207E2,2.62E1,6.65E1,5.84E1,7.72E1,-6.8725266E-2,2.0254211E-1,-1.11963786E-1,-2.8328082E-1,6.644017E-2,-2.6812775E-2,-2.2416448E-2,2.0471787E-1,-5.2745905E-2,1.9584633E-2,2.8981587E-1,-9.11171E-2,1.3368411E-1,3.7497213E-1,-1.2888554E-1,8.202759E-2],"split_indices":[0,4,5,6,6,4,2,5,2,2,2,6,2,2,4,0,0,0,0,0,0,0,0,0,0,0,0,0,0,0,0],"split_type":[0,0,0,0,0,0,0,0,0,0,0,0,0,0,0,0,0,0,0,0,0,0,0,0,0,0,0,0,0,0,0],"sum_hessian":[1.73E3,8.81E2,8.49E2,5.45E2,3.36E2,3.25E2,5.24E2,5.35E2,1E1,3.27E2,9E0,3.09E2,1.6E1,9E0,5.15E2,5.32E2,3E0,3E0,7E0,3.8E1,2.89E2,1E0,8E0,1.18E2,1.91E2,1.1E1,5E0,3E0,6E0,9E0,5.06E2],"tree_param":{"num_deleted":"0","num_feature":"8","num_nodes":"31","size_leaf_vector":"1"}},{"base_weights":[4.9000084E-2,-8.269416E-1,9.610799E-1,-9.374379E-1,6.7559737E-1,-1.6251387E-1,1.266685E0,-7.2103006E-1,-1.7107854E0,1.177509E0,-2.3551702E0,8.5018736E-1,-7.323922E-1,9.6158266E-1,2.366003E0,-4.9632803E-2,-7.6619495E-4,5.510676E-3,-9.390061E-2,3.1284824E-2,1.6137739E-1,-2.5438825E-2,-1.8652652E-1,1.6285245E-1,9.918564E-3,-2.923826E-1,-2.4978599E-2,1.0545631E-1,3.5748627E-2,1.5779038E-1,8.737613E-2],"categories":[],"categories_nodes":[],"categories_segments":[],"categories_sizes":[],"default_left":[0,0,0,0,0,0,0,0,0,0,0,0,0,0,0,0,0,0,0,0,0,0,0,0,0,0,0,0,0,0,0],"id":47,"left_children":[1,3,5,7,9,11,13,15,17,19,21,23,25,27,29,-1,-1,-1,-1,-1,-1,-1,-1,-1,-1,-1,-1,-1,-1,-1,-1],"loss_changes":[1.3813438E3,1.4706726E2,2.9104523E2,1.3633514E2,9.5565056E1,1.05657875E2,2.2110425E2,1.23431946E2,5.4716003E1,5.7936096E1,2.0957092E1,1.02896774E2,1.3641821E2,1.4649881E2,6.482605E1,0E0,0E0,0E0,0E0,0E0,0E0,0E0,0E0,0E0,0E0,0E0,0E0,0E0,0E0,0E0,0E0],"parents":[2147483647,0,0,1,1,2,2,3,3,4,4,5,5,6,6,7,7,8,8,9,9,10,10,11,11,12,12,13,13,14,14],"right_children":[2,4,6,8,10,12,14,16,18,20,22,24,26,28,30,-1,-1,-1,-1,-1,-1,-1,-1,-1,-1,-1,-1,-1,-1,-1,-1],"split_conditions":[2E0,1.173E2,2.69E1,1.783E2,1.838E2,3.63E1,5.1E1,1.745E2,2E1,4.4E1,4.54E1,2.4E1,2.2E1,2.4E1,3.57E1,-4.9632803E-2,-7.6619495E-4,5.510676E-3,-9.390061E-2,3.1284824E-2,1.6137739E-1,-2.5438825E-2,-1.8652652E-1,1.6285245E-1,9.918564E-3,-2.923826E-1,-2.4978599E-2,1.0545631E-1,3.5748627E-2,1.5779038E-1,8.737613E-2],"split_indices":[0,2,6,3,3,7,1,3,1,6,7,1,6,1,7,0,0,0,0,0,0,0,0,0,0,0,0,0,0,0,0],"split_type":[0,0,0,0,0,0,0,0,0,0,0,0,0,0,0,0,0,0,0,0,0,0,0,0,0,0,0,0,0,0,0],"sum_hessian":[1.727E3,8.81E2,8.46E2,8.21E2,6E1,1.81E2,6.65E2,6.43E2,1.78E2,5.2E1,8E0,6.5E1,1.16E2,5.22E2,1.43E2,4.64E2,1.79E2,1.5E1,1.63E2,4.2E1,1E1,4E0,4E0,1.3E1,5.2E1,4E0,1.12E2,9.1E1,4.31E2,6.1E1,8.2E1],"tree_param":{"num_deleted":"0","num_feature":"8","num_nodes":"31","size_leaf_vector":"1"}},{"base_weights":[-2.2932665E-2,-9.3784875E-1,8.920096E-1,-1.6685835E0,-5.9600264E-1,-5.03283E-1,1.320318E0,-1.4444504E0,-3.288831E0,-7.538722E-1,5.6560045E-1,-1.1541625E-1,-2.33167E0,5.1640934E-1,1.2913718E0,-8.227613E-2,4.5497067E-2,-1.2520038E-1,-2.0875457E-1,-2.5794685E-2,-1.13584004E-1,7.8501165E-2,-3.6949567E-2,-1.0559167E-1,2.858769E-2,1.6871138E-1,-1.680411E-1,5.7266343E-2,1.3258873E-1],"categories":[],"categories_nodes":[],"categories_segments":[],"categories_sizes":[],"default_left":[0,0,0,0,0,0,0,0,0,0,0,0,0,0,0,0,0,0,0,0,0,0,0,0,0,0,0,0,0],"id":48,"left_children":[1,3,5,7,9,11,13,15,17,19,21,23,25,-1,27,-1,-1,-1,-1,-1,-1,-1,-1,-1,-1,-1,-1,-1,-1],"loss_changes":[1.4632423E3,2.1732971E2,5.229803E2,9.6205444E1,1.0990532E2,1.4582E2,1.6109985E2,1.17954346E2,1.2498962E1,1.888223E2,9.550629E1,2.3579858E2,2.2274069E2,0E0,1.2968115E2,0E0,0E0,0E0,0E0,0E0,0E0,0E0,0E0,0E0,0E0,0E0,0E0,0E0,0E0],"parents":[2147483647,0,0,1,1,2,2,3,3,4,4,5,5,6,6,7,7,8,8,9,9,10,10,11,11,12,12,14,14],"right_children":[2,4,6,8,10,12,14,16,18,20,22,24,26,-1,28,-1,-1,-1,-1,-1,-1,-1,-1,-1,-1,-1,-1,-1,-1],"split_conditions":[2E0,8.97E1,9.42E1,3.43E1,1.184E2,1.635E2,4.71E1,9.91E1,7.95E1,3.87E1,1.781E2,7.2E1,4.97E1,5.1640934E-1,3.97E1,-8.227613E-2,4.5497067E-2,-1.2520038E-1,-2.0875457E-1,-2.5794685E-2,-1.13584004E-1,7.8501165E-2,-3.6949567E-2,-1.0559167E-1,2.858769E-2,1.6871138E-1,-1.680411E-1,5.7266343E-2,1.3258873E-1],"split_indices":[0,4,5,6,4,3,2,5,2,6,3,4,2,0,6,0,0,0,0,0,0,0,0,0,0,0,0,0,0],"split_type":[0,0,0,0,0,0,0,0,0,0,0,0,0,0,0,0,0,0,0,0,0,0,0,0,0,0,0,0,0],"sum_hessian":[1.746E3,8.73E2,8.73E2,2.77E2,5.96E2,2.05E2,6.68E2,2.45E2,3.2E1,5.25E2,7.1E1,1.7E2,3.5E1,1E0,6.67E2,2.26E2,1.9E1,1.9E1,1.3E1,4.55E2,7E1,4E1,3.1E1,4.3E1,1.27E2,5E0,3E1,6.04E2,6.3E1],"tree_param":{"num_deleted":"0","num_feature":"8","num_nodes":"29","size_leaf_vector":"1"}},{"base_weights":[-1.4213188E-2,-9.077743E-1,8.886293E-1,-1.6414783E0,-4.1271663E-1,4.4091773E-1,1.7702765E0,-2.7676036E0,-1.4421406E0,-1.4315569E0,-1.4231963E-1,-1.1445141E0,6.4094144E-1,1.6596719E0,3.8480198E0,-6.300368E-2,-1.5706646E-1,-1.8307364E-2,-8.796055E-2,-3.5654645E-2,-1.4753744E-1,4.458139E-3,-6.5386675E-2,-1.639951E-2,-2.1926896E-1,1.4709692E-1,2.5101725E-2,1.7378303E-1,7.753086E-2,2.4124818E-1,8.706338E-2],"categories":[],"categories_nodes":[],"categories_segments":[],"categories_sizes":[],"default_left":[0,0,0,0,0,0,0,0,0,0,0,0,0,0,0,0,0,0,0,0,0,0,0,0,0,0,0,0,0,0,0],"id":49,"left_children":[1,3,5,7,9,11,13,15,17,19,21,23,25,27,29,-1,-1,-1,-1,-1,-1,-1,-1,-1,-1,-1,-1,-1,-1,-1,-1],"loss_changes":[1.40777E3,3.1787146E2,3.4183966E2,7.524994E1,1.444292E2,1.8371405E2,6.0717407E1,2.5338623E1,1.0238788E2,1.1795915E2,1.123421E2,1.7056749E2,1.6249034E2,4.986438E1,2.0412933E1,0E0,0E0,0E0,0E0,0E0,0E0,0E0,0E0,0E0,0E0,0E0,0E0,0E0,0E0,0E0,0E0],"parents":[2147483647,0,0,1,1,2,2,3,3,4,4,5,5,6,6,7,7,8,8,9,9,10,10,11,11,12,12,13,13,14,14],"right_children":[2,4,6,8,10,12,14,16,18,20,22,24,26,28,30,-1,-1,-1,-1,-1,-1,-1,-1,-1,-1,-1,-1,-1,-1,-1,-1],"split_conditions":[2E0,9.35E1,1.08E2,7.5E1,1.679E2,7.14E1,5.7E1,3.99E1,2.3E1,5.1E1,1.806E2,4.4E1,1.495E2,1.508E2,5.9E1,-6.300368E-2,-1.5706646E-1,-1.8307364E-2,-8.796055E-2,-3.5654645E-2,-1.4753744E-1,4.458139E-3,-6.5386675E-2,-1.639951E-2,-2.1926896E-1,1.4709692E-1,2.5101725E-2,1.7378303E-1,7.753086E-2,2.4124818E-1,8.706338E-2],"split_indices":[0,4,5,4,3,4,1,7,1,1,3,1,3,3,1,0,0,0,0,0,0,0,0,0,0,0,0,0,0,0,0],"split_type":[0,0,0,0,0,0,0,0,0,0,0,0,0,0,0,0,0,0,0,0,0,0,0,0,0,0,0,0,0,0,0],"sum_hessian":[1.743E3,8.76E2,8.67E2,3.52E2,5.24E2,5.76E2,2.91E2,5.1E1,3.01E2,1.09E2,4.15E2,6.4E1,5.12E2,2.78E2,1.3E1,1.1E1,4E1,6.9E1,2.32E2,7.5E1,3.4E1,3.47E2,6.8E1,5.2E1,1.2E1,2.8E1,4.84E2,1.4E1,2.64E2,8E0,5E0],"tree_param":{"num_deleted":"0","num_feature":"8","num_nodes":"31","size_leaf_vector":"1"}},{"base_weights":[8.347715E-2,-7.405844E-1,9.170458E-1,-1.1449705E0,3.7292677E-1,3.2177575E-2,1.5505471E0,-1.0293006E0,-3.823625E0,2.0250504E0,4.9062025E-2,-3.9226022E0,1.334905E-1,1.3839161E0,2.8469796E0,-8.363711E-2,-2.6981099E-2,-7.020577E-2,-2.0998564E-1,3.360885E-2,1.604514E-1,-4.195671E-3,1.4032724E-1,-1.2155708E-1,-2.5895712E-1,-4.834228E-3,8.121698E-2,6.422135E-2,1.4689104E-1,1.1088904E-1,2.4846137E-1],"categories":[],"categories_nodes":[],"categories_segments":[],"categories_sizes":[],"default_left":[0,0,0,0,0,0,0,0,0,0,0,0,0,0,0,0,0,0,0,0,0,0,0,0,0,0,0,0,0,0,0],"id":50,"left_children":[1,3,5,7,9,11,13,15,17,19,21,23,25,27,29,-1,-1,-1,-1,-1,-1,-1,-1,-1,-1,-1,-1,-1,-1,-1,-1],"loss_changes":[1.1856022E3,3.9127744E2,4.8091498E2,1.9343225E2,1.24035614E2,1.4436427E2,